-11.1058
28.6052
-15.0493
-29.371
-1.34476
-1.01833
-0.706636
-0.531866
-61.2186
0.631016
19.5236
-0.732543
-1.34658
-1.0191
-0.70906
-0.525873
-11.8516
-0.75119
1.15818
3.51672
-1.30167
-0.996816
-0.643955
-0.674639
-1.2904
-0.99108
-0.626458
-0.713739
17.583
-22.5713
-3.11053
1.17398
-38.0177
-13.9562
32.9448
-55.434
-1.35408
-1.02283
-0.719342
-0.502169
-10.363
0.499451
-2.99808
1.49832
-1.35434
-1.02296
-0.719698
-0.501345
-17.8707
-25.143
-20.3479
39.02
-12.0358
54.1538
-32.3335
-19.4413
-5.78663
-3.35734
2.51216
-3.46858
-1.77726
-1.36441
-10.5512
2.54892
-1.3532
-1.02238
-0.718136
-0.504945
-53.116
24.6443
-38.5357
60.2339
9.57706
-7.74517
-3.27759
-0.57649
-1.34742
-1.01963
-0.710293
-0.523389
-7.70738
1.82509
-2.59124
1.88722
-11.1056
-0.949912
4.45665
1.2484
15.8733
-20.5619
-11.6048
-2.39868
-23.0038
-9.06639
14.0464
-1.57426
49.0473
-26.8186
-0.298111
-2.60583
-26.011
8.16693
-2.13201
1.06149
-29.467
5.59238
-0.673317
3.05536
-1.34329
-1.01759
-0.704592
-0.536544
-1.35062
-1.02119
-0.714674
-0.513201
-1.34571
-1.01869
-0.707877
-0.528673
-3.48099
-3.86027
4.96142
2.01639
7.40381
-13.3944
-0.0906452
-1.8168
-1.35532
-1.02344
-0.721019
-0.498307
-1.35204
-1.0218
-0.716549
-0.508604
-4.37594
-2.37307
-22.4097
3.09685
0.0107076
0.664338
-61.9928
8.80883
-1.3489
-1.02028
-0.712274
-0.518556
-25.0858
-20.6067
30.2253
-18.915
-1.35236
-1.02196
-0.71699
-0.507588
-51.5069
-1.48392
7.67341
18.8938
-1.35518
-1.0234
-0.720849
-0.498771
1.25852
1.48745
-3.01622
-4.36234
-1.30422
-0.998111
-0.647855
-0.665881
-39.271
10.8483
-15.9671
16.4582
-40.6503
-6.10513
27.6302
2.33116
-44.7882
-4.39343
-26.5509
26.9337
-2.69397
43.855
-35.0346
-17.0817
-6.40352
-0.953997
-5.77091
1.27363
-6.64046
0.0479879
-2.77051
0.466148
-1.31801
-1.00506
-0.668493
-0.619268
-0.635138
-3.18289
-88.2725
-3.19283
43.9425
-2.95315
-2.88693
0.878421
12.8485
-3.22862
36.2129
-3.22985
-1.51235
1.90537
61.1859
5.03178
-3.22447
-2.47328
3.55837
-3.19593
10.7299
14.2139
3.30763
19.4179
3.74149
-62.1612
-85.558
-3.17576
-3.21154
-3.18842
-3.12469
0.653058
-3.23435
-3.21899
10.5805
-5.98425
-3.20379
-2.19382
-3.22051
-8.29089
-3.23352
2.00984
-2.96779
2.6109
-3.36268
-18.8681
-2.92408
32.9632
45.8977
-3.04453
-2.46696
0.31962
45.2086
0.307071
-4.04364
0.64022
0.726189
0.253938
-22.5841
0.252429
38.7642
0.250526
-1.37581
-6.55893
23.6076
10.4026
0.258868
2.48072
-5.78831
0.300328
-34.4645
-26.1836
-7.7789
-5.82563
0.727729
76.9327
82.8709
0.330409
0.277139
0.313278
2.8188
0.444103
0.24345
0.267334
-15.8959
-4.88682
0.289996
-13.2832
0.264985
8.68854
0.244313
5.9956
0.620844
-26.5096
1.8969
14.8709
7.02762
11.2131
-26.501
0.517031
-4.26927
7.09464
-1.52361
7.10088
-5.88083
6.8936
6.83706
-10.8426
0.78482
7.13417
-67.5286
7.13533
5.40354
-7.17937
-9.01075
-6.41634
7.13024
2.09863
3.51186
7.10623
-21.302
-6.28309
-11.9784
12.4993
-8.51531
-39.0455
-59.5976
7.08795
7.12005
7.09735
-1.9579
4.07837
7.13967
7.12508
-67.504
13.7463
7.1116
-14.1341
7.12651
-5.42612
7.13939
-2.18704
6.90619
28.8198
-1.50979
13.1542
3.97821
-76.1402
-53.6679
6.97267
2.24794
-2.9734
19.8259
-2.96814
14.1973
-3.08112
-3.11161
3.90464
-23.4277
-2.95124
21.6801
-2.95066
-1.21598
0.641285
40.1317
-6.89907
-2.95319
-1.13241
-1.2067
-2.96716
8.69291
17.6359
3.17732
-27.3107
5.09829
40.5717
41.0986
-2.97673
-2.95967
-2.97033
-3.93101
1.76619
-2.94855
-2.95577
39.5937
-3.30928
-2.96308
18.8268
-2.95505
0.779789
-2.94905
-1.28953
-3.07435
-23.4273
-10.206
-3.66487
0.366891
30.7198
35.0624
-3.03867
