0.0959044
-0.279199
0.473205
-0.00950652
-0.352199
-0.0497909
0.01442
0.024247
-0.462767
0.421171
-0.150319
-0.224021
-0.496521
-0.124653
0.375607
-0.308802
0.31521
0.582193
0.408879
0.856139
0.282705
0.287267
0.175507
0.65592
0.822931
0.701018
0.785002
0.640387
0.827206
0.204731
0.687791
0.740215
0.758796
0.84542
0.577212
0.404114
0.80657
0.526829
0.706415
0.721466
0.126339
0.026426
0.298406
0.044372
0.21881
0.598684
0.435023
0.288481
0.088557
0.309131
0.344121
0.455
0.400541
0.649109
0.868942
0.176907
0.215555
0.834452
0.801395
0.406365
0.914708
0.415411
0.934768
0.272964
0.406289
0.339723
0.179872
0.845101
0.642981
0.463446
0.583074
0.364148
0.542348
0.354907
0.749145
0.194002
0.073482
0.399072
0.865965
0.487973
0.102822
0.33163
0.289414
0.93121
0.530014
0.787206
0.840165
0.397313
0.903191
0.353495
0.621342
0.918085
0.58812
0.414978
0.230739
0.536584
0.886901
0.203767
0.847588
0.652574
0.368889
0.337336
0.146963
0.776829
0.415056
0.762784
0.766228
0.699405
0.526316
0.735889
0.658976
0.707484
0.237088
0.365539
0.916881
0.849258
0.62596
0.55897
0.34862
0.314736
0.584129
0.073944
0.355919
0.72589
0.120128
0.355873
0.46645
0.726723
0.059592
0.667788
0.906287
0.115401
0.951599
0.644243
0.060601
0.275922
0.190191
0.485923
0.089297
0.283535
0.814825
0.537084
0.352207
0.790261
0.50091
0.111035
0.454596
0.26438
0.294416
0.633324
0.23852
0.947866
0.453162
0.374053
0.848553
0.54696
0.149194
0.6601
0.453281
0.363852
0.583788
0.35445
0.289407
0.287092
0.629409
0.180898
0.195515
0.34221
0.432304
0.774314
0.530274
0.644796
0.183492
0.582642
0.062721
0.754829
0.792446
0.531229
0.499137
0.077804
0.10775
0.11001
0.295158
0.197891
0.239676
0.57676
0.703546
0.679304
0.959504
0.58425
0.334985
0.596346
0.149774
0.562639
0.348698
0.726188
0.748804
0.220898
0.636046
0.883389
0.417325
0.117528
0.712181
0.621124
0.847138
0.838274
0.860645
0.617
0.50907
0.903855
0.286155
0.90555
0.188558
0.854299
0.428184
0.066243
14899.9
-128076
38144.5
-74904.4
7065.02
-42828.5
-6897.7
-5978.99
2504.67
1595.05
-44954
-46217.2
-676270
-974.27
4476.71
20542.4
185460
67881
-19462.5
-1253.11
103647
618969
-93589.8
79720.2
-12541.9
-1231.5
25921.8
-21114.6
-1355.49
-2217.55
-1291.89
59592.5
7652.51
-85495.3
-16107
2216.51
383.384
1105.9
-31183.5
-14929.3
1195.78
-6285.63
34961.1
-9255.36
16728.3
76758.6
-33416.3
-45482.7
33404.4
15663.6
114837
95450.3
-165017
-95339.9
-30171.3
106544
-68084
-9718.99
-726.93
-75700.2
10403.1
37477.2
565814
-1024.45
13111.9
-5886.8
-579863
-31262.8
-22149.6
-6129.53
-71647.4
-428850
-14987.5
-140414
41004
-1598.92
32747.1
41266
46281.6
-1427.42
-4124.64
-68623.1
-18813.6
232847
-43660
15805.9
814.538
-770.471
49054.3
69885.2
10865.9
79069.2
38636
-910.326
-36377.2
82757.2
80014.1
283910
-134312
-1940.98
-106228
27578.9
209308
42676
8380.56
-83719.1
45277.6
11103.2
-3687.62
28347.7
6788.8
46699.9
-471663
850.938
-26166.7
-2710.77
-79087.4
-15395.1
-28593.7
-2064.07
-92352.1
396506
54405.3
-41285.3
-1494.43
2289.58
-25528.1
33237.8
388.919
7801.79
11267.6
-3283.96
8067.87
376609
14251.3
-3928.16
-705.139
-7055.6
15048.9
-176118
-13175.6
-37976.5
-25712.4
-794.801
-6177.35
152330
-6984.24
-207056
-8953.76
-16426.3
77156.4
-126588
-428268
-393769
-18792.7
150629
-48197.6
-8394.77
9660.69
-31620.5
37277.9
-73988.3
-307174
-615.092
30702.7
16769.6
-243286
-69721.3
-333113
-1761.6
238903
338501
-169163
58795.8
-122282
-1936.23
78916.4
42536.7
5323.74
-9792.09
-7725.9
77578.2
-16138.1
34173
-23384.6
4768.71
665.884
4271.58
-20934.1
126802
14679.6
54588.2
88863.4
-21601.6
-3070.67
524794
-5209.99
567252
-113085
1058.71
