0.357143
0.0649586
0.320887
0.016129
0.238029
0.058916
0.407437
-0.384671
-0.329707
-0.34756
0.215567
-0.354427
-0.446532
0.0673696
-0.1816
0.171163
0.425853
0.101076
0.634501
0.718503
0.371844
0.492234
0.96511
0.040755
0.437977
0.866373
0.688013
0.39755
0.458546
0.364809
0.78802
0.577303
0.809668
0.347224
0.31441
0.893829
0.344709
0.56361
0.08339
0.689619
0.28747
0.759242
0.489169
0.252077
0.315466
0.521895
0.406419
0.623284
0.413369
0.18077
0.3669
0.327913
0.4964
0.347473
0.5465
0.818359
0.181504
0.592469
0.882596
0.231752
0.008211
0.541016
0.577191
0.057617
0.0897
0.818916
0.801238
0.362836
0.853113
0.903814
0.331371
0.312125
0.482265
0.900473
0.073164
0.850051
0.925052
0.478959
0.126292
0.166503
0.539778
0.732359
0.387325
0.837758
0.248981
0.7985
0.454804
0.041248
0.573709
0.823555
0.823172
0.457892
0.912604
0.054939
0.426378
0.695679
0.114478
0.931225
0.692425
0.769965
0.731039
0.765825
0.96594
0.381023
0.848634
0.595267
0.712783
0.359454
0.420299
0.267902
0.538071
0.372951
0.558745
0.422177
0.614085
0.085994
0.285723
0.478758
0.819375
0.185215
0.612915
0.878885
0.311277
0.532676
0.182152
0.063483
0.195896
0.390695
0.271402
0.591105
0.780875
0.590019
0.909991
0.860608
0.136464
0.173262
0.301343
0.65109
0.486139
0.964168
0.878415
0.195928
0.592395
0.683022
0.297364
0.361253
0.617711
0.333581
0.883763
0.242318
0.714371
0.4786
0.938484
0.525503
0.157072
0.045435
0.704718
0.449407
0.601189
0.872639
0.205145
0.595623
0.868184
0.765128
0.399021
0.782653
0.668843
0.250135
0.679928
0.531425
0.886258
0.686456
0.891815
0.37998
0.897452
0.340706
0.828822
0.162474
0.359603
0.792248
0.073114
0.564474
0.409589
0.384233
0.13755
0.745431
0.805632
0.960956
0.773209
0.814027
0.789336
0.518715
0.372142
0.122127
0.080931
0.55429
0.830257
0.67446
0.91842
0.176504
0.684066
0.566692
0.710647
0.247423
0.875391
0.409997
0.22438
0.775961
0.67876
0.534291
0.254514
0.610334
0.100953
0.86776
0.014829
0.32595
-14501.3
-56457.7
55666.4
-42187.5
-211266
-47901.3
-5206.38
-16770.7
-11323.4
9414.85
-199956
-68635.6
69733.7
6944.19
17084.6
12486.4
-10098.4
23122.2
-219278
-132790
-28367.9
114449
-2350.94
27257
6167.17
366326
-8739.79
4270.06
17514.8
-12754.7
386742
121653
-74856.7
-24644.6
-10722.9
-115051
248739
-29669.5
2340.89
-5952.01
141609
7046.12
-482068
119993
17109.2
-20928.9
-54535
77351.7
252.95
10929.5
77818.3
410448
-59963.5
54753.9
-31194.3
51843.5
36229
5243.03
13488.8
-62146.6
375728
78034.6
-227963
-1090.59
-85172.8
-15996.5
-45312.8
-102184
221259
84485.8
75930.6
3796.9
-48234.8
-50230.1
17245.7
-721047
4291.44
2143.8
144789
31656.9
-74289.5
-68989.2
96694.9
-13126.2
-8468.3
198219
-524502
72344.9
-121335
115768
-119367
-179.279
384855
-67087.8
-31310.2
-192297
76420.1
86008.3
-13302.8
14808.9
-43715.3
281372
36347.1
-45038.4
-144714
-22689.9
1533.33
-8502.97
9640.22
94291
-119134
-74987.5
131812
5396.48
-3566.71
-22748.7
96139.6
-7365.05
-166049
-97100.7
-203973
65492.2
-16759.6
1736.93
-13717.5
-87082.8
-5086.1
-19396.4
-14542.4
-7116.4
35522.6
109142
15619
-21521.6
40474.9
-249606
40815.6
-1201.03
112577
-12941.9
105890
12836.7
162735
81134.7
23930.1
-170326
70928.4
63051
-4240.39
11511.8
59541.3
61247.1
-37369.9
25559.3
32630.9
20737
30410.2
11783.3
8037.68
-113096
395643
23635.3
-221422
6916.73
-247.957
10505.2
-68706.7
-53316.5
252172
11145.9
157191
-225044
47928.9
-20275.6
14155.3
-235901
190.14
-3025.65
8121.54
-4004.08
-70933.6
-115793
12829
82185.5
-14658.4
249430
-117974
-14069.7
-57817.2
-105437
23919.5
-7648.98
-14305
-79676.9
-17688.2
135732
-57758.4
-25737.3
898.909
10030.1
