0.330134
0.172811
-0.42056
0.00618
-0.0662099
-0.416166
-0.333369
-0.175344
0.115101
0.498596
0.43881
0.281335
0.459166
0.224906
0.28338
-0.219413
0.229164
0.35538
0.240471
0.421077
0.947324
0.633908
0.59424
0.94608
0.221374
0.560937
0.821417
0.507115
0.178702
0.335965
0.339291
0.948321
0.125609
0.209075
0.922063
0.050117
0.891061
0.064949
0.306353
0.33505
0.485951
0.745586
0.321115
0.570642
0.737137
0.273384
0.518131
0.671452
0.612501
0.13995
0.248524
0.320133
0.560469
0.567497
0.167406
0.231077
0.812562
0.748942
0.849404
0.431609
0.611531
0.261923
0.925052
0.5802
0.739367
0.665004
0.796472
0.092641
0.500054
0.688731
0.548555
0.63997
0.735892
0.203777
0.252325
0.957042
412.27
3287.3
844.115
493.798
-735.92
4477.91
186.463
-620.381
-1836.87
-969.614
-2648.52
17.5688
680.52
365.619
-4200.22
-814.881
372.321
-1145.84
676.246
1571.42
-4557.93
313.293
581.655
5681.4
-635.416
1675.91
-62.6138
-1926.61
-332.684
-1488.65
-2255.38
-7770.49
-333.562
-2829.62
-1067.04
-11644.7
222.465
469.153
7916.8
319.385
4815.98
131.321
834.631
-758.836
12262
2247.02
6554.3
-63.9097
2103.6
1122.27
8351.01
-142.582
-349.051
-5084.68
-1077.27
-3590.84
-109.915
-796.446
603.781
-10076.1
