41341.3
2.54744
-0.80317
-16.6693
-0.648949
-3.88165
-0.273021
-2.11964
-0.659416
-0.0149534
-163.509
-0.691196
-10.5217
-1806.49
0.0412548
-26904.8
-93.3538
150.287
0.574314
1.01222
-1652.33
-0.636854
0.276141
-0.128077
0.717925
-3.47734
-1.53768
-0.769403
-0.525072
-0.0283475
-2786.76
-0.343001
-0.112031
-14.2874
0.203753
-7241.76
-1.75383
0.0603199
0.0382756
0.797928
52.9236
0.0550461
0.666797
0.309888
-0.100156
-14273.4
-22.3505
9.37918
0.151768
0.445916
-28240.3
-37.1081
3275.67
2.90486
2.84677
-12400.9
-0.429129
0.0683276
13.8104
0.795925
22021.3
254.635
-0.352305
0.179516
-0.160322
25.2254
-0.809042
-3.24978
0.167512
-0.113227
18.0428
-0.8885
1.07011
0.0217388
0.0381459
-8844.81
-11163.5
-0.296134
-0.453317
0.169012
1.15424
-1.95483
-1.66423
0.139074
-0.0946631
-13250.7
-21.8107
14.7774
0.33937
2.11302
77.6809
0.200428
-0.531032
-0.362718
-0.105875
-8.05803
0.813027
7.10233
0.887956
-3.67187
2.99221
0.205118
-0.463746
-0.837948
-0.0310058
-0.231366
-0.783934
-0.132328
-0.258725
-0.0903667
0.290925
2.34681
-0.384235
-0.123159
0.00857153
0.413768
1.08381
-1.27617
0.911368
-0.0397636
-0.241623
-66.7716
-0.112036
0.722808
-0.0833725
-11.677
-5.90633
1.94301
1.07826
6.94249
-2919.48
1742.5
1040.29
15.3228
37.1315
-1038.41
-13202.9
-1.65751
-0.0513303
-0.0100429
1.7242
7.39347
-4.65946
0.4865
-0.0517241
0.194484
-0.0241975
0.529622
-0.232159
-0.0460081
2.18268
0.442115
0.1035
0.374431
-0.0755759
1.21589
-2.81025
-0.922169
-1.93499
-0.14553
38594.3
2.11776
-0.876278
-14.502
-6.84051
14.8684
10.5782
-30.0117
0.698198
-0.0711625
13666.4
26.2284
-1821.74
-0.744465
-0.4228
-1.73546
-0.573102
0.0256877
-0.352183
0.0156502
-4.20998
-0.894832
-0.072374
0.201476
0.0447653
-0.115185
-0.588528
0.592971
0.122934
-0.0255722
2.13792
0.258131
-2.53305
-0.492538
-0.040679
3.4474
-0.114378
-4.13226
-0.294029
-0.0468491
0.7658
0.47423
-1.48857
0.399522
-0.0688265
1403.5
1.0065
-2.27285
0.841204
-0.145676
-1226.05
706.212
46.5099
0.515441
208.207
-383.432
-0.594083
0.0981431
-0.361703
-0.0484647
0.0949497
-4.30038
0.286704
0.20559
-0.0765246
4.90546
2.01902
-3.25058
-0.610811
-0.129734
-3.39619
-0.120367
-0.253883
-0.286423
-0.0259902
-20890.1
-5.31782
476.302
2.09896
3.84452
-1.97571
-0.778626
0.592921
-0.444014
-0.0425047
39699.2
1.48688
0.260796
-0.450718
-0.282935
-1.24172
0.0712966
-2.47728
-0.27718
-0.0448886
4286.05
0.847412
0.271253
-0.269886
-0.0562577
-3.24865
-1.55524
-0.531982
1.10363
0.683695
11124.2
-0.156525
0.00196484
-0.194235
-0.147454
-0.890445
-0.0190804
-0.0516892
0.15307
-0.038931
1.1936
811.954
0.629827
1.38267
-0.0094512
35285.5
4598.93
-0.366606
-22.8915
-0.154387
0.0496063
0.580808
-5.57014
-0.29312
-0.0110375
1.64186
0.300141
-0.685758
-0.0653868
-0.154893
-17112
-2.58249
11.4543
-0.115147
1.93554
-13247.7
-21.4761
109.31
1.07665
1.0525
7.32217
-10.5805
-0.365956
43.4804
-0.0718747
-23.4052
0.113937
-0.780329
-0.362677
-0.0465561
1.00995
0.324594
-2.28673
0.165328
-0.0498027
-3064.59
-1.28829
22.0078
0.586521
0.817319
3071.38
-0.448377
0.234826
0.400533
-0.170946
-15.6048
0.0480886
0.31418
-0.0621135
0.0144304
-1.57295
0.0574911
-0.561725
-0.491184
0.0111503
-21313.9
-10.1289
3.65446
0.23934
1.15076
0.935198
-0.47019
3.69299
0.552907
-0.0236345
1.3298
0.76547
-0.558312
-0.492829
-0.136483
-4.1358
-0.893209
0.47382
-0.436822
0.00966709
125.449
-34.1639
-2.59932
0.396584
-0.129214
-2921.02
-34.5173
1781.69
171.302
15.4871
708.399
-0.199692
19.1992
0.215998
0.0271617
-1.50801
-0.629574
-0.267926
-0.16987
1.43806
1.07649
-0.121888
0.758384
0.515273
0.062884
232.83
14.8132
0.173672
0.000835984
-0.0270408
-3.14496
-0.668705
2.74414
-0.570199
-0.0138507
2.64214
-0.623996
-1.19905
18.1743
4.98931
0.175358
0.147549
-0.0284065
-0.370189
-0.0131591
-14.517
-6.11221
0.542599
1.16012
11.4044
0.604837
-2.00821
0.150632
0.513235
-0.0213379
-14.6484
-0.488112
0.586692
-0.31788
-0.00348787
-3.04669
0.0402923
1.12863
0.508595
0.155462
-0.307877
-2.19252
-0.1882
0.234463
-0.0149887
-0.39635
0.229723
-0.328593
2.19427
-0.0294214
0.397077
-0.326118
0.589215
-0.0443556
-0.00974712
-1355.01
-15618.9
-0.446792
0.419805
-0.00851317
-171.394
-0.613453
0.441987
0.522975
0.0608724
0.587883
-0.0824579
-3.88922
-0.0118473
-0.0482553
-51.4189
5.81353
-0.367323
0.320594
-0.0228822
-6.73328
-0.254177
-0.678792
-1.73002
-0.0550997
30617.4
1866.39
0.0657106
-24.3897
-0.515995
-541.697
0.378453
35.5701
-0.484304
-0.0685998
-123.416
-11.9771
-1.00169
0.0963312
-0.024363
-0.393248
2.28544
-0.274047
-0.0321503
-0.0439461
-7179.19
-0.317865
552.983
-1.55823
0.00488413
135.82
-50.8932
7.14474
115.099
0.0349424
4296.44
17.7973
28.2777
-158.29
-0.0290019
0.257823
-2.81741
-194921
-11841.3
-1763.03
-11.8665
690.602
-12808.7
0.230307
-10894.9
2.17284
-10200.8
0.243508
0.324524
-0.16368
27565.9
3.03669
-10817.6
0.137156
-0.789833
-1.96721
0.286841
-0.382203
-0.453621
-9.26434
7.26594
0.20176
40301.9
-0.0268829
-0.286892
-0.309117
0.107384
0.179251
0.198858
-0.584571
-17.1075
0.5143
-0.20041
-1.71605
-0.537168
0.133949
0.34426
-0.214385
27849.7
-0.722324
0.308923
15.4644
-16205.2
-1.34762
0.376372
8.33822
0.132973
-7.50376
0.282097
-0.583158
-0.432208
-0.00950663
-1.93517
0.111078
-14254
-10657.8
-0.0741145
23.852
-0.14995
-11429
0.0759501
-25.0254
-1.99211
-12464.4
-0.0795891
0.154364
2.61138
0.329907
0.356158
-0.171763
11.4445
-0.347249
1.55785
0.0568306
-1.03561
0.069524
-7.2162
-0.0816108
0.0345509
-0.660114
-0.127568
-0.113167
0.159445
40761.3
104.32
0.117897
-1.61951
1.14963
-0.00908292
1089.48
-919.724
0.161213
-753.884
-0.26374
-0.097621
-0.102744
-0.359337
6.23026
135143
90395.3
127463
21.5067
123829
135900
-0.105916
136065
13450.4
135522
0.103862
-0.202169
0.333551
49295.8
-1.40174
133173
-0.397077
-0.114634
0.662361
0.523554
0.0895543
-0.332838
4.74886
-8.5114
-0.323149
8228.13
0.953203
-0.37838
-0.447446
-0.442857
-0.260797
0.36216
0.738759
22.507
3.93378
-0.288537
0.0176666
-0.137199
-0.166923
-0.466331
0.299388
78604.4
-3.30796
0.0317803
-40.9537
140541
4.48939
-0.109843
-11.602
-0.229288
11.1151
0.386169
-0.422185
-0.276753
-0.349916
1.89671
-0.218376
135416
133010
1.22944
-145.919
0.14337
133544
-0.452309
65.8744
1.51612
137375
-0.0635896
-0.294194
0.124186
-0.175542
0.119665
-0.284582
-3.92034
0.299507
-0.395459
0.79935
-1.06961
0.413712
4.29821
-0.0153488
-2.80804
0.379371
-0.254113
-0.399539
0.412084
36359.6
333.64
-0.0617247
18.0177
18.1778
-0.395079
-5486.86
1304.68
0.355511
-9641.93
-0.0114057
-0.0107321
0.0131548
-0.282328
-30.7266
-44402.9
14455.5
7955.68
1.46026
10761
7801.73
-0.26252
17631.9
0.341488
9113.57
-0.446674
0.368157
-0.292267
52095.6
-2.90195
15195.1
-0.0322138
-2.9847
-0.03896
-0.142728
-0.208776
0.431219
0.614879
-3.70728
-0.556925
47809.3
1.11346
0.102696
-0.462152
4.91745
-0.169628
0.268802
-0.223817
-7.00093
-8.87331
-0.185676
0.267587
1.69866
0.468672
0.0404637
0.171023
25019.1
-2.71703
0.0916007
28.4938
8459.23
-0.979266
-0.382689
-9.05729
-0.390441
1.23825
-0.500218
0.413765
-0.285806
-0.490198
3.28683
0.141152
9296.13
15132.9
0.0538183
35.7436
0.226629
8590.8
-0.144372
-15.9049
0.415037
12403.1
-0.172727
0.164702
2.53194
0.570953
-0.328951
-0.103585
-3.55167
-0.312657
0.0760153
-0.0930945
1.7657
-0.183231
9.54416
-0.106824
6.71798
-0.37037
0.269304
0.438685
-0.450385
52199.7
-283.509
0.209001
-3.71342
-0.694902
-0.492425
-379.732
403.29
-0.349862
266.858
-0.336888
-0.406056
0.0102118
0.353902
19.6612
100911
37397
35369.5
20.8841
31030.9
34839.3
-0.29063
32886.3
-12.2242
35267.3
0.373136
0.0470187
0.19765
-18458.3
-0.658229
28082.8
-0.493488
-1.0912
0.20199
-0.248232
0.472586
0.470714
-7.67983
1.31959
0.394766
-27076.7
-1.93274
-0.200351
-0.155459
-1.93722
0.197375
-0.175145
-0.387027
7.3898
9.40185
-0.232198
0.41163
0.444175
-0.375208
-0.0952796
0.338075
10679
2.52909
-0.845537
-10.0056
34395.4
-10.9633
-0.0376524
-14.8331
-0.613315
1.05663
0.421503
0.351908
0.299778
0.135106
1.03629
-0.051141
32260.2
28987.4
-0.0767335
-277.472
0.426608
35738.2
-0.345777
55.079
-1.96914
35362.7
-0.360793
0.0741567
-0.568515
-0.00848146
0.261909
-0.0870651
13.8164
0.374981
2.65757
-0.8828
-0.755233
0.0118976
-8.45787
-0.447363
-23.2502
-0.771955
0.14393
0.0511436
-0.13715
-20481
-11589.5
0.216164
384.969
4.11141
0.150269
1218.56
-6301.48
0.582165
-973.979
-3.0305
-0.213278
-0.0134561
