326.039
0.256284
-0.139327
0.220117
-0.0619283
-0.889056
0.422541
-1614.96
0.192072
-0.0114668
-134.667
0.0200665
-0.463824
0.329429
0.000423845
0.061182
-0.222382
-78.223
-0.0798586
0.012636
-0.787022
-3.00302
0.108657
0.152444
-0.0419555
-0.0710394
0.575931
-0.511079
0.345879
-0.0339878
-2.02903
1.38115
-0.225564
-0.439872
-0.388581
-4.43377
3.15111
0.224016
0.233118
-0.0771241
-0.707068
-2.1797
2.14007
0.131297
-0.0572503
-1699.59
3.31274
0.139188
-0.462201
71.5931
0.551834
0.141732
-0.629247
-0.460222
-0.0154296
-0.365609
0.970094
-0.345398
-0.124748
-0.0476875
-6.24375
0.14055
-0.599947
-0.433781
0.002506
-4.70668
-0.437188
0.325945
-0.138593
-0.124589
0.0223865
-0.836422
-0.800024
-0.453865
0.0109646
-32.1724
-0.244378
-0.194541
0.179383
-0.0327783
-0.880871
0.799152
0.482277
-0.472434
0.00408678
6.71539
-0.785028
-0.23131
0.483567
-0.00213611
-3.26214
0.134055
0.157813
-0.160662
-0.024342
-0.144704
-0.28244
2.55222
-0.340689
-0.0486124
-9.79713
-0.138439
-0.0658959
-0.719303
-0.0336736
-4.10837
-0.436214
-0.020848
-0.169031
-0.00614149
-3.32511
-4.41635
0.235446
-0.315543
-0.0392782
0.79198
0.834184
2.15791
-0.358509
-0.00658632
-1.2542
-0.638034
-1.19626
-0.74858
-0.0160522
-1185.76
14.8802
-0.0604811
-1.95705
-0.0687282
0.414624
-1.89315
-18.7152
-0.474128
0.00494713
0.711917
-1.27579
1.19701
-0.535804
-0.0250789
1.76848
-0.532368
-0.224683
-0.272701
-0.0746337
-0.168661
-0.414602
-0.86691
0.0548159
-0.0514172
-0.325812
1.89842
-0.236608
0.244713
0.0191789
-0.313921
-13.3389
0.861708
-0.149249
0.164834
0.566804
-0.0110509
-1.77658
0.311649
-0.00694661
-2.02633
1.01057
-0.187902
-0.2066
-0.00648852
-0.173008
-0.306871
-0.389486
-0.125782
-0.0200563
-367.537
-0.381087
-5.76565
-352.242
1.82245
16.749
-12.4345
0.00964381
-0.490621
-0.0585263
-1.48805
6.66431
-0.441394
0.511212
-0.64186
0.151902
-0.133765
-4.92972
0.344595
-0.0619544
1.22146
-0.185958
-0.90722
0.271378
-0.0491719
0.304638
-0.411303
0.627687
-0.104944
-0.0266373
1.96656
-1.17518
-0.895326
-0.282483
-0.0368911
-6.69654
-0.0850373
-0.202343
-0.44887
0.15732
-0.198695
-0.656793
1.24385
-0.308093
-0.0241418
-168.128
0.332213
0.29703
-0.010455
-0.0160527
-4.54663
-0.755662
1.50794
-0.307917
-0.0358802
0.966413
-0.0518349
0.0977609
0.345263
-0.0342641
1.7562
-1.37418
0.0395326
-0.177534
-0.0277973
0.970391
-205.028
0.0370901
-0.0524004
0.16793
-0.837475
-0.0171138
0.632109
-0.0360086
-0.063898
0.0879212
0.410064
0.0420735
0.514634
0.00445147
0.690881
0.632337
-45.5343
1.13916
-0.0367928
-0.0562315
-0.35664
-0.822942
0.0769485
-0.00774669
64.698
8.0085
0.430138
0.180479
-54.1989
0.59553
-0.282972
1.907
-0.602196
-0.0473629
-126.16
0.259646
0.352484
0.346315
0.092271
77.1647
0.476266
-0.0630702
0.286985
-0.0751054
345.902
213.498
-1.7822
0.177167
-0.140688
-1.29238
-0.441132
-0.413686
-0.56245
-0.00976775
-0.196615
0.595846
6.43991
-0.339877
-0.0220404
-3.12731
-0.927966
0.155608
-0.147247
-1.38662
0.147417
0.82814
0.733738
-0.00427986
0.0466801
0.403095
-0.731076
-0.249325
-0.60306
0.000560194
9.06414
-2.6078
-4.20372
-1.48559
-0.0451255
0.0808382
0.311551
-0.690104
0.202954
-0.000710057
-0.818329
-2.00021
3.25623
-0.268348
0.00405446
-8.13527
1.39642
14.8485
-0.319325
-0.0480551
-2362.49
0.373239
0.318851
-0.274423
0.835879
-0.62346
0.205092
54.7563
-0.298925
-0.0366599
0.200259
0.284816
-1.09993
0.988849
0.000503916
-11.1478
0.0248962
-0.574908
0.0628101
4.24957
-1.57147
0.391468
0.372871
-3.02972
-0.044595
-0.568824
-0.0556669
0.20794
-0.328268
-0.0134333
0.666346
0.11801
-0.386318
0.217611
-0.0198079
-0.822712
0.364984
-0.0545329
-2.68947
-0.044963
-5.50465
1.21658
-0.379645
-0.0408168
0.164215
10.45
-0.964331
0.190832
-0.490456
-6.41966
-232.786
59.9987
-0.385434
-0.235201
0.649691
-0.495129
-2.04967
-0.626824
0.420271
-0.036766
-1.58334
-32.1581
2.98485
-0.316486
-0.0336486
-0.325382
-2.22297
0.831889
0.145073
-0.0248292
-0.0490102
0.438695
-0.163971
0.155256
-0.0349736
-532.74
190.472
-0.584524
1.98795
-0.139948
-0.515662
-0.0941686
0.619489
-0.264838
-0.0519723
-0.719995
0.281223
-0.0252895
0.628412
-0.00666735
0.291964
-0.546288
2.88239
0.0331304
-0.0559163
-0.178503
0.801331
-0.296564
0.0818236
-0.119613
-0.0918458
0.381389
0.183125
-0.0934114
-0.0254875
8.39515
-1.71001
-2.16486
-0.19071
0.185683
0.272299
-0.499882
0.633721
-0.527482
-0.0605589
0.450284
-53.6376
1.94845
-0.125771
-0.0537847
0.224061
-0.0366285
0.0604741
0.177055
-0.0125805
-0.567268
-0.754585
0.189309
-4.38001
0.00812166
0.998831
1.50475
-3.76711
0.456166
0.0694109
51.4678
1.14774
-0.201591
1.07855
-0.0503808
306.293
-0.700646
-2.43655
0.0484455
-0.0174688
-0.760711
0.250286
0.397481
-0.263041
-0.04706
0.41039
-2.31158
4.12073
-0.897793
-0.160169
-0.15196
-325.959
2.16681
0.619912
-0.0230884
-4.36194
-5.73966
0.0110158
-0.129308
-0.0593947
0.287519
-0.641768
56.8037
3.86096
-0.21456
-0.316409
-2.60866
-0.30187
-0.486432
-1.26925
0.442872
-0.303267
5.13187
-0.527106
-0.196084
29.9718
-0.269483
-0.0195491
-0.285369
0.292252
-22.0306
3.23495
2.55057
0.169647
-2.32256
-14223.3
0.0510207
0.258744
0.214012
-0.446603
-0.572477
4.45812
0.413154
-0.164588
-0.448935
74572.1
1.18135
-0.0514735
0.0793875
-0.0964261
0.273129
0.428449
-4.239
0.381635
-12.6919
3.49366
-0.151307
-0.0306516
-127.096
0.382724
0.38143
-0.233568
-0.166044
6.28433
0.0637835
-51.2955
-0.15861
0.146979
-0.538944
0.182971
-20.0329
-1.83049
0.0361452
1.25566
0.425585
-0.526189
-0.0462857
-12323
0.0874158
0.339953
5.52826
0.62938
-0.413048
0.253967
0.0406165
-2.49851
-4.25819
-1.34466
-0.545356
0.0850046
-0.0614312
-0.339981
1.57132
-0.296806
0.208238
0.0675773
-0.142431
-0.21103
-0.281455
-0.00774939
0.141491
0.424928
1.18335
0.132343
-0.262485
-0.248613
-0.122647
0.448185
999.083
-23.5027
-0.0189479
-0.344969
-1.02331
-203.202
1.82841
-2.80788
0.14976
2.55499
0.359405
-0.339135
-4.97225
0.0359932
0.145688
-164.951
-26.6584
-0.223164
130.928
-0.456219
-0.0644068
-0.29165
0.291342
-326.431
40.4632
-10.93
0.10982
0.0476082
6839.33
-5.58484
0.394156
0.445257
-0.503274
-0.115737
-5.10574
-0.491631
-0.161204
-0.111739
42888.8
-1.95309
-0.17059
1.06866
0.287903
0.215223
-0.503331
467.338
0.235065
574.108
-10.1752
0.436507
0.0915436
228.692
0.642189
-0.282661
-0.0744823
-0.447723
-6.15902
-0.197189
-301.318
-0.313766
-0.132588
7.51818
-0.173158
-23.067
1.51896
0.276139
-1.04949
0.314543
-0.388237
-0.179863
8624.8
-0.351286
0.355116
-25.3908
-0.0338842
-0.500456
-0.282285
0.117491
-20.6588
5.28374
1.87062
-0.396965
-0.149465
0.077556
-0.245095
-0.365668
-0.484748
-0.32133
0.227076
-0.372601
0.411139
-0.22929
0.245582
0.185395
-0.499101
-8.33855
-0.317116
0.309893
0.559143
0.460569
-0.113233
-840.415
31.8498
-0.02173
0.104119
1.45183
-8.19559
-0.0250114
-0.134514
-0.179793
0.877896
-3.15635
-0.252387
-2.45211
0.391613
-0.192677
-21.2575
-0.54958
0.111904
12.9026
-0.0711279
0.446826
-0.424313
-0.445869
19.4897
9.35231
-6.72731
0.0830501
3.49251
-18335.5
1.16543
0.374055
-0.129123
-0.397541
0.14572
-1.29281
1.20679
0.595219
0.402809
-58854
-1.79637
-0.371987
-7.88771
0.0849619
-0.114722
1.97007
-33.8581
-0.378306
-166.248
0.0402253
-0.396974
0.110318
219.276
0.0971044
0.4179
0.152662
-2.34501
-4.40331
-0.242241
75.3692
-0.152892
0.0612773
-0.0956448
-1.78246
12.1817
0.0020104
0.26259
4.47212
0.462998
0.0211859
-0.449486
-18659.7
-1.24502
0.319782
1.37132
-0.369068
-0.16614
0.220243
-0.383972
12.4747
-2.34398
-0.582558
-0.214633
-0.107727
-0.265286
-0.259667
0.528198
-0.37811
0.473963
-0.343223
-0.312108
-0.367036
0.462321
-0.217781
1.06181
0.48924
1.35745
2.99705
-0.044632
1.3509
-0.379855
0.774948
-5988.95
1.5916
-0.020062
0.229472
-0.164076
-2154.86
-1.31549
-0.156035
0.285046
0.04062
2.88138
-0.298105
200.62
-0.193894
0.346164
-6.77461
-0.614003
-0.231684
-29.2484
0.161675
-0.138264
0.126901
-0.5053
59.5117
2.85801
2.59829
0.0724723
-0.23456
40741.7
-2.6504
-1.57379
0.449633
-0.010273
0.420312
3.66728
0.29346
-0.350721
-0.113224
-31279.3
1.33347
0.467944
0.0529502
0.114834
-0.275195
0.274061
5.03786
-0.293387
1046.89
-0.201814
0.361644
-1.11472
-318.933
0.450232
-0.177094
0.489528
-2.43974
4.18379
-0.290747
6.69048
0.453342
0.485367
0.65252
-0.0560825
-30.8042
-0.445479
-0.710998
-1.19247
0.0753667
-0.312849
0.00340543
42119.8
-0.343809
-0.04284
6.33246
0.324418
0.411483
-0.359594
0.0329731
-17.6117
2.74603
0.643994
-0.543931
-0.37304
1.5576
0.219264
-0.704681
-0.37769
-0.442345
-0.405649
0.446781
0.202662
-0.391178
-0.502976
0.0978813
-0.472749
-2.41156
-0.0582608
0.0100781
-0.1057
-0.324093
-0.362437
7392.28
5.65817
0.00394948
