0.612532
6.78566
-5.91733
0.437694
-0.0980629
19.4578
2.51227
-6.14461
-0.738508
0.0016342
-3.93528
-0.0645941
-0.431961
-0.343187
-0.0250524
-2.71489
1.37171
-0.170657
-0.791936
-0.000466105
-0.601905
-0.474957
-0.258229
-0.485019
-0.0535001
0.852255
-0.735813
0.323689
0.291533
-0.122035
-0.272827
-4143.82
0.268856
0.203312
-0.0826753
0.0219551
-0.0221959
-0.477179
0.438196
0.00946942
2.03665
-0.671702
-1.70072
-0.64802
-0.0258968
0.693414
-0.0512691
-0.1093
-0.413239
-0.0275929
-3.17083
-0.340474
-0.465012
-0.0113485
-0.0311125
1.62511
1473.66
-65.0138
-1.48656
2.18174
0.438398
0.170494
0.170978
0.0228514
-0.0295163
0.345082
38447.6
-61.2696
-0.705458
-0.00945943
-296.605
-21.6213
-0.0631124
0.197696
0.241994
0.306626
-211.085
0.119014
0.691647
-0.0492665
1.66199
5.30002
-578.211
-0.90329
0.0188329
-0.125464
-250.918
1.08048
0.0197959
-0.131178
128.036
25.3711
4.67883
4.30991
-114.042
-0.717965
0.137146
0.114905
0.0485991
-0.0209223
73.0809
-4867.4
19706.2
2646.84
-0.102942
-0.612383
-12.9319
0.444213
0.271501
-0.0266097
717.069
0.169125
-0.134467
0.670784
-0.13643
0.0727075
5973.31
-0.111841
-0.323195
-0.103702
0.63783
11.8477
-149.471
0.210391
-0.0609159
2169.27
-0.633014
-0.803867
-2.10458
-3.355
24.6853
-1.00504
-2.92168
-4.60698
-0.0529976
1550.11
-1.91093
0.656991
-3.80528
-35.9188
-0.0635588
-303.558
-0.682327
-0.501355
-0.0754654
-25.619
-0.667811
0.149049
-0.599061
-0.0538238
2602.7
12372
-0.702708
-73.8547
-0.630393
-0.0996941
-0.346958
0.070261
-0.504721
-0.0249276
-2082.62
71379.6
-27.0941
0.599118
-0.0245986
-0.115828
1.29263
-0.489997
0.480484
-0.0404991
-7.23163
-219.157
-0.79833
0.0666892
-0.0382706
107.707
-2.62563
7895.64
-0.229054
-0.0315979
-1.30965
736.916
8.74061
17.5912
-0.0443208
2658.18
-1.04055
0.32141
0.125004
-0.00795684
-10.2953
-3.8063
-0.567036
0.252624
7.50833
-35.1954
-0.331875
0.62786
-0.0168741
0.0493501
-4573.1
-1.25244
0.147179
-17.7944
-0.0591203
-100.065
2.91335
-0.937815
-5.63241
-0.0205022
-0.460501
-0.135268
-0.211546
-0.129965
-0.039012
-2.67421
-0.261087
0.265329
-1.34703
-0.0289168
1.68791
-110.38
-0.519841
-0.291697
-0.0457774
-0.504321
0.1682
0.368443
-0.122953
-0.0568848
120.432
0.083877
0.197678
-0.246369
-0.0355154
0.526603
-4.74353
0.36918
0.00501703
-0.0810726
-3175.13
713.267
-0.215925
0.0476059
8.68688
-1.3075
-0.290272
-0.350088
-1.06226
-0.0199244
-5.72541
0.664002
1.71277
4.27708
0.00262763
-5.47931
-1.22623
-0.48242
-0.543072
0.065262
-3.2047
-3.41963
1.10631
0.573359
-0.0254102
0.0469448
0.430867
-0.719401
1.65842
-0.0260899
1.42323
-0.291502
-0.436901
-0.621222
-0.437652
-0.765395
1.04883
-2.33843
-0.478667
-0.0647396
-102.713
0.652756
-0.175299
1.59953
0.411537
5.89404
7.18277
-10.1205
1.08661
3.04209
0.546949
-2.60601
-45.8177
0.318343
-0.0472133
-21.7387
4.67458
-388.626
-4957.97
-0.146917
-0.817614
1.72531
-2.03132
1.37771
-0.0172824
-3.63722
-207.081
0.848921
0.343826
0.047078
-1.34187
-1.12965
0.34056
0.272272
-0.0285005
0.999373
-0.233153
0.356078
-3.71019
-0.00233164
-3.25239
0.44495
-0.577641
-0.0969187
0.0252188
-0.246794
0.920023
-0.293011
1.21689
-0.00368595
-0.90791
0.225842
0.0169021
0.055335
0.0108796
-2.68989
2731.09
-0.936799
-0.146678
-0.0407273
6.75176
0.334921
-3.15341
-0.606005
-1.64752
0.422871
-7.87627
5.14559
0.897606
0.192855
-70.0256
13.2274
-0.529824
-0.734543
-0.0393569
-1.82018
-1.63162
-0.644409
-0.636781
-0.0675324
1.47683
0.170646
-0.182729
0.344547
-0.0567594
-0.279001
-0.254542
-0.137891
0.167211
-0.0127529
-1106.16
-960.229
740.736
-2.80695
-0.0498142
0.145604
-0.578394
28.2103
-0.414845
-0.0332379
0.180233
-0.531693
-190.58
-0.0605622
-0.00183326
0.154183
-3946.81
-0.0289056
-0.591455
-0.0126054
-7.07009
0.950461
-5.38932
0.276359
-0.084651
0.602317
2.43826
-1.93742
-1.03341
0.0677455
1.32419
-7.85886
0.486288
0.284117
-0.0896911
-25.7537
-0.252129
-0.0921777
1.12303
0.0112474
-4.42785
-0.442314
0.200924
-0.0503555
0.00559622
10.0911
-0.315661
9115.33
-0.540221
-0.0171917
0.403569
-5127.55
0.389748
-0.3708
-0.116442
0.214132
4.94411
1.006
-13.078
-0.065022
334.982
-3790.78
4.17107
-0.268258
-740.932
-0.0977061
-0.827402
-0.328137
-0.482737
-0.0567155
-6.34371
0.0756002
-0.430336
-0.012184
-0.0101359
87.3337
-165.681
1410.03
80.021
-0.412387
-0.072431
-2.47897
-0.425179
0.021827
-0.0490566
-0.235545
0.883212
-0.512673
0.870709
0.0357264
-3.97422
-0.715469
-0.164447
-0.148625
0.102524
0.397385
0.339944
6008.04
0.241059
0.0646928
-4870.79
4.14629
-0.158907
-0.91972
-0.0388592
0.087427
-0.533762
440.583
-0.0536716
-0.0625555
-15.2793
-0.68036
-0.336342
-2.17823
-0.00234797
-0.754495
-0.481057
-0.0972183
-0.463214
0.0362488
8094.88
-0.676103
685.014
-26.206
-0.0721871
-0.803149
1.84839
0.128958
0.197598
-0.0612849
0.102025
2.24918
36.6304
-6.58678
0.330836
-0.0495648
-62784.7
0.178601
1.46347
-0.329881
2.37448
-0.245891
-0.369022
-0.347495
2580.23
-9.56916
-39.5053
206.541
5.60975
0.153961
-0.327178
0.166107
-0.092562
-0.234116
0.530055
0.20569
0.389823
0.461534
-70.67
22.3874
0.0483363
-0.606804
-0.315648
-0.35743
-820.524
-0.62351
-0.329305
0.467653
3.84048
8.37362
-3483.08
-3.89686
-0.648032
0.80416
44.6614
-0.484724
0.0138575
-7.37851
-0.516779
0.894196
-0.353892
-33.0736
-0.675513
0.467593
0.369182
0.415616
-4.90338
-0.362319
-2.59681
73393.6
0.0448951
-326.399
0.0538691
0.342283
-11.7775
-1.15174
-0.357288
-0.299434
-2.10366
-1.15612
-1.43162
-7.3207
0.378365
0.32644
-0.561037
-0.0552768
46.1033
-2.27046
3.03777
0.298352
6.69608
-2.19175
12.2816
0.157277
-4832.59
-0.150955
-20.6982
-0.091889
-22.5757
0.428299
-1.41996
-0.468619
7.1717
-0.12245
-3483.48
-0.00192097
-7.025
-0.448548
0.0552374
-0.396651
-0.0141959
-0.019176
-0.436579
-16.7661
5.63357
0.423289
0.962414
24073.3
0.22292
-0.170233
-0.455383
-1.47928
-0.00429559
-0.383322
-0.397796
-3858.97
-50.3077
3.96039
16.2569
-5.24415
0.316209
-0.224865
4.04799
-0.11283
-0.466619
-0.457136
-0.388439
-1.67622
-0.392475
13.0359
-125.992
-0.319218
-0.139832
-0.23726
-0.273165
-898.445
0.375469
0.577103
0.525613
-8.57274
39.7417
200.717
3.85253
-0.0760515
-8.98135
-33.2105
-0.35069
0.301145
19.1285
1.52947
2.69385
0.389208
61.1722
1.07128
0.0278501
0.138972
-0.447924
10.8542
0.58309
-4.7497
-99018.2
0.601082
334.144
5.50485
-0.626535
8.26855
0.659355
-0.0134359
0.014017
1.6769
0.7842
2.3003
-11.463
-0.475344
0.393364
0.642815
-0.45362
23.0249
0.319346
-4.69617
-0.472883
-16.0762
-2.70101
0.0285689
0.018157
-28611.7
0.588512
1018.39
1.75111
7.26571
0.0236805
0.469629
0.339309
-6.70498
-0.122856
-494.96
-0.277514
39.0503
-0.0620381
-0.025759
0.0456627
0.0141462
-0.131291
0.30624
19.7313
1.29442
0.104632
-0.321605
-95808.6
0.207331
1.66104
-0.0439799
8.67582
0.5973
-0.147664
0.18575
-2683.4
17.0625
79.8208
-179.609
-3.19447
-0.035058
-0.108372
2.44418
-0.442044
-0.239095
-0.196908
-0.318801
1.12925
-0.23242
-145.201
59.1917
-0.0725932
-0.248008
0.436381
-0.287391
448.974
-1.81922
-0.49052
-0.648129
6.47814
-39.847
7852.9
0.382496
-0.202391
3.93594
-25.2183
-0.460793
-0.30954
3.64978
-1.0531
0.446342
-1.45371
2.28194
0.0892336
0.31855
0.0446627
-8.26572
-3.60926
3.5773
12.2769
102176
0.198603
418.248
-0.00429961
0.728608
11.0841
0.137746
0.184223
-0.0703965
8.6124
0.298392
-1.52625
-42.5494
0.0485324
0.278065
1.10001
-0.350616
-62.0862
0.0255775
-2.3193
0.301404
-4.36005
14.3862
-4.05498
-1.05127
-134798
-1.24089
-18.9877
-4.56391
-30.5822
-0.248587
0.40657
-3.86702
5.77565
-1.11239
8322.52
-0.454161
4.87725
-0.10864
-0.481808
-0.194378
0.0166562
0.0131844
-0.558512
-28.3451
0.504201
0.248459
0.185064
79663.4
0.380818
-1.92865
-0.469139
-8.39479
-0.341026
-0.395483
0.296281
1751.7
-67.3495
-81.169
295.473
3.18456
0.300222
-0.137153
-0.880618
0.297295
0.267456
0.202187
0.367242
-1.52545
0.332939
274.842
-99.9917
0.155158
-0.234003
1.30453
0.26408
-325.162
-0.194399
-0.055725
0.93427
-5.23589
41.6474
-14755.9
4.01474
-0.0586761
-8.29397
24.3679
0.130164
0.322734
-2.13792
1.13025
3.11326
1.12628
11.6208
0.185306
0.259186
0.408371
5.63291
9.66735
-1.53388
-13.2128
-68413.7
0.227408
-561.451
0.282578
-0.684684
-8.79861
0.185535
-0.401648
0.302879
-3.52709
-0.834449
3.22401
41.5511
-0.445487
0.344819
0.266199
-0.385381
58.8918
-0.360231
-3.71167
0.0472918
3.35867
-10.8434
9.46063
0.289891
114436
0.859295
-4.91398
-0.471784
24.4672
-0.179474
-2.34545
1.32335
5.53287
0.512374
-14780.4
-0.110965
18.0716
-0.467099
0.274928
0.17047
-0.0117908
