-25.1819
-0.455008
-0.264351
0.0673134
-0.753215
-13.849
-0.248023
0.659639
-0.640975
-0.620504
-2.54276
-1.02407
-1.24825
-0.495051
-0.25027
-2.31798
-0.46037
-0.897638
-0.428807
-0.306857
-0.0282743
-0.250611
-65.2863
-230.387
-0.635697
0.418208
129.472
-85.9926
-35.655
-0.341287
-4.97561
-2.56293
-55.9058
-2.98579
-0.311544
8.68696
-2.66765
-3.23437
0.165359
-2.16158
-2.70302
-0.709367
0.186404
-0.336106
-0.732874
1.08466
-41.998
0.217023
-3.05893
-0.713876
-3.10635
-0.367351
1.80388
-0.630752
-0.745853
3.97124
-0.742106
-0.809457
0.789366
-0.567649
-85.8228
0.874428
-0.371506
2.8577
0.0810907
-2.50594
-0.339188
-0.0633952
-0.321154
-0.383386
-0.45438
-0.56542
0.320275
0.181467
-0.340303
-42.8242
-0.720509
-0.226413
-0.163502
-0.517061
-1.65868
-0.442217
-2.32916
2.32205
-15.6114
-2.4443
-1.83561
-2.0951
-0.0560648
-0.335763
-19.1197
-20.3398
5399.72
-526.513
-2.91315
1.44028
-0.874647
-0.306698
-0.94776
-0.85685
14607.3
3.00216
-2.52751
24.59
-0.544041
8.25158
2.67543
-6.70952
-1.31071
-0.362358
2.43692
-0.603709
0.0816994
-0.620922
-0.845076
-11.9678
0.0316609
-0.906027
-0.214802
-1.06772
0.426256
-1.54435
-0.718373
-1.60795
-0.358829
-0.0716238
-2.04474
0.0831556
-0.0352457
-0.228285
-1.07566
-1.57741
0.282063
-1.28857
-1.17534
2.1431
-0.791477
-0.944386
-3.53906
-0.175014
127.753
17.0099
-143.402
12.8759
-1.13861
-0.128067
-3.67492
-1.16962
-2.07349
-1.11759
-1.40862
-0.626452
-0.111962
-1.34733
-0.514498
-2.12666
-0.663184
-2.30474
-0.194673
-0.760732
19.5226
5.37961
1.40247
-0.889151
-18.8388
-0.488478
-0.419989
-1.51005
-1.19038
-3.65893
-1.15584
-0.443908
-0.244834
-0.346738
-0.751103
5.32103
-0.249764
-3.25246
-2.69747
0.554292
10793.3
412.176
6005.94
-0.888289
-315.846
-1170.55
-5.10097
-0.490425
-0.562976
0.0157061
-12.7497
-8.09033
-2.58841
1.53691
11.7308
-2.60171
-0.77057
-1.53277
-0.592985
-0.122697
-2.5958
-1.44134
0.716705
-0.951921
-0.255937
-484.195
-1.26821
-0.218786
-0.463143
-0.34397
-2510.11
-6.03842
53.4067
-1.92648
-0.337899
-4.00017
-425.874
-0.124881
-1.91882
-0.268774
0.28909
-0.0742336
-0.242382
0.404692
-0.228383
7.52503
-81.8504
-12.9341
-3.47836
-0.426856
-194.574
-41.7495
-0.0160609
0.336781
-0.016499
-0.936904
-0.713024
-0.652829
-0.189768
-0.729186
312.341
0.901932
37.4048
-26.972
-0.697213
-0.582291
-0.56632
-0.854125
-0.16228
-0.294765
114.794
-25.2415
-10.7762
-0.456422
691.222
0.31553
33.1455
-1.24926
15.9411
14.7679
-3.40883
-2.8072
-14.2632
17.2653
-2.24307
-2.27059
-72221
-6.17043
-0.541517
0.164532
-1.48826
-0.185858
2.76781
-79.0552
-0.744628
0.244417
22.7031
-1.06138
-0.141877
7.14847
-0.617287
6.06755
9.84413
-57.7803
-1.4535
0.36614
0.0915889
65915.4
3.21365
3.31195
-17.8537
1546.65
46196.8
-109219
-0.490379
-3.35303
-611.135
-4.66149
0.289899
0.724387
-0.205397
-286.385
53.8696
19.6116
0.346751
-160.52
-0.00434854
-119.034
2.49224
23.8916
-10.8352
-2.20894
1.28862
39.8289
-25.3272
-1.32094
18.9103
92107.8
11.7848
0.0652913
-2.4683
1.67769
0.459179
0.839537
163.662
0.621554
-0.517202
-12.7107
3.65478
-0.100563
-30.8137
-13.0995
-12.01
-8.23569
96.9129
-3.96574
-1.00645
-0.0759545
6383.47
-4.64237
-14.4715
23.2703
-7309.87
28652.3
62461.3
-0.622989
8.70054
1379.4
9.06404
-0.378836
0.707634
-0.0461585
189.261
-20.3885
31.9902
11.4253
1302.81
-0.142408
-370.505
3.57897
8.04505
0.984398
4.40118
-0.412064
-21.8365
-0.839464
-1.00598
-46.3184
53218
-12.8508
0.672768
0.764213
0.401518
5.95964
-1.12965
-130.571
15.6586
0.355834
-39.7688
2.40987
-0.829456
-36.7864
3.75197
-0.526664
-5.81614
-116.793
-0.392617
-1.87892
-0.099486
-9539.22
4.46961
13.9579
3.64747
6113.24
-24615.3
122167
-0.132193
8.63726
925.177
-47.2896
-0.380197
-15.2106
-0.148814
-282.1
56.0353
7.8252
-1.22205
-170.678
-0.0698431
584.261
-1.96827
34.2293
8.80191
-8.88705
0.235889
59.3859
-32.8039
-2.50732
26.1983
-52083.6
1.03377
-0.297556
-1.52604
0.282174
-2.32769
-0.306163
122.654
-17.4901
0.085214
-9.1801
-0.262216
0.503126
52.7266
-3.76852
-27.8902
5.58285
-18.7603
-1.39681
1.73261
0.00801364
-28505.9
-3.33688
-2.1612
23.2864
-16274.6
-6435.84
-122590
0.247116
-8.88358
-1296.69
-1.69217
-0.0933802
32.4083
-0.28979
