7.41282
-0.542058
-25.3344
7.6754
-0.0383704
-95.5403
-0.517245
0.147781
-0.525789
-0.027811
-1.47456
0.0396365
0.0910366
-0.594737
0.0840657
-12.6624
-3.81215
1.5317
-0.483839
9.69772
1.31407
7069.37
-448.598
-45.5895
0.0355532
782.473
-1.44196
16.0183
4.29284
-1461.16
-5.99504
-0.251968
0.118492
0.501689
0.0504388
-3.17879
0.140278
0.182597
0.597138
0.00997313
-16.8381
0.123716
1.40806
-0.396181
-0.204718
-2.76482
0.031391
0.0684842
-0.316427
-0.0121085
-18.7788
-7.67879
-0.284978
-0.379835
14.0487
-0.0147442
12.86
0.0331568
13368.2
-0.0550325
0.135839
-2.75788
-0.50927
-0.13619
0.131713
0.685055
2.61509
-0.389846
2.82771
-0.0593991
-4.22557
0.33628
1.33844
0.315701
-0.0778997
7.52686
-5.54547
0.709925
-1.08416
-0.0396236
3.76251
-0.624711
-1.03373
-0.884241
-0.164774
-1909.71
0.142414
0.0445474
-0.25715
0.013224
-98.7992
0.637115
0.579225
-0.765905
0.912779
-2.66796
-0.00247356
-0.317227
-0.247619
0.288269
-1.67612
-0.101413
-5.88337
-0.584363
0.0479001
-0.0984127
1053.31
-2.14356
-216.61
20.0955
3.36002
-2.95683
-1.99272
0.247198
-0.0857295
-6.42727
-0.0899027
-0.340875
-0.535178
-0.0409471
-0.0150721
-1.84835
-0.649984
0.644551
-0.108569
-5.19947
-0.147483
-0.431788
0.429802
0.0674326
-6.50524
0.540624
0.291759
0.759991
-0.0265908
-18.8521
0.506449
2.13324
-1.31332
0.0790425
-147.857
-0.0576903
0.587233
1.44256
0.130762
0.207796
1.55873
-3.07304
2.11087
-0.264569
-0.237614
-1.02307
-0.26257
-2.872
-0.005253
-3.63246
-0.94806
0.244631
-0.17025
-0.0815412
-0.2751
0.374886
-0.109358
-104.781
-0.000478848
0.538595
0.266209
0.17312
1.25405
-0.325907
-3.4322
0.0432173
-0.121421
0.0621099
-1.71817
-5.62546
-0.15722
1.05788
0.325368
-0.145643
0.345756
-0.31633
-2.08678
-1.18236
-0.040516
-6.12863
0.0178653
-0.259902
-0.00743207
0.0369584
-132.823
-1.46956
-0.256015
-1.95278
0.0271551
-0.549074
-0.181976
0.0533703
-415.201
-0.0339997
-3.73879
-0.345529
0.322715
-0.819756
-0.163137
-3.97955
0.354764
-1.29405
-0.341208
0.10486
-3.76285
-0.12753
-0.120629
-0.529911
-0.0396172
7.74549
-1.8
-5.53481
-1.38906
0.359643
1.15933
-2.84602
0.277628
-0.36771
-0.141029
-0.908632
-0.504381
0.189293
-0.255052
-0.0389812
-2.21057
-1.2813
0.21253
-1.39414
-0.0164735
594.756
0.215597
0.318202
-0.721375
-16.7917
0.396149
-1.36027
-0.53127
-45.9923
-0.0252047
157.985
5.16988
731.82
1.42656
-0.445935
5.09447
0.286068
-0.302127
-1068.93
-0.154421
4.56402
-0.130358
0.788266
-0.600678
-5.14644
13.4522
0.175651
3.63153
-0.115412
-192.01
-0.829087
0.498491
-0.0446466
2.57714
-0.143022
0.868086
8158.09
-1.688
13240.9
0.00435878
-1.02313
0.205518
-0.140354
0.592707
-0.0615343
-4.54215
0.0575212
0.371048
-0.318042
-2.14405
-328.214
1.06322
24.5159
-0.663105
-0.0605328
-0.537242
0.0201984
-0.253929
-0.140831
-0.0913215
-5.86808
-17.0502
83.4654
0.494084
-0.0412384
0.5898
-1.16817
0.307218
-1.51661
-1.427
-31.2843
0.0315705
0.306397
-0.893358
-0.030119
0.414909
0.376097
-0.776203
0.200622
-0.0442088
-28.3544
1.6855
-0.226228
2.76605
1.96118
-3.44296
-0.275926
1.56211
-0.0386296
-0.0898195
0.236191
-0.599445
0.529059
0.628332
-0.0696242
-2.99364
-0.0437194
0.787252
-0.321505
-0.0102967
0.997709
-74.3455
-0.181723
-0.633432
0.0240717
-0.00686141
-0.222701
-0.215207
0.435763
-0.177719
-0.275498
1.45016
0.593233
1.62111
-0.136167
-0.338117
942.931
0.0824303
892.122
-0.08102
0.123855
-1.98208
-1.17949
-0.599614
0.165781
-2658.66
-1.21896
-7.73337
-602.539
0.0354941
-0.0951908
-0.885147
-1.80244
0.197974
0.138802
673.612
22684.2
-1532.95
12874.9
-0.0529854
0.572626
-0.448767
0.189803
-0.958969
-0.0866543
1.02609
-2.79245
-0.528212
3.01576
-18.8555
0.37248
0.972381
-0.040594
0.133712
5.82331
-9.00233
2.01589
-1602.88
-8.09727
-39.9968
-1314.91
-0.310426
-0.0206023
9.98985
0.0110175
0.753793
-0.243804
-15.5398
-14.1786
-0.196859
1.06839
0.223359
0.19358
0.335997
-0.199655
-0.849197
-2.49567
0.287737
0.0633469
-0.0473601
0.586286
-0.44985
-0.289739
-0.12716
-0.522835
-42.884
-67.4978
-0.0331953
-0.559616
0.0303264
103.706
5.79137
-45.742
0.00886932
-0.0489625
-0.0240471
-2.71269
0.182554
0.0632377
-0.266266
-651.881
-0.911211
145.63
-1.57672
0.0219773
0.358376
-0.38564
-1.79573
0.470467
0.0125647
-10.5809
-2.62744
5.0826
-4.25722
-1.72665
-2.86768
-0.171935
-0.0702992
-1.68228
-0.0410623
0.275375
6.16111
-3.46634
-0.65541
-0.00817527
6.51467
1.25664
-0.0952522
1.11561
-0.0603172
-0.922637
-2.55174
0.446131
0.433586
-0.15512
0.916267
0.0653121
0.396771
-0.566529
-0.0800757
0.0512929
-0.557816
1.01514
-2.0011
-0.203061
-0.197161
-0.569968
0.544632
-0.115827
-0.238882
0.800283
0.190607
-3.78746
-25.9992
-1.25085
99.8867
2586.33
-0.398175
-1.03184
0.0306434
-0.183874
1.08696
-0.721507
0.0256637
-0.10652
-0.200451
15.9535
-0.44943
-8.17958
1.63113
-225132
-11.6857
7.53696
-7.38308
-26.9793
7.01089
-0.414295
0.166153
-0.0942031
0.24467
-0.182746
-0.377192
-14.928
-20.0063
0.890112
2.22307
-0.485884
0.542335
-41.2573
0.393158
0.293375
-0.358242
-0.174806
4.66132
1.04418
-2.27405
0.171649
22.9118
-0.0232177
3.96903
5.19768
-0.20129
-0.806962
13.047
714.102
-0.12654
7.76984
46.57
-0.441658
-0.912356
0.486525
-3.62378
0.247975
-33.5338
0.484428
-12486.8
20.5779
-203073
-0.25796
-0.545062
-0.312135
28.9633
0.21832
-0.865141
0.202883
0.157419
33.2282
0.258581
-1.49529
0.649573
-0.0856039
2.51735
11.2733
0.158295
-0.0789276
-0.37184
1.48559
0.808239
-0.192042
-0.279035
0.476048
41495.2
-0.215641
22929.8
-14.8226
19.1905
0.0684498
-1.61992
0.110925
184.577
0.294132
-0.338088
0.0388919
-1.98014
-1.51986
-0.469944
-0.271752
-0.24952
0.450908
0.556761
0.102123
0.121268
-0.419951
-0.455543
-0.287383
-0.0637305
0.32719
73.2228
0.109805
4.6557
-0.981136
251071
18.7184
-8.27103
-11.178
7.98269
-8.96146
-0.378992
-0.533467
-0.422473
10.7684
3.97459
-0.0703853
26.3801
30.9178
1.08076
-4.50134
0.534001
-2.37105
29.5176
0.071152
8.907
-2.0745
12.7133
-57.999
-0.234157
1.78871
-0.167451
-28.0471
-0.22136
7.78392
-12.0837
0.81006
0.294803
-18.6995
-178.88
-7.50605
2.69031
-39.2319
2.81965
0.297064
1.07632
3.49612
-0.173507
34.8152
-0.0468089
1763.66
-21.2122
202728
-0.442683
-0.916915
-0.499009
99.3983
-0.477859
-0.259366
-0.243452
3.45785
-57.1062
-0.288258
0.89679
1.39992
-0.144096
-4.19257
-9.35445
-0.441515
-0.392604
-0.157026
-4.06116
-6.05367
0.181616
-0.472993
-0.370074
-199303
-0.168684
-26805.3
5.50135
17.1058
-0.255647
1.59539
-0.347502
-165.233
-0.0405245
2.6112
-0.498858
1.77625
-0.496811
-1.17069
0.334188
0.05246
2.35336
1.28356
-0.278876
-0.135566
-28.4116
0.0523491
-0.452713
0.0133291
0.0507888
86.6255
1.83945
8.58574
0.127836
238461
-0.518559
-0.166869
27.1195
-1.49966
-0.472126
-0.287512
-0.0267478
0.0210672
-4.42211
0.290448
0.131273
219.979
-8.60318
1.75282
-14.9438
0.48006
-0.728809
-0.559115
2.414
-1.77956
11.7825
-19.9104
-12.9955
0.964254
-5.46913
0.0790964
7.51393
-0.248541
-39.0927
8.04826
2.81493
-3.25895
-391.967
-629.285
3.0397
5.65346
-3.8574
3.59614
10.4589
-7.74538
-0.0737912
-0.0704646
20.1902
0.041481
8228.39
-13.2557
206733
-0.467621
-0.336473
-0.03231
-45.3462
-1.94693
0.0177787
-0.791012
2.41279
19.8882
0.493975
-4.49355
-3.88716
-0.461792
-3.84868
0.445468
-0.364558
-0.472993
-0.186222
-11.2386
-182.467
0.815297
-0.079974
0.00988696
-253556
0.170918
44481.7
186.331
15.6671
0.108078
-7.07576
-0.224581
180.247
-0.155448
-0.459956
-0.0654255
-3.32599
2.69431
10.333
2.59845
-0.327546
-0.560122
-1.25085
0.542914
-0.177297
-9.56429
0.00576814
-0.256463
-0.0149619
-0.57638
-22.6854
-10.4644
-7.41258
0.44284
-275386
3.61118
2.09091
-22.8514
10.4856
-0.00301908
0.405941
1.26535
-0.179297
5.48211
-1.26852
-0.334942
-3.03313
48.2305
-3.24783
2.65898
-0.31567
0.35936
9.75908
-3.32796
38.7693
-21.5721
19.715
-28.6653
0.285425
2.93251
-0.355762
16.2307
-0.147587
35.5522
-5.76422
1.7832
-39.1712
-26.3311
474.303
-13.8108
-4.72531
5.66084
-1.28907
-11.224
0.392066
6.03798
-0.034516
-14.4202
0.183373
-8930.5
12.9871
40061.9
0.353545
0.219862
-0.345591
101.303
0.0272756
-1.72158
0.0212865
-5.05047
-46.331
-0.167584
6.28241
0.312308
-0.252261
0.492302
2.57655
-0.400929
-0.0995096
-0.0168309
8.01716
-4.1389
0.934667
0.175639
-0.0759274
272686
-0.418134
45367.6
23.1958
-1.35013
-0.484991
15.3848
-0.510442
-227.123
0.0987879
1.38249
0.15692
-1.34223
4.7765
-3.43751
-0.379681
0.329485
0.378186
7.08335
-0.0926699
-0.398157
-2.24012
0.251469
-0.27431
-0.0271145
