-14.5761
-2.98374
1.83588
-0.424495
-16.6555
-7.42927
5.90734
-1.0937
-0.413611
-1.7139
-1.49338
-1.10108
-55.4017
15.0584
4.5041
2.58931
-13.9567
2.58869
-17.8621
14.1764
-13.9175
-6.721
2.73396
1.13294
-28.7076
0.744954
-2.35106
14.6343
8.40653
-20.7477
-37.0889
4.01783
-3.89767
-5.36386
2.10431
-2.6023
-28.6405
-5.93853
3.9282
21.0781
0.681336
-3.24361
-3.22861
-0.581366
-15.5741
-1.0461
-0.387704
0.386675
-5.84164
-1.66812
0.716363
-0.668862
4.21637
-14.1298
-16.1314
-4.00248
-10.6302
-4.91499
6.50607
2.30383
12.7238
-12.1775
-8.97422
-0.431521
15.4154
-28.0797
-23.4408
0.835546
-14.7723
0.125781
-6.35045
11.5451
-17.6138
13.3248
-0.469164
-2.7706
-0.0530964
-2.53553
-2.1669
-0.498819
-8.38996
3.02366
-4.07098
3.11407
-0.38274
-1.78398
-1.6569
-0.979664
-0.313565
-1.92106
-1.84696
-0.839772
-4.21714
1.15941
-1.84704
-1.11193
-11.2502
-4.73311
13.5211
-2.51601
-0.422525
-1.67598
-1.31769
-1.23586
-36.1018
-14.5014
2.80035
33.7934
-9.68571
-0.156356
5.33967
-0.549388
-33.5216
-24.822
-33.4343
40.5459
-9.55108
-19.2467
10.9473
-0.232544
16.8052
-6.59769
-17.2154
-13.6022
-7.07312
0.318287
-2.88687
0.0913113
-15.4405
-2.52728
2.13743
-0.756529
-9.75653
2.38687
0.697391
-1.2207
-12.6076
-0.983585
-1.62916
-0.236213
5.31936
-0.882227
-2.72276
-1.85992
-50.2823
9.98394
-2.36422
-0.040142
-27.6994
-12.7225
0.113799
10.9378
-0.419549
-1.69574
-1.4273
-1.15109
-21.7389
0.249072
-0.934309
2.22372
-6.36323
-2.30161
-1.96933
0.666429
-3.8088
0.238721
1.24163
1.28888
0.97923
-4.71272
-4.55487
1.57407
-28.4471
1.56651
10.1669
2.4601
41.1584
-62.6251
4.20114
-2.2834
-7.64141
-46.7108
8.97069
2.54692
-0.413389
-1.7145
-1.49528
-1.09966
0.172078
-6.74246
-7.9464
3.2685
-0.422647
-57.5151
-29.679
15.8391
-5.73056
-2.31627
0.742316
-0.859711
-47.3957
-95.4472
-5.89225
0.672619
0.399846
-55.2819
4.29333
-0.885757
23.1367
2.43341
-2.76639
-70.8099
17.6939
6.9261
2.0726
1.43912
5.25351
-2.19445
-3.06208
-4.6171
0.314582
-5.71741
-5.46515
-0.692525
-2.37931
-6.04449
-2.96026
-1.09877
1.88392
1.572
2.28829
27.2452
-54.4701
11.493
-49.5162
4.68498
-41.0087
-33.0165
-5.95367
-78.5081
58.5264
-2.60469
-1.19894
3.56887
-0.296746
3.82875
-5.89041
-7.07762
4.49577
30.3975
65.7888
47.4794
0.167828
-4.63054
2.26537
73.8642
4.26074
0.644106
-5.12655
-4.04245
4.6038
45.5854
-7.49473
0.761198
-5.30548
-1.34564
-3.5549
-6.54923
4.86729
2.09257
-1.99851
0.513116
0.978327
-5.21931
2.76619
-0.160215
3.5119
-6.84206
-2.38238
-2.89572
-0.311405
-10.3697
60.3446
-2.56495
47.1232
-2.17135
37.1984
44.2977
0.0400536
34.0879
2.48416
0.94501
4.3609
2.73012
0.65557
1.60197
0.171594
0.339917
-1.92058
-9.05749
-29.4308
-30.3584
0.957209
5.27756
-3.54202
-26.0186
-3.51983
28.4238
-0.569036
1.26455
-1.81403
-41.385
10.8129
-42.8045
4.78527
3.08371
1.40733
5.85446
-0.0606946
2.44561
9.16424
1.40305
1.79502
10.383
-0.953134
0.440776
-0.939419
-0.77521
3.40702
-5.92741
-1.93896
-33.785
-14.1197
0.806723
-55.612
0.155583
-48.2723
-22.628
0.763432
-38.6197
-37.2448
-1.26196
-1.3888
-4.59564
1.11398
3.14605
0.962727
-8.26978
-24.4033
10.2358
49.637
-7.01176
-0.896126
-2.59078
1.41586
35.0948
2.16535
-17.9383
3.48131
-1.56594
-1.36295
39.869
-0.809911
29.9526
-1.31682
-1.53325
-1.27698
-2.82198
0.0199839
1.29795
-1.86661
-0.769483
-0.489714
-4.81469
0.594969
-0.898567
0.900261
-5.51845
-2.29406
0.812328
1.06619
-7.91154
48.0137
4.75286
38.9014
-0.231573
17.4719
13.1898
-0.914036
32.1538
18.3115
-0.124408
1.73683
1.81334
-1.25604
1.50074
-0.895313
5.1748
16.1209
6.61895
