-2.95049
4.43684
-0.708974
-0.0182839
3.12203
-1.71163
3.30377
-0.0749542
7.23128
-9.01093
0.764962
-0.0177158
-3.98887
1.27949
-4.24084
-0.0159627
-8.93362
2.34338
-3.65578
0.0637105
-3.7567
0.818319
-2.25136
0.112656
-8.54467
1.53829
1.14287
-0.010094
8.80064
-6.93164
1.66235
-0.0694093
-6.2099
-4.45984
0.334306
-0.330147
-3.87502
1.22314
-2.86596
0.014496
-3.37916
0.779775
-1.83997
-0.727021
-3.25263
0.686612
-0.361438
-0.725521
-5.09853
2.03369
-1.15185
-0.035216
-3.39579
0.753971
0.686132
-0.212513
3.6723
-1.98729
0.128366
-0.05365
-3.44953
1.0469
-2.92368
1.03484
-0.807616
0.27118
0.298577
-1.25848
2.23939
-0.511569
1.07779
0.750366
2.896
0.788302
1.74801
1.56314
-2.21847
1.18269
-1.67972
2.31535
-1.78992
1.65493
0.120661
-3.18681
-1.45444
-1.27671
-1.38654
0.0562847
-1.93609
3.05339
-0.618713
-1.91191
-0.00424246
3.75398
-9.83198
2.49617
0.693853
4.47711
-5.10871
2.45599
1.81198
1.33745
0.0517098
1.52767
-4.63152
-0.442705
0.252852
-0.951851
-0.0987915
2.68112
-1.73632
3.06084
-0.1602
0.594715
-1.07584
-0.278132
-1.20122
0.76757
-3.0609
2.99492
