-2.58763
-4.02005
-1.31309
3.76568
-11.7522
-4.13694
7.97224
0.0582506
-10.2605
-2.89005
0.609554
5.35183
-8.37049
0.251973
0.614413
-0.225182
50.2505
-39.094
1.36251
-0.811591
-1.90384
-1.11084
-0.328634
-0.198996
-1.904
-1.1108
-0.32817
-0.199065
-16.0917
-2.64525
0.542857
0.905997
-1.9041
-1.11078
-0.327841
-0.199114
-1.90373
-1.11086
-0.328981
-0.198943
-1.30873
-0.470866
-1.98568
-0.357519
-1.90391
-1.11082
-0.328423
-0.199027
-19.6364
-4.30429
4.24504
-0.189931
-9.76395
1.09222
-0.193173
2.71285
-15.9258
-2.42098
0.225976
0.974498
-1.90361
-1.11089
-0.329347
-0.198887
-1.90392
-1.11082
-0.328403
-0.19903
-1.9038
-1.11085
-0.32876
-0.198977
-7.17652
-7.13651
0.527259
-0.0888714
-91.5073
16.9998
1.32962
1.7562
-1.904
-1.1108
-0.328143
-0.199069
-1.90273
-1.1111
-0.331975
-0.198467
6.06903
-2.00196
-4.87551
-1.27846
-1.90406
-1.11079
-0.32796
-0.199096
-1.90387
-1.11083
-0.328547
-0.199009
-16.1085
-2.62644
0.596089
0.850241
-6.21438
-6.32187
-1.29589
0.835861
-8.8852
1.19246
0.812558
-0.707411
-7.39736
-0.581849
-1.79406
-0.202467
-20.4582
2.00217
-0.439075
-1.38767
-15.3328
-2.95758
13.4699
-0.0980099
-1.90345
-1.11093
-0.329812
-0.198815
-8.82026
6.73422
-0.491352
0.593058
-1.90358
-1.1109
-0.329431
-0.198874
-16.0697
-0.891433
-0.538902
0.373184
5.97995
-13.6347
-5.14741
-0.503537
-8.21692
-2.03882
-1.39592
-0.496264
-1.904
-1.1108
-0.328158
-0.199067
-7.34472
-0.618893
-0.712353
-0.502383
-16.3312
-4.04234
-0.368123
15.4642
-1.90307
-1.11102
-0.330974
-0.198631
-1.90405
-1.11079
-0.328014
-0.199088
-98.7582
46.088
-0.110625
0.198149
-1.90408
-1.11078
-0.327926
-0.199101
-8.37702
0.159584
0.544259
-0.175511
-1.904
-1.1108
-0.32817
-0.199065
8.78764
-4.14057
-0.17257
0.055216
-1.90381
-1.11085
-0.328749
-0.198978
-18.5327
-4.65676
-0.680654
4.41369
-1.90389
-1.11083
-0.328488
-0.199018
-0.806559
8.2345
17.441
30.4594
0.149047
-2.50642
-2.50626
-196.683
-2.50615
-2.50654
-2.69056
-2.50635
-204.697
9.68117
-185.591
-2.50667
-2.50634
-2.50647
38.1862
-92.1795
-2.50625
-2.50765
2.06327
-2.50619
-2.50639
-192.236
46.364
25.1119
56.1167
-86.484
-2.67787
-2.50684
-4.19793
-2.5067
-127.009
1.65349
28.0331
-2.50626
57.1702
-2.42256
-2.50727
-2.50621
-2.89912
-2.50618
31.9159
-2.50626
4.12769
-2.50646
-221.61
-2.50637
1.74139
-8.46273
-8.61044
-10.7009
-1.25282
0.905889
0.905518
239.098
0.905255
0.906167
3.56949
0.90572
195.599
-15.6563
240.217
0.906461
0.905704
0.90599
-42.0351
92.4335
0.905497
0.908602
-1.84746
0.90535
0.905819
242.191
-59.7287
-14.7074
-31.6703
171.224
1.33696
0.906837
1.71259
0.906529
229.829
-1.10195
0.485546
0.905509
-31.1032
0.946987
0.90778
0.905393
-8.06926
0.905323
-9.37564
0.905518
-0.210524
0.905981
153.218
0.905772
2.59152
-5.45696
0.358485
-1.93955
3.38073
4.19862
4.19657
-47.8751
4.19511
4.20015
2.68603
4.19769
17.3177
1.052
-62.9198
4.20176
4.1976
4.19917
-84.7733
-28.8501
4.19645
4.21331
-2.69906
4.19564
4.19823
-44.0437
-59.6299
-3.95326
-75.4156
-108.709
-3.49934
4.20381
2.04565
4.20213
-102.614
-3.66675
-161.444
4.19652
-34.6213
0.00242939
4.20892
4.19588
8.42893
4.19549
-2.23459
4.19657
-10.7179
4.19912
-32.5254
4.19797
-1.70239
-0.221391
0.777499
13.9145
-3.07063
-3.44864
-3.45053
72.2508
-3.45187
-3.44721
-2.59485
-3.4495
-2.815
0.0364425
76.3801
-3.44571
-3.44958
-3.44812
147.458
13.9119
-3.45064
-3.43466
2.36269
-3.45139
-3.449
73.1406
54.5779
10.3062
13.6716
67.4709
-0.91196
-3.44378
-1.74901
-3.44536
85.3312
2.52818
114.436
-3.45058
35.9156
-0.704243
-3.43892
-3.45117
-8.05023
-3.45153
14.7286
-3.45053
9.53668
-3.44817
9.59335
-3.44924
