-20.8517
-10.4816
-26.6869
30.7914
-4.07576
0.51152
1.15392
0.659344
-12.5564
-2.42983
0.595792
0.325439
-1.99572
-0.725649
-0.412498
-0.383266
-2.53227
1.92112
-1.59739
-4.92295
-21.0016
14.2273
-11.3777
-7.34549
7.8121
-2.25113
-2.9125
-4.73019
-12.1433
-1.95434
0.140096
0.274683
-7.61303
0.0148373
-0.0410601
-0.429972
-12.8789
-3.46085
1.21573
0.645402
0.619016
3.44273
0.153929
2.47203
-13.0067
-3.99046
1.32796
1.07688
-14.9781
-5.41873
0.723875
3.44958
33.1904
-21.2793
-1.13032
0.333462
16.0022
-43.5071
-4.00947
-0.467771
-16.7425
-12.6222
7.72395
1.66006
-13.1998
0.283505
0.546719
-4.43609
-3.81109
-4.14383
-0.617869
0.198233
-9.20081
1.96649
-0.416148
0.452576
0.967594
-3.66219
-1.02119
-0.229874
-2.83035
0.00711281
-0.505396
0.253784
-3.86543
0.548386
0.71908
0.655345
-40.3972
36.936
-10.2533
-6.99062
-12.7993
-3.11005
1.06885
0.470638
-9.6994
-4.29175
-5.1537
10.2277
-12.6977
-1.26189
-2.37708
1.68375
-2.45203
-0.0957786
-0.666315
-0.407809
-3.32417
-4.76683
-0.579702
-0.0921835
-33.9584
-26.5836
27.1045
6.55008
-3.91725
0.635472
0.544286
0.974238
-2.25938
-6.42378
-1.24042
-0.271738
-7.7132
-0.0148227
-0.494457
-0.216514
-8.35685
-7.00652
4.77918
1.25819
-6.70018
-3.06624
-1.56991
3.44143
-12.9954
-3.86004
1.30376
0.914476
-3.36835
0.285027
-0.37549
0.837657
0.136826
-4.42753
0.79524
-0.202866
-45.9066
-21.9242
26.2642
9.23899
-12.6173
-2.6379
0.705725
0.377758
-5.21239
3.69622
0.249371
0.107577
1.94821
-6.63666
0.0331388
-0.823854
-2.46508
-0.064589
-0.710018
-0.402582
3.89029
-6.99382
-2.15638
-21.4626
-3.81486
0.600445
0.00421108
1.23286
-25.0668
-1.79896
13.3567
-0.347989
-4.36601
0.404313
1.69431
0.800219
-43.8396
15.5166
-2.44507
-3.38288
-2.46839
-0.058618
-0.717292
-0.399164
-2.46019
-0.0728617
-0.698453
-0.409274
-5.74972
2.48457
-12.5119
-2.447
-2.45473
-2.34235
-29.1885
-2.2809
-3.77082
-5.92547
2.14828
-20.8725
15.2784
-45.143
4.84111
-50.7352
-71.4347
-1.8889
-3.08478
-2.25654
-32.6896
29.3824
14.1833
-3.74199
-1.89041
-1.93963
-1.1276
-39.5965
1.33966
-21.4364
-2.67689
30.6532
3.087
-1.59954
28.5285
20.0009
11.8731
13.9827
-54.1509
-1.3869
-2.41083
-5.22806
-32.3076
-1.4353
-0.686415
-2.72097
0.175881
-1.18726
2.82448
-2.77303
9.11414
-2.72536
-2.71636
16.6941
3.73398
-0.501122
31.056
-0.659569
4.66
8.12853
-1.92769
25.4545
-15.7018
46.363
0.626712
47.0966
43.4898
-0.874478
2.04073
-3.2473
28.0646
-8.73005
-4.22773
0.490228
-0.433311
-0.131791
1.39756
40.7582
-6.57096
24.542
-0.983319
-10.7234
-0.854952
0.572797
-22.2918
-9.34159
-7.76545
1.536
50.6746
0.107066
0.97865
3.48315
35.8512
3.08474
4.83773
-0.938648
1.09178
0.923913
-2.38723
-0.73042
-12.3993
-0.927411
-0.957957
-35.371
-1.99249
2.5279
-40.7503
5.07577
1.83443
-0.182446
-1.46349
-44.961
-13.0951
-32.6544
-13.5201
-23.1531
-12.6483
8.1124
5.53919
8.02005
-32.6003
-12.8267
-0.872601
-0.0579829
4.71671
2.71751
2.81254
-36.0931
4.73999
-43.4822
5.76238
-11.8951
-10.6089
2.85047
-10.7203
-17.3316
-2.66142
-7.98189
-29.0107
4.07208
3.44935
9.73219
-40.5643
0.330059
-1.20783
6.00406
-8.16
3.34604
2.57544
2.38973
12.2771
6.04232
5.94149
15.7521
-0.140696
-4.59888
33.8576
-4.51939
-3.27323
-0.152834
0.393091
37.2187
29.8151
30.4823
9.92017
22.4648
12.9219
-2.70416
-4.16843
-14.8351
35.8322
7.70416
18.0942
-2.99434
-3.85268
-4.6764
-1.23573
34.2279
0.197744
33.8733
-4.41148
6.72318
-4.21425
-3.52413
9.18337
25.7127
4.16391
-1.49616
24.2284
-3.59748
-2.91265
6.10237
37.6979
-1.96549
1.00774
-4.02188
5.90183
-2.66844
-0.424526
-4.135
-25.4322
-3.94306
-4.14941
-4.97309
