6.89906
-5.00615
0.783505
-0.589848
15.0668
-8.51164
0.289813
0.55341
-4.17028
1.94323
-0.075993
0.191988
-0.384344
-4.96538
-0.88057
-0.402135
-6.5094
3.79425
0.44964
-1.3099
22.9321
-14.4314
-0.165974
0.183734
1.52152
-6.07583
0.179599
0.318239
-15.284
9.19615
-0.996374
-0.725027
-4.0179
-5.25358
-0.797085
-0.97498
-3.78124
1.17741
-0.344486
-0.536935
-8.41491
-2.15714
-1.582
-1.06089
-1.19079
-3.45816
0.223015
-1.46599
-5.2848
-3.37976
0.268124
-0.067789
-1.17433
8.66935
-1.00528
-0.32947
-7.939
0.795308
0.146842
-0.52623
-1.19107
-1.52358
0.911364
-2.73064
0.819962
0.963618
-1.3193
-1.01304
8.39959
1.49279
-4.62776
-0.35441
1.47755
-0.362919
-2.65267
0.813921
2.21635
-0.807298
3.37946
-0.480257
-0.911358
1.17974
1.10436
-9.48903
-1.37269
4.96386
0.385612
-1.89747
-0.0775483
2.71244
0.206156
-0.386546
1.699
1.96656
0.0525481
-0.159977
-0.0111679
0.523183
1.1477
1.52733
-4.54031
0.353981
-3.407
-1.61983
-1.55533
-0.208504
0.393482
-1.67974
-2.01188
-0.0734925
0.1442
0.0330898
-0.551466
-0.947363
-1.41915
4.36635
-0.401133
3.45892
1.61167
1.53942
