-8.21861
6.98648
-1.63931
-0.0575538
-3.39747
-55.9025
7.56217
10.518
-7.88668
0.0978313
-9.57158
6.64098
-3.26549
-4.18133
-3.05713
0.0200118
-3.70126
-14.8909
0.117068
4.40045
-9.3747
1.3556
0.629154
0.604264
-28.6686
-18.3891
29.813
7.07271
-0.531284
-1.56506
-2.54218
-0.0205896
-9.89532
-5.17489
0.526015
0.203317
-3.38019
-5.5838
0.234278
0.48481
-35.75
-9.8606
28.4448
13.2145
-28.7684
22.3438
12.4405
-20.0555
-8.3477
-4.10234
9.32504
0.162466
-20.5374
-4.62807
11.5277
-4.3251
-9.88447
-5.40476
0.619628
0.249507
6.74607
-9.30262
-36.3419
9.03974
-13.6187
-13.5606
1.89866
4.95709
-17.24
20.3804
-2.61297
-1.86195
-9.99082
-4.71916
0.352069
0.130302
-9.33748
1.24897
0.319719
0.362472
-3.46346
-13.4838
5.44804
-0.525117
-3.29104
-5.95559
0.47715
0.689435
-5.04185
-12.7638
4.05575
-0.1787
-10.6613
-3.5452
-0.109493
-0.112794
-5.69907
-2.11888
2.48832
-1.8088
-4.90463
0.249906
1.60761
-1.10091
-3.70168
0.546792
-0.987636
-0.230146
10.3269
-25.6587
-1.76217
-10.3069
-13.5842
-4.76154
6.29697
4.68613
7.63704
-12.9296
-9.97165
-1.49839
-12.3842
-3.40055
3.7073
-6.40124
-67.316
4.83648
2.60361
0.701964
-34.9304
-0.933943
16.5468
2.17472
-9.01017
1.3866
-0.115013
0.0342227
-1.85137
-0.333575
-1.75184
-0.280303
19.6864
-13.3499
-5.633
-0.946886
35.4422
-52.1221
1.24383
3.93347
-23.8613
1.2802
-1.35152
-0.464982
-2.26311
-22.5942
-1.65491
2.56807
-1.22655
-0.857409
-1.92418
-0.298517
-9.89787
3.156
-0.600148
-3.79628
6.51032
24.9086
-60.1806
-8.29535
-6.65622
-4.27363
-6.31741
8.79367
7.83745
-14.4232
-10.0136
4.60624
-23.2337
-1.909
-0.226414
18.7974
-48.4732
5.57502
-1.94628
-1.05342
-70.0831
21.0968
2.09417
1.52459
-2.10384
10.5334
-15.251
-4.11111
-1.88268
-0.310361
-1.74474
-0.277077
-9.96986
-6.13179
0.910509
0.504177
-4.14361
-2.17679
3.57465
32.0506
-1.07108
9.99729
-0.392641
-5.13733
-40.8687
12.3939
0.128834
-1.42084
-3.57081
-5.80131
-43.4543
-2.81599
-52.4052
4.47329
-36.2638
12.0899
2.41596
6.5185
8.14986
-36.355
14.0541
-1.91223
-3.03291
-2.10698
10.3287
4.64421
-49.0917
-49.4299
-3.98275
12.3092
-5.79935
3.00666
-1.61986
-42.9955
24.1638
-5.84387
11.086
4.62241
0.787744
-1.88461
-2.82148
-50.3015
3.43046
-5.21106
-5.7906
-47.5196
5.55243
3.6095
-2.71898
1.93895
-10.7221
1.26164
-1.79416
0.41469
52.959
-13.353
0.972291
1.318
2.09575
3.55217
54.7609
3.18217
18.8841
-3.62149
47.2104
-0.84923
1.40354
-13.8663
-13.1365
36.9624
-14.7331
-2.01357
-1.58524
2.26837
-2.7103
-4.26914
35.4868
26.1913
1.86591
-2.83025
-1.12465
-0.915501
1.85488
27.3529
15.581
-0.522781
-9.45544
-2.9731
-0.902387
2.68866
-0.144637
41.5934
-9.69421
4.76
-1.15552
55.3561
-2.42564
11.125
-11.6306
-34.7183
-11.3599
8.22841
5.55128
5.99647
-24.3591
-22.5193
-3.93856
-1.36238
-0.308033
5.88789
-21.4638
2.16642
19.5465
-1.15688
-28.6562
7.71621
-16.753
-21.9315
-21.0585
-34.1746
6.92522
4.65867
8.0094
6.71545
-4.25706
-14.6406
-26.6196
-41.5726
-7.80581
6.42459
8.02434
-2.70331
3.2856
-36.904
-30.9657
7.38762
-10.0718
-1.11372
10.5973
8.22869
0.774768
-25.1245
7.07046
-0.139689
8.04082
-13.2312
0.0723763
-4.55508
-1.02153
8.88485
7.55817
0.103442
-0.435724
-6.80703
28.1479
10.5912
0.617389
0.975628
-1.77028
-1.46412
27.8327
0.8489
-4.00994
1.50839
26.7845
5.99375
1.37037
10.0096
-1.83075
24.5858
9.04267
-8.21884
-5.97359
-0.288284
-0.844955
1.45114
12.202
21.652
0.257368
7.77658
-4.52018
2.52225
-2.68107
18.6779
-2.06988
-5.02581
-4.2329
-0.426795
-0.405329
0.294715
-0.00625601
33.0668
-8.59222
2.17061
-4.51147
16.5815
