-5.00143
-1.96682
-13.1387
0.806753
-15.723
0.96014
-0.911816
-3.07453
-4.41208
-5.42053
-1.37018
1.77701
8.78923
-4.15485
-2.93664
-1.21078
-4.10543
-0.234492
-0.896099
2.06269
-55.6582
20.0775
-1.59831
-1.79063
-5.52739
1.80188
-10.1623
-6.1458
-53.8127
49.6606
-15.2115
-8.4548
-5.03162
5.44023
-5.25054
-7.56989
6.51986
-18.4897
-1.778
-0.235906
-1.3159
-1.83428
-0.724681
-0.469281
6.32785
-3.65711
-1.28944
-1.19329
-15.1385
-3.01102
1.78353
0.311101
-10.2083
-57.282
30.2503
18.5695
-14.9895
-3.3266
1.85971
0.475144
-36.8774
-59.6624
3.96649
48.6658
23.3414
-67.5831
2.03087
0.844589
-42.772
-31.5732
-2.27148
29.7165
-1.31594
-1.83393
-0.724834
-0.469347
-64.0566
-26.9136
25.612
8.87357
-12.7435
-1.84125
0.111955
-0.223539
-14.9949
-4.4838
-0.22788
3.49606
-1.31594
-1.83394
-0.724832
-0.469344
-7.19953
-1.14396
0.0719104
-0.21465
-90.9725
13.0908
3.56955
3.79433
-24.8433
-2.94285
13.0139
1.59944
28.575
-59.131
-5.2166
2.09167
3.09295
-7.50552
-1.11424
-0.525188
-12.0431
-9.66405
-22.6544
21.6571
-15.5095
-9.50337
1.85083
5.46812
-14.9587
-3.53333
1.60068
0.999023
-7.12102
-1.28401
0.00445543
-0.226586
-10.1357
-18.4217
10.97
0.169109
-6.49538
-3.85136
0.502039
1.85494
-1.31583
-1.83448
-0.724364
-0.469306
3.17064
-7.50313
-1.1459
-0.575241
-15.2222
-10.4403
-4.72001
16.4254
-1.02874
-8.28353
-2.58388
-0.0476118
-46.4575
-22.149
29.2551
9.65045
-15.5045
-3.11304
1.94619
0.340108
-1.31891
-1.83948
-0.729423
-0.461304
0.00613604
-8.44736
0.349038
-1.94604
-36.7404
23.4702
1.50588
-0.413845
-6.74862
3.15835
1.46489
1.43032
-80.894
-48.4714
60.1592
17.7518
-7.35159
-7.42066
3.25708
2.69403
55.5625
-45.2574
-20.3433
-19.5807
-14.9862
-3.32469
1.78627
0.572398
-15.5162
-4.53765
-2.39865
4.92801
12.7291
-36.5152
-8.5549
0.838802
37.5377
-55.3922
43.8084
2.88787
-2.98597
6.42184
39.1125
0.0334275
-7.43167
-6.63284
-4.76449
1.3742
-55.085
-0.880438
-61.5231
-3.95004
-3.76162
14.389
-4.76864
3.86709
-19.3593
-64.9509
-4.76857
33.3104
14.0976
1.74509
7.2104
-5.62585
-3.33691
-96.8268
-61.8489
34.5026
3.17597
32.3764
-4.75837
-6.03766
4.82315
26.1715
-3.10545
-66.5753
-4.81558
3.97333
2.24757
-4.39722
2.00433
16.7559
2.09308
-60.4432
-62.2146
4.90862
-35.2438
47.4828
-18.2347
1.0853
-2.31373
-6.82962
-49.8257
0.343722
7.60167
3.5035
-0.427559
-2.9937
51.7682
0.277526
62.7569
2.20941
1.76535
-12.1198
-0.431892
-6.93434
29.1389
73.0286
-0.431835
-14.224
-15.4965
-2.73641
-3.54909
5.6835
3.06726
68.5561
65.6741
-19.2934
-2.63143
-15.8722
-0.419664
5.50391
-5.03479
-20.0738
3.15545
39.1929
-0.57331
-0.921272
1.30964
2.56353
-2.20175
-6.47408
-1.58748
61.7019
71.7286
-2.3621
-4.36293
-52.5282
-21.3133
-4.42479
10.0835
6.91434
2.7413
2.74548
1.68103
6.91194
12.5862
-1.22912
-55.7951
2.26134
-53.2616
1.74537
7.30438
4.12903
12.5803
18.0236
-65.6453
-46.7009
12.5804
-22.4558
16.346
6.86436
-7.18872
-4.55026
-1.25411
-17.3349
-48.833
-26.9243
-12.7397
-22.9102
12.5984
-4.45753
1.20333
13.7105
10.2948
-49.2756
12.2322
25.8051
-7.09385
1.43223
-10.1457
-8.2657
-1.55804
-51.8576
-42.3062
22.4665
2.6378
42.328
-8.98642
3.88703
-3.54872
-7.93531
19.9705
-0.160777
-4.60597
0.216252
-10.2503
1.93514
41.2616
-0.750238
37.0417
-1.67966
-5.35757
-7.94204
-10.2561
-11.4105
62.7439
29.1581
-10.2562
38.8975
-17.9328
-2.45615
3.7786
-0.471685
-0.0618462
10.5359
36.0632
44.9173
3.60321
35.9235
-10.2326
0.289303
0.757896
-21.9955
4.39042
46.6853
-10.7743
-10.3033
2.01856
-3.46403
-4.25643
0.940126
1.95659
38.4052
34.1659
-2.43977
