-15.2676
8.74323
1.55325
1.26764
-2.99183
19.9188
5.33182
-19.0922
-12.2428
-5.05227
0.842354
0.93566
-36.5915
9.42922
1.78736
0.985166
-20.2256
9.12874
3.22029
-9.56923
-15.3621
0.0575148
13.4466
-0.0937261
4.22706
-12.947
8.66403
-0.855448
4.37024
2.26205
-2.95348
-3.00092
-14.2866
-10.7027
6.07515
-0.632243
-23.9762
-22.5857
-8.39248
23.6394
-12.2096
-5.03645
0.807902
0.959428
12.6793
-29.003
8.91781
-22.3293
-36.6254
-44.1199
31.8307
3.25779
-111.663
7.80817
8.99072
1.19772
0.475753
-39.0514
-16.9963
15.0142
-14.6439
22.3042
-40.8129
-9.14539
-8.23834
-0.793517
2.57255
0.482399
-3.98148
0.00677916
-0.933936
-0.806644
13.5025
-7.63228
-7.17828
-6.72624
-8.86295
-0.922756
2.87707
0.46965
-11.6385
2.40147
0.763537
0.254646
-11.9522
1.19973
0.788985
1.95171
-41.5622
17.7743
-6.37647
1.28521
-1.99907
-0.0605216
-1.515
-0.888042
-13.8152
-1.86723
0.447531
-1.22295
-4.54083
-5.023
0.0853178
-0.0929841
-1.78116
11.526
-30.7969
-14.0946
-0.350014
1.4547
-2.80055
-3.47498
-4.69767
0.292049
-1.03035
-1.84307
-31.4589
0.518381
9.89958
6.03624
-10.1835
-6.70937
-0.673947
2.59
-21.8431
-0.00550207
-5.85387
18.7715
-31.3586
5.4552
-3.18628
-3.10456
-12.3917
-5.46841
0.830729
1.38051
-10.4595
-2.18084
4.95991
1.94974
-4.76642
-0.793111
2.26569
-0.372983
-13.0837
-5.85965
0.846896
1.99963
-12.5593
-4.10114
0.779582
0.283456
-4.38438
-4.46514
-0.0290057
-0.572844
9.31898
-14.4724
3.40005
-0.150207
-4.98218
-3.18498
0.00238882
-1.31641
-0.205024
-15.9997
-4.33302
-0.483031
-8.21562
-0.788297
2.5634
0.478124
-8.90389
-0.897126
2.88726
0.435725
5.41606
-42.2777
22.796
-24.2536
-1.35896
-30.356
-8.49843
9.03319
-2.18489
-1.91517
2.45032
-1.0424
-35.3548
7.20412
13.8218
-5.78224
-1.60187
-0.337667
-1.05356
-0.677722
-1.73888
-0.138404
-1.50277
-0.80048
-3.30417
0.474226
-48.7358
3.84547
6.15132
-2.48016
3.01817
3.87794
-53.4786
4.11132
-46.2629
-2.88183
4.23988
-25.6465
1.10231
-2.55479
4.9874
-4.45751
0.763065
8.0045
18.6717
16.9607
-1.43607
-5.98049
-10.8719
20.641
2.84695
-2.33035
3.60808
-7.30048
-18.8718
-0.809349
-30.6841
-54.0859
5.22598
-4.24693
-63.1376
-39.358
23.9394
-5.21074
33.4325
-6.92265
4.8807
8.30042
3.14198
-2.59725
-4.56552
-8.44874
-6.02646
-5.9794
4.15173
-0.961435
55.0552
-21.0523
-6.04341
2.7164
-3.53459
-2.22277
30.4716
-4.43607
55.5455
3.35413
-1.71744
27.4501
-3.45803
3.86377
-7.83087
-5.84337
-1.42001
-7.52412
2.14605
4.50508
-1.14904
1.63281
35.4488
-8.75901
-4.49062
5.31156
-7.23782
5.82455
36.4039
-2.94516
43.0518
56.7713
-5.18352
-1.8587
58.2731
52.8216
-10.2112
5.87356
-6.58874
-6.89289
-7.83733
-7.35312
-2.73997
8.14282
2.26944
7.38826
1.72724
1.94211
0.559624
-1.29987
-25.1803
17.2161
-0.550489
-4.04089
3.03444
-1.55921
16.3995
-0.867485
-24.8971
0.373842
-3.13654
-14.1
17.7339
-1.10839
4.0798
11.7504
1.68743
4.6225
2.17843
5.31879
-7.86681
6.78118
-39.5541
-25.3348
-2.3613
0.383751
13.7628
-6.11932
-33.2577
-0.0436542
-31.9364
-17.7771
-0.640765
2.21169
-6.0259
-31.3277
-21.7919
-0.448143
-18.4793
-33.0791
4.06791
4.73779
-0.264052
-19.247
1.02358
-4.73133
3.33464
5.48985
-2.02635
1.0523
27.4982
-19.163
1.05673
1.58135
-1.00302
1.2361
-1.71301
-0.757122
27.6912
-0.490687
-0.269362
8.25446
-17.1831
-0.997364
0.152112
-4.04399
-1.19684
4.05208
1.89367
-0.0989916
5.99391
-2.12374
20.0951
13.6466
2.30204
-1.78501
-6.92528
0.820374
18.8731
0.100557
37.4553
25.5835
-1.27842
-8.79126
17.4916
20.9823
11.9999
-0.694335
14.9178
21.44
0.0289434
4.27001
0.887619
18.9501
-4.51784
1.66287
-2.44062
-1.75151
