-1.34064
-5.43702
-4.9222
-2.11733
-2.07744
-0.634783
-0.854364
0.189632
-11.8887
-9.56457
-8.29936
14.1298
-14.6851
-5.85744
-2.72169
15.826
-2.07456
-0.636586
-0.854643
0.186776
-7.50035
-1.66976
-0.909235
-0.239261
-76.7972
26.8093
0.427482
-0.705078
-15.1808
1.11534
-0.991205
-1.22558
-5.00469
-6.48627
2.40483
-1.91454
-7.10079
-1.6246
-0.55281
-0.351972
-13.5168
-0.285559
-0.563711
-0.404528
-2.10116
-0.618951
-0.854046
0.211429
-0.881285
-1.44559
-0.799375
-1.35145
-16.8047
-1.29735
1.17163
1.14201
4.86489
-38.5782
8.38278
0.172764
-24.056
-14.2989
10.0092
1.47266
-2.10116
-0.618952
-0.854052
0.211419
-31.0442
-1.29262
-2.87744
23.1916
-2.09557
-0.622656
-0.854196
0.206261
-9.09983
2.66952
0.805069
-0.351624
-1.10419
-1.30271
-0.817542
-0.98037
-16.8905
-0.927299
1.23902
0.732634
-2.08788
-0.627839
-0.854193
0.199278
-1.87829
-0.765446
-0.858386
-0.00607844
3.39501
-63.3184
-1.02276
4.81705
-12.9984
-13.8134
13.1001
8.67002
-1.86671
-0.773044
-0.858535
-0.0180956
52.0756
-41.1896
4.01408
-0.0685755
-7.17081
-1.65162
-0.550965
-0.359357
-2.05592
-0.649036
-0.854771
0.169535
-7.27511
-6.72498
14.569
-12.9308
-2.0991
-0.620317
-0.854116
0.209508
-24.814
-8.37741
-8.65502
20.1916
-2.09803
-0.621054
-0.854058
0.208592
6.37299
-4.41877
-2.08098
-0.563744
5.86151
-3.19259
-11.9751
1.45524
-4.88721
-17.8518
24.0718
-30.8705
-5.09446
-8.09412
10.6837
-21.5182
-1.53101
-0.999384
-0.852339
-0.39635
-6.17878
-0.355717
-1.9615
-0.350759
-11.3365
-2.4761
2.68268
2.42329
-27.7252
-28.8893
-13.3732
35.9277
-2.06563
-0.642616
-0.85458
0.178635
-10.1
-3.04817
6.87419
-0.183335
57.4698
9.95594
24.13
-44.2267
-6.74832
-0.189253
4.72404
-0.24269
-17.7513
-0.255038
0.796512
1.04331
-1.98837
-0.693427
-0.85627
0.104714
-38.405
19.433
-4.65896
-0.10829
-13.9768
-0.377661
-0.35578
-0.164989
-13.4615
-2.18287
-5.6406
-1.61314
-2.18412
26.9821
4.97882
-42.9226
35.1215
32.362
-28.5152
-2.17351
-3.96989
-64.171
-0.978729
-81.6922
-2.17352
0.664365
-2.17571
8.39816
-3.38835
-73.6212
-2.17868
-2.28698
5.20343
-1.5663
-2.29473
0.942949
32.5142
-2.19183
-2.36018
-2.17433
7.23985
-2.17471
2.29897
0.896915
1.82874
-2.29275
-2.6228
16.4167
12.1786
2.22898
-2.18773
4.56484
1.5347
-1.78046
-81.4168
-2.22321
2.1401
-31.4928
16.2466
0.0472123
3.1035
1.9746
0.0501098
-1.32416
-9.76941
71.1701
-1.06571
-10.9039
48.946
0.0239848
1.69635
70.4464
0.833973
17.3313
0.0239889
-3.2429
0.0293998
-3.60447
1.32179
68.5232
0.0369264
0.261538
-2.50036
1.18354
0.274906
-2.1588
-9.69755
0.0687568
1.09882
0.0259809
-1.6422
0.0270193
-0.807378
0.470952
-0.390575
0.99729
0.695291
-27.0602
2.78793
-0.998904
0.0589826
-9.88807
0.606557
1.30777
68.0065
0.139147
0.913522
51.8498
-16.6504
5.41933
-9.02831
2.03776
5.42139
-55.7798
12.1173
-40.3789
4.35497
-42.268
-62.5173
5.4199
4.8656
-30.9528
1.76902
-8.62683
5.41995
-0.0397962
5.42042
4.98241
5.15459
-13.6703
5.41933
5.43243
-4.86299
0.177628
5.43322
1.27548
-42.7396
5.41979
2.90554
5.42021
-8.76545
5.41958
-3.30847
-3.2104
-2.76478
1.94715
5.41172
-54.4852
-6.43245
8.53197
5.41952
-3.81652
-6.28612
-1.12995
-14.8412
5.42374
-5.87916
-59.9384
6.39419
-4.17484
7.35325
-2.37434
-4.17913
59.5655
-11.6005
33.3984
6.80112
58.5323
55.0717
-4.13308
-4.36037
36.818
-1.94846
7.6299
-4.13308
0.0535329
-4.14287
4.4853
-4.6508
28.112
-4.15668
-4.46952
5.19551
-0.321389
-4.48374
-1.01377
62.1475
-4.21137
-0.871062
-4.13669
7.27401
-4.13871
3.47033
1.92123
1.35509
-2.64814
-4.75182
-1.49665
9.61272
-6.79754
-4.19504
-2.80149
5.54148
-3.20128
8.33046
-4.31848
3.896
52.5401
