-12.5276
-1.15154
-2.15124
1.34386
-42.0684
38.123
-10.0895
-7.0451
-1.95099
-1.34706
-0.635612
-0.73993
-7.92844
1.59219
-0.329939
-0.353866
-13.8714
-2.22755
1.20035
0.24021
1.46271
-7.07232
0.332599
0.219385
-7.02252
-0.718629
0.211519
-0.166929
-14.1638
-5.27838
1.67159
2.31091
-13.9542
-3.98505
1.38182
1.71157
-7.86468
0.542409
-27.8358
2.08567
-33.3093
20.785
1.52182
-0.171236
15.5768
-46.0867
-2.14561
1.11491
-15.3131
1.00802
0.0190473
-3.34934
-13.9355
-3.82306
1.34033
1.64258
-45.2185
-20.532
25.0729
9.22984
-13.9506
-3.58702
1.47425
1.33762
1.99659
-4.56319
-1.25035
-0.450554
-28.5066
-0.0608259
13.9744
0.11888
-7.86294
-1.41216
0.206012
0.0413782
-13.5787
-2.18039
0.690684
0.643003
0.0119182
-1.62298
0.441382
-10.7935
-46.4789
13.3025
-0.285506
-1.53646
-4.81854
-1.11008
-0.656698
3.07705
-2.81731
-9.21351
6.91542
1.24729
-12.59
-1.08293
-0.3945
0.145414
-10.968
2.47715
-1.62475
4.0761
-47.297
-38.2805
38.5653
9.55094
7.15663
-3.02082
-1.90337
-1.23682
-7.1409
-1.02118
0.529554
0.0566969
-2.05322
-0.374751
-0.950452
-1.68467
-4.15753
-0.00807104
0.575205
0.877225
-6.99898
3.46163
0.741041
2.56059
-1.97118
-1.20625
-0.652702
-0.767557
-6.53245
-4.89466
1.55478
2.73008
-5.37128
2.15749
0.968396
0.583376
-2.45285
-9.38634
4.96543
-6.27256
1.99177
-4.57157
-1.21211
-0.504723
-13.9967
-3.09213
1.62754
0.754897
-3.8685
-4.65565
-0.497846
0.143878
-30.3779
-13.8189
11.3401
7.223
-14.202
-1.64477
1.34679
-0.708621
-1.99101
-1.16737
-0.651968
-0.751995
-2.24768
-0.632109
-0.67307
-0.60286
1.94789
-4.57773
-1.39219
-0.141801
-1.93368
-1.34367
-0.643821
-0.769861
-8.05984
-4.29709
4.68282
-0.0846761
31.0922
-31.5607
-8.79274
-8.96405
-5.78934
-4.79422
1.22979
1.81549
-1.9226
-1.34381
-0.648462
-0.789022
-1.21331
-7.74291
-1.50471
-1.19788
-18.2231
-1.41563
-2.20196
8.03856
-38.0049
0.319963
14.4586
-67.2631
-51.2017
28.4745
1.5671
-2.3368
-40.1594
-48.4524
-3.53712
-47.2504
-3.67177
2.08459
32.9447
-33.5382
-3.45687
13.3097
-3.62991
-2.54257
-16.3227
4.56656
1.11971
4.41778
15.2443
-5.07713
-3.10941
-2.46601
-2.546
9.60078
-2.22281
-1.60265
-3.6005
-44.3472
40.2285
2.02007
-41.5668
-2.58519
-3.12559
-3.71385
-2.27786
8.92277
3.04695
16.1059
-2.32211
32.5553
25.4243
1.35001
-0.678047
-7.80793
36.1283
5.01392
-15.8139
51.6778
50.513
-26.5999
1.37385
1.43324
38.6426
47.8844
3.8822
45.2364
1.82735
-1.65398
0.818818
33.724
4.68627
-16.2959
-3.8278
0.448906
24.2742
-0.478815
-0.817444
-1.79621
-13.1726
0.0503882
-2.02683
3.13261
-0.553008
-8.56634
1.40031
-0.4407
1.84534
42.1058
-6.2202
-7.81803
39.0194
-0.528248
-0.221131
1.90691
-0.663927
-7.26714
-2.12932
-1.46521
-0.659878
-24.69
-45.1947
2.17231
8.48828
5.50164
-38.4476
-0.410141
-5.41707
-16.5888
-30.9815
7.76662
-7.80062
4.97909
-36.7675
-31.8839
10.1859
-34.3733
0.35619
3.28869
-34.4974
-41.5269
-5.86778
19.8803
5.41879
2.04563
-46.9135
2.32084
-9.53307
-5.20827
-7.60806
8.64211
2.78801
1.20646
8.41051
-6.52101
1.12267
5.66939
0.517713
-35.5787
-8.33805
8.65491
-37.8135
8.29901
7.01028
-0.202088
8.60865
-4.70219
-1.47673
-6.70166
8.68269
-8.90211
34.3329
-1.49322
-8.04338
19.2824
31.1301
-0.179831
28.0308
8.54779
23.6299
-10.6225
2.86081
-4.05742
20.0593
23.4718
4.86293
24.411
-0.829565
-1.60277
26.1815
34.2273
3.93136
-29.6522
-3.3367
-0.733696
37.1418
0.924476
-2.89429
6.09483
24.0268
-6.75805
-8.47486
0.187612
-7.32546
1.79814
-5.36711
-7.97852
-0.867425
27.167
3.92944
-9.44919
27.7387
-7.22417
-5.65497
-0.797891
-7.89874
4.96039
1.36389
-1.14019
-7.82776
19.4098
