0.0997803
0.37756
0.464782
0.230033
-0.0122532
-0.348689
0.058916
-0.484283
-0.0172277
-0.0604114
-0.116443
0.443937
-0.420316
0.240959
-0.00563066
0.193869
-0.298059
-0.0994446
-0.491455
0.455382
-0.344478
0.374111
0.438536
-0.446989
-0.11858
-0.405026
-0.284967
0.00181585
0.413236
0.226463
-0.444212
0.0258339
0.446287
-0.420316
-0.163594
0.0712149
-0.0760674
0.479186
-0.380886
-0.155812
-0.451781
-0.143513
0.496307
-0.0939207
0.120167
0.35406
-0.0955382
0.355953
-0.38345
-0.280297
0.0654469
-0.36758
-0.0907163
0.273675
-0.289575
-0.0338603
-0.466338
0.228996
0.243889
-0.486511
0.411618
0.146657
-0.497314
-0.296472
-0.0638905
0.306909
-0.2322
-0.171194
0.323695
0.277642
0.183584
0.411893
-0.359859
0.461547
0.241844
0.378048
0.406796
-0.0973693
0.486633
-0.433592
0.192709
0.134266
0.0957823
-0.390164
0.0999023
0.349025
0.496002
-0.284722
-0.453001
-0.327662
-0.333125
0.375912
0.258232
-0.17922
0.291192
-0.45407
-0.136494
-0.0735038
0.406705
0.309778
1723.08
-31206.1
1787.62
25694.2
25000
4704.33
-17667.4
1607.54
16640.8
5895.3
225.067
-48688.1
-15880.5
41600.2
795.92
-3056.86
-45322.9
-10502.1
-7086.59
24472.9
30038.3
919.372
4231.1
-4779.2
-1143.21
42.4984
26979.7
7558.16
-20453.2
-26499.3
-3776.59
14278.5
-1157.86
-14710.1
-4661.75
-967.819
40254.7
13431.7
-41482.9
141.764
1464.76
41719.4
8317.2
5411.2
-23862.9
-19225.4
-3533.11
-2108.73
4311.47
-1467.43
-3270.98
4851.62
-6684
-5084.92
2317.57
-3568.97
4734.69
-5069.7
-1799.8
-360.388
-2892.92
2250.48
-3775.18
5977.71
3180.17
3831.73
-1935.17
1985.68
3137.9
36.4863
-7945.07
6233.25
-1381.63
-368.671
5591.57
2574.71
-534.465
1691.84
1402.86
-4900.47
3131.52
-766.538
3548.79
-707.609
-360.546
790.952
11131.3
10850.9
-18739.8
-4566.58
-3285.42
14287
1036.34
-2694.74
-5312.55
-2421.77
-5159.59
-609.36
4450.93
-4827.03
