0.131123
0.0575732
-0.496246
-0.328394
-0.40054
0.169698
-0.0460982
-0.0518357
-0.0701163
-0.425077
-0.0824763
0.411588
-0.200858
0.22219
0.111225
-0.276849
0.289911
0.162679
-0.016831
0.232139
-0.226768
-0.472228
-0.0946226
0.0242164
-0.113208
0.219565
0.226859
0.386898
0.264824
0.345454
0.0945616
-0.0285501
0.176595
-0.0717032
0.448271
0.433836
-0.270959
-0.0768914
0.0952025
-0.164998
-0.209708
0.0717338
0.271416
-0.417234
0.290063
-0.373531
-0.40466
0.195242
0.0533006
0.474395
-0.179495
-0.33169
-0.176809
-0.307093
0.293023
-0.27224
-0.369961
0.0687429
-0.4794
-0.252739
95.2919
390.067
-6.26719
-890.977
-108.018
170.467
-35.6465
284.301
55.6436
-214.244
525.443
-136.975
-7.75553
-130.711
12.5675
57.1336
316.262
-436.105
-378.943
-38.7256
240.755
42.2197
272.528
94.0322
-245.705
259.805
127.622
-333.676
-69.4313
88.5361
-487.358
-1964.43
1545.39
4742.73
618.274
-1811.16
-276.33
-1939.49
-406.111
974.635
-2526.47
242.135
692.883
820.452
-227.288
742.59
1742.56
-1638.87
-5413.32
-653.34
1522.43
325.525
1839
698.115
-144.583
2847.27
-325.796
-813.582
-1163.06
436.321
