-0.361171
0.356014
0.109485
0.453978
0.146168
-0.228935
-0.343501
-0.374386
-0.375088
0.0587939
-0.493774
0.283563
-0.00761437
0.0440229
-0.0460067
-0.267937
0.265831
0.384213
0.398984
0.158528
0.227439
0.200278
-0.423338
-0.437773
-0.237419
-0.313929
-0.144887
0.489898
-0.221427
-0.0222327
-0.247765
0.108936
0.109394
0.0639821
0.329951
-0.349879
0.313318
0.0183874
-0.378475
-0.249626
-0.230766
0.335841
-0.251488
-0.272729
-0.0220801
-0.34698
-0.116871
0.316553
0.474853
-0.364406
-0.287194
-0.0963622
0.26043
0.311914
-0.437101
-0.219382
0.154286
-0.36404
-0.16625
0.459868
-74.9377
284.434
233.702
-565.301
73.9128
-811.266
-678.318
-982.889
77.071
1785.52
379.979
2025.54
-1157.2
-127.528
-459.941
-67.3333
-454.68
-205.643
-462.334
-110.819
602.311
820.57
1221.79
424.104
-1062.99
-23.5107
-2098.36
1129.92
-93.1573
376.827
520.339
1255.32
367.627
2819.83
380.567
-366.331
-1443.11
-2402.62
-1829.42
-620.53
-548.348
2697.51
-979.514
489.883
-343.964
-424.546
-1381.37
-329.168
-2775.61
-384.393
434.96
1594.41
2703.48
1848.94
1092.04
463.69
-3517.16
1121.06
-1003.51
559.563
