0.390408
0.457396
0.401852
0.293847
0.456969
-0.0952025
-0.114063
0.05974
0.412656
-0.447142
-0.42993
-0.399258
-0.426176
0.0233009
0.376827
0.286309
-0.0794549
-0.389065
0.21688
0.498047
0.466613
0.298273
-0.428739
0.00825526
-0.250969
0.411985
0.14568
0.141713
-0.0320292
0.328974
0.378536
0.376766
-0.192129
0.13683
0.0834529
-0.457671
0.471984
-0.343837
0.00822474
0.266778
-0.0394452
-0.26986
-0.40933
-0.165242
0.12505
0.188009
-0.306879
0.108997
-0.47177
0.388699
-0.403287
-0.327692
-0.357234
-0.249321
0.0366985
-0.153066
0.418607
0.174551
-0.440153
-0.253319
-436.588
-2536.79
355.273
-651.772
2.29336
-77.139
-628.509
879.247
1200.12
2022
-640.951
1366.71
348.195
-718.737
-486.138
41.7838
1873.25
41.3951
-158.953
69.3727
9.97579
658.417
-6.93269
-945.064
-1526.83
200.055
-920.949
-185.981
761.347
95.4265
581.595
986.976
-449.846
1784.88
105.701
-79.0066
-553.361
-1230.95
-389.463
-1069.85
542.536
-693.427
-137.036
-499.909
1094.91
-646.154
-1630.72
523.885
-2615.86
206.966
311.288
894.439
1472.12
695.273
1522.16
-553.313
569.306
255.364
465.861
-1464.27
