-0.423002
0.263512
-0.384518
0.0667898
0.465972
-0.315302
0.253899
-0.0522324
-0.0711844
0.496277
-0.333888
-0.171499
-0.0402692
0.308008
-0.254051
0.358303
0.119037
0.414029
0.185812
0.235862
0.483093
-0.431822
0.27517
0.43878
0.0803705
0.300867
0.0760979
0.322474
-0.279778
0.0573595
0.131794
0.119129
-0.379513
-0.0594043
0.364681
-0.131306
-0.25985
0.337886
0.320124
0.312403
0.223167
0.214225
0.412259
-0.219443
-0.139882
0.352596
0.327876
-0.394009
-0.0263527
0.322779
0.244804
0.093585
-0.366207
0.460051
0.020951
-0.421812
-0.390194
-0.3652
0.0104221
-0.398404
215.218
-26.5754
-254.21
156.459
-48.7175
128.175
-241.582
-389.277
57.4724
119.037
190.152
-197.742
49.0435
311.141
-66.3475
-98.9707
-201.995
-106.373
-286.013
-24.9207
-137.246
1173.73
-94.2916
-10.5772
-450.741
-189.595
230.082
74.762
-205.868
326.136
-32.1724
706.269
662.568
476.038
698.911
190.859
-3546.59
1789.57
-500.913
1087.74
361.389
-293.689
-822.877
159.344
-943.893
-157.688
-843.194
-817.403
-442.431
239.373
-312.648
3702.11
-1393.86
235.544
-1373.06
-691.797
938.352
123.426
-495.093
1295.83
