-0.379269
-0.423643
-0.395535
-0.462096
0.0763726
-0.231468
0.298242
-0.195914
-0.239006
-0.311121
0.342708
0.0683767
0.331599
0.21688
0.0493332
0.0474105
0.185598
0.0178991
0.34817
-0.327692
-0.133961
-0.0463424
-0.31811
0.0312357
0.358974
-0.185385
-0.0664541
0.212302
-0.310358
0.156148
0.0428938
0.0779595
-0.275872
-0.480712
0.469359
-0.497314
-0.418088
-0.182302
0.156178
0.104297
-0.433836
0.17159
0.15334
0.00105289
0.0178991
-0.0295877
-0.445494
-0.374783
0.00019837
0.445372
-0.0949889
0.124561
0.218772
-0.467376
-0.263421
0.382931
0.0849483
0.309168
0.385311
0.191336
431.399
-746.535
-2137.22
1888.42
-190.924
1269.96
92.1074
-10966.3
-76.7351
4014
5884.24
-518.613
332.41
-9.10479
737.659
-34.9464
1271.83
263.809
-1315.11
-608.113
-384.467
-24.5556
1214.53
22.9472
-640.674
-1240.45
211.247
1100.68
-49.0684
213.612
-1042.14
2715.12
4128.44
-6829.91
649.012
-3687.41
1330
25305.2
133.149
-9545.21
-12990.3
1193.48
494.562
-11.7513
-1846
1083.63
-133.753
-6819.15
6970.38
-527.16
2317.24
-3215.29
-14305.3
-349.705
11747.4
4169.37
-1365.56
-1710.07
183.12
1963.67
