0.431608
0.0923948
-0.436216
-0.421415
0.375576
-0.424863
0.360836
-0.116657
0.0789361
0.497223
-0.156209
-0.350307
0.245262
0.267876
-0.275079
0.421232
0.590812
0.852448
0.693256
0.730433
0.730653
0.236589
0.203218
0.378877
0.234861
0.621864
0.391106
0.339922
0.784489
0.598007
0.876314
0.474594
0.22279
0.375498
0.514679
0.071854
0.194861
0.12209
0.317242
0.648544
0.226488
0.893117
0.761001
0.695052
0.402727
0.133347
0.803233
0.449153
0.580319
0.74076
0.494481
0.844884
0.150983
0.568473
0.412649
0.883297
0.275023
0.097037
0.77217
0.082168
0.796187
0.336695
0.51541
0.81651
0.38161
0.320553
0.530976
0.898207
0.839377
0.651685
0.219545
0.465676
0.529098
0.575873
0.478615
0.839617
0.912417
0.62665
0.639487
0.784361
0.337377
0.433914
0.55935
0.462417
0.132386
0.691828
0.456902
0.446796
0.033116
0.6902
0.594668
0.085954
0.307638
0.97741
0.300597
0.253044
0.92837
0.1333
0.842455
0.946456
0.877409
0.676247
0.712056
0.330591
0.618592
0.377413
0.855185
0.73562
0.794919
0.487058
0.219248
0.381079
0.428024
0.194837
0.908141
0.251858
0.182066
0.351666
0.279252
0.576634
0.151262
0.258715
0.609073
0.468506
0.760972
0.742856
0.725953
0.102392
0.182781
0.129066
0.065382
0.392053
0.658602
0.757376
0.609319
0.806003
0.581728
0.093501
0.893614
0.13281
0.696276
0.705206
0.827019
0.583064
0.813403
0.882007
0.766466
0.664728
0.782355
0.670287
0.60984
0.722625
0.228193
0.662163
0.291956
0.34167
0.766471
0.130293
0.117845
0.773836
0.126496
0.112063
0.34635
0.774696
0.864879
0.833085
0.5184
0.218653
0.829276
0.438427
0.599832
0.535533
0.459259
0.88223
0.707147
0.787043
0.559116
0.132047
0.624236
0.937355
0.121165
0.187671
0.118444
0.755102
0.854736
0.768118
0.392397
0.72875
0.742256
0.524122
0.875407
0.72005
0.552465
0.453236
0.402314
0.206148
0.537538
0.26777
0.542193
0.514313
0.707893
0.567876
0.651348
0.41361
0.947754
0.491241
0.186385
0.052089
0.194098
0.498994
0.397413
0.845221
0.944137
0.405377
0.346179
0.866356
-19567.2
-5841.33
-5965.83
-7023.4
64144.2
-13233.4
-15856.6
-85.9631
-5047.09
1470.61
-127909
2557.35
-8327.54
-8250.11
966.765
-4309.13
226.013
2979.4
-4914.07
-5115.44
-1914.5
-21415.4
1051.79
18080.1
23096.2
2968.3
7222.64
19726.9
-3538.37
5368.95
56055.7
1299.25
20435.9
-3157.42
1132.81
1823.95
22892.9
-3619.22
101.98
29135.1
1624.14
-4652.42
-823.022
-4804.44
-17109.8
740.199
4273.22
4653
-3359.82
406.709
24908.2
9518.87
8965.29
11309.9
-60510.6
9614.21
8620.25
785.142
-4698.87
2422.55
147431
-1313.81
3446.95
4106.44
8111.89
8549.18
77.4596
-1732.12
-10316.1
5117.19
7760.38
16711.4
-1963.2
-16939.4
-22441.4
-3971.91
-6919.53
288.508
-313.954
-18369
-80279.2
-113.841
-31406.7
4634.12
-1730.88
-2161.22
-18748.6
941.988
-161.993
-10825.7
-1494.03
11256.1
7819.66
2249.4
10519.7
-840.403
-4915.46
70.5784
-2269.8
-7874.68
11308.9
5884.1
-2291.51
-5767.09
7649.05
-1817.87
-4511.72
-728.307
3847.4
-10701.8
-38618.8
-5185.77
-3775.59
9317.24
-4269.17
8191.79
-377.62
-3644.41
16710.1
4132.16
-8740.99
29073.6
-1670.01
-11904.2
11179
1440.8
745.919
-36695.4
3212.16
-3413.26
22731.8
3734.85
-15499.9
-3842.71
1849.7
-4343.06
1973.3
2491.77
-347.379
4059.37
11255.6
-6523.49
-5439.17
1127.02
8899.21
-258.372
-4817.59
-14632.9
11623.6
11168.8
-6702.51
-3629.7
838.783
8172.41
-5585.15
-3445.37
-8997.84
-6512.13
367.346
2699.84
18642.5
2365.53
4138.36
-7710.51
5890.47
4510.14
251.35
671.02
-2961.92
-5445.08
7957.53
-19220.3
10366.2
11648.8
-18025.9
-575.416
1298.67
6985.67
-5420.29
-21438.6
15239
2089.09
655.089
5243.86
2670.26
3876.65
3939.12
10923.9
-917.995
27969
-13222.4
8772.67
4203.35
-15897.3
-6093.11
747.495
2774.82
-1537.26
-8988.71
-9148.82
