-17.1105
-0.147504
-0.668343
-0.00675827
-0.682813
-0.439345
-0.809977
-0.38925
-0.316288
-0.295259
-430.97
-1.05983
-0.634189
-0.996083
-0.381771
6.19309
-0.208865
-1.0139
-1.31395
-8.34402
-0.815875
-0.403592
-0.509725
-0.542913
-0.886466
-17.6035
-0.672881
-0.42289
0.926501
-0.252996
-0.441765
-0.236625
-0.215943
-0.767558
0.22357
-2.04192
10.7132
-12.1605
-110.081
-4.1595
-3.57311
-0.599365
-0.578624
0.345064
0.190153
11.3089
-0.774307
-0.543805
-9.30264
-3.36647
-1.14905
0.0653324
-0.886266
-0.419124
-0.457783
-1.49068
-1.97584
-1.14002
-0.102464
-0.717928
-7.89408
-0.548061
-0.617435
-0.650775
-0.305958
-0.394187
-1.43456
-0.911041
-0.465686
-1.159
-59.1711
-0.186576
-0.143664
-0.186803
0.113897
-0.771252
-1.64779
-1.57699
0.512944
-0.0165505
-0.464864
-1.55284
-0.318685
-1.82152
-0.900345
-8.07777
-1.28565
0.337101
-0.277653
-0.656343
-4.57828
0.895113
-0.00710183
-0.170855
-0.0632355
-8.90585
-1.8867
-1.43666
-0.173261
-0.202832
-1.12569
-1.64875
-1.91416
0.358601
0.12961
-0.726459
-0.351095
-0.475303
-0.367485
-0.286008
-0.403403
0.171003
-0.138455
-0.775213
-0.557274
15.1429
-0.288749
-1.11281
-68.5456
-2.54252
4.69262
-0.331729
-0.807654
-3.41542
-0.766074
-3.07061
1.02298
0.0611984
-0.462426
-0.199796
-2.12026
-0.392216
-0.247666
-0.269031
-0.498145
-2.68501
-0.225256
-0.47153
1.26989
-0.0770328
-0.362576
-104.821
11.23
0.547434
-0.771894
-0.511047
-2.05687
-0.472491
-0.780056
-0.824889
-124.289
-0.84095
-1.79742
0.0833972
-0.564511
17.2943
-4.4217
-2.79053
-10.0926
-2.32396
-1.08281
-1.7591
-0.573068
0.266979
0.241857
-530.194
-1.20406
-1.38864
-3.14032
-0.827464
-1.3658
-2.69655
0.351527
0.190449
-0.783417
-0.929238
-7.6827
-9.28066
0.154357
-0.853058
-8.09219
-0.561771
-1.07062
-0.651283
-0.369603
-277.713
-0.538154
-1.23839
1.53663
-0.827025
66.8352
0.0521206
-0.319956
-1.5447
0.0461595
-1.57938
-1.24621
-0.29944
-0.321457
-0.776446
-5.56548
0.00573198
-0.962169
-1.12157
-0.453483
-18.0232
-1.01193
-0.287277
-0.0328799
-0.278746
-1.08018
-0.294692
-0.217965
-0.261997
-0.368943
-1.79797
-2.10294
-0.883
-1.45379
-0.939926
-3.42391
-3.67137
-0.134888
1.59681
-0.377418
2.5334
-0.105522
-0.711896
-2.8508
-0.252666
-1.98668
-1.17627
0.582165
-1.06207
-0.710695
-1.6653
-435.121
-1.14824
0.35489
-0.116771
-4.39103
-2.00184
-0.253356
0.229771
-0.334577
-16.3263
-1.54806
-1.1244
-1.00787
-1.56568
0.0315492
-0.608634
-1459.39
79.7874
-2.64441
0.914564
-0.16325
-521.718
0.499939
-0.758508
0.215439
29.0003
-31.8927
2.72215
-16.5811
-0.216634
-39.9364
-33.0202
-1.14242
-96.5461
-14.6232
-0.343826
-0.247938
0.851492
0.213344
0.54138
8.57674
0.0579501
-1.08803
-10.477
344.37
2.23299
0.121576
7983.68
-1.26473
3.61428
55.9936
-574.354
0.111617
-0.0850358
21.8382
37.2354
-0.386551
89.9804
9.78809
-0.542051
2.95641
-3544.34
-6.11686
-10.0161
-0.5077
-0.107029
0.22056
0.186212
-16.4287
-1.62574
-9.12392
0.375624
242.235
-3.03221
0.243455
-0.552967
0.0510854
11.2839
-94.9689
31.9766
0.119345
12.9485
81.415
2.49817
220.214
16.9234
-0.484832
0.267555
-0.342334
-0.288739
-0.939263
10.5787
-0.158519
0.473656
49.7866
-837.8
-0.920289
-0.203478
-12871.7
0.655769
-3.16327
-101.724
1676.38
0.120629
0.349563
-8.28472
-37.6509
0.417152
-10.2005
1.60949
1.46846
-8.47571
13695.9
-60.8391
27.1387
-0.243888
0.554678
-0.141761
-368.35
-37.0155
0.216719
4.50872
-0.286111
289.978
2.75339
0.99625
0.109362
7.99678
-34.6622
-106.59
-12.6332
1.01228
1.00862
7.7412
7.56996
-29.0513
23.2722
-0.289467
-0.241695
-0.509104
0.0819161
-0.788475
-5.55893
0.180939
0.603736
51.1768
196.194
-1.28149
0.416161
4097.59
2.97269
2.5377
2.25786
-528.062
-0.343172
21.3217
1.65504
30.8744
0.0340518
24.3002
-0.581142
0.659628
1.0746
-7951.15
-62.0098
104.638
-0.491579
-10.9952
0.00276942
3686.58
41.7537
-0.74304
0.986422
0.170507
-769.701
-0.329748
-1.14377
-11.2318
-47.7364
51.0804
155.079
37.5912
0.030906
-0.204166
45.2108
-10.7598
75.2759
-15.3439
-0.250308
0.247514
0.92512
0.00673989
0.510394
10.312
-0.162618
0.45477
-101.356
-410.4
2.23671
0.0866217
-1394.76
0.117564
-9.36097
-41.3799
-5.52711
0.38068
-0.572621
-11.3432
-72.8242
0.141352
1.51528
-10.5995
0.0494948
-8.95028
992.364
79.115
-129.366
-0.650439
