1.28444
0.650222
-3.31125
-4.27751
-113.326
2.73977
-0.955514
-0.569506
-0.735213
-1.89199
-1.82903
0.740345
-238.713
-242.503
-70.7451
-2.0024
0.364761
0.170949
-0.389853
-4.70558
-2.10414
0.457426
-1.15715
-0.546516
-85.4901
26.2526
0.554035
-4.51844
-2.7066
-158.796
7.67737
-56.5587
0.295695
-0.631241
-23.5002
-0.908412
-0.486909
1.97058
0.349828
-8.74636
-1.27936
-0.439621
-17.6547
-9.41627
-97.6264
-1.33883
0.00302491
-63.7242
-14.5623
-20.8166
-0.233305
-0.970747
1.77981
-0.318532
-9.23921
-1.87144
-0.0462595
0.782159
0.725383
-0.91211
0.759789
0.531939
-6815.76
-944.072
-49.1692
-1.82568
0.731755
-238.694
-242.051
-199.256
-0.800797
-5.39451
-116.936
-38.1625
-1.11593
-1.82922
0.741824
-238.704
-242.502
-199.252
1.40078
2.29403
-0.217003
-1.29212
-99.8669
-0.0556728
-1.04428
-0.445317
0.177443
-1.39535
1.58323
-0.0412858
-15.1383
-32.6011
-22.2027
-1.19584
0.302546
-3.47141
-0.558581
-25.4623
-165.595
13.9106
-0.0547948
-0.227692
-27.6876
-1.13473
-0.249917
-1.29296
0.326093
-1.15076
-1.43569
0.550595
-3.05755
-3.27939
-343.262
-0.656258
-0.320205
0.23236
0.266347
-1.371
-4.85419
34.0029
553.675
10.1583
-1.16444
12.1059
0.589067
-1.32044
-49.5445
-24.5283
23.9134
-0.524218
-1.54882
-0.250811
-17.3177
-1.53965
0.541172
-11.5375
-14.9947
-4262.26
-1.82662
0.733024
-238.694
-242.052
-70.7459
-1.9827
0.768069
-5.91939
-263.806
-85.3712
26.2505
0.552515
-4.52381
-2.71119
-158.8
-1.83017
0.734337
-238.694
-242.053
-70.7519
-1.27896
-0.434447
-17.6546
-9.41548
-97.6253
0.603112
-0.19902
2.31057
3.68469
-1.09595
-169.888
-0.82818
0.985427
1518.1
-1.2886
3.24394
-0.763154
0.191803
0.200193
-6.23376
-1.07371
0.709715
-239.55
-45.3598
-70.773
-1.84604
0.573105
-633.239
-46.5527
-679.657
91.3556
0.566462
-4.5551
-2.85118
-158.799
-2039.02
0.751587
-0.245437
1.88421
-46.4159
-2.20304
-1.24029
-1027.5
-0.00773196
-113.848
0.799286
0.449121
-803.743
-13.1793
-15.5647
2.44968
-0.64954
-0.181543
-0.362702
-6.62669
-1.26513
-0.464947
-17.1918
-9.27895
-159.277
-2.80952
0.794919
-2.83851
-0.215574
-26.6241
-51.6689
-0.864239
-1707.72
17.67
-28.9308
-1.42829
0.694692
-0.311983
-0.383402
-1.09614
-11.5093
-0.296104
-0.265653
-0.0176994
-76.6394
-1.00463
0.49994
-0.682549
-0.687167
-3286.56
2.92534
-1.63364
-0.505529
-0.546533
-1.14022
29822.2
-4.55879
-68782.8
-100.187
32051.8
-42390.9
27342.7
-69.4689
-74786.2
-83367.9
-1344.93
2.10441
-31489.8
-69326.2
-3.27936
-68682.8
-39077.4
-5.5214
44641.4
37925.2
3507.05
-4.12785
-48759.6
-4.6476
-0.0494682
-32235
0.901053
-1472.83
-69326.2
-51875.2
-42390.9
-69326.2
-74786.2
0.184041
0.0914602
-62.198
-54472.2
-32671.1
-36132.7
-16954.7
50856.3
92617.5
-455.925
-74015
68882
5420.41
2.78302
-26946.5
-4375.39
10.5527
-0.304057
-28263.7
5.49679
-15879.7
86.5873
-45416
27128.6
-25171.2
180.235
40045.9
50390.1
1152.75
-2.02592
34088.3
-16663.6
1.92988
-15647.1
58064.9
5.99794
-37109.5
-55271.3
-34.3469
4.99102
35460.1
5.32911
-0.0267172
23422.7
-0.945173
3703.42
-16629.4
4998.31
26411.3
-16333.9
39750.1
-0.274856
-0.132198
75.9537
15444.1
-8786.38
26619.4
4399.85
-41302.6
-90943.3
453.726
38521.1
-68895.5
-165.32
-2.04631
25061
4675.66
-11.4636
-0.981898
-51249.5
1.58979
3139.96
-954.669
1151.46
-61400.2
28012.1
-1752.77
-89305.9
-44736.6
1131.25
0.330967
22034.9
3139.93
-2.92098
3139.93
-69454.8
31.165
3352.79
17610.7
99050.6
-30.3218
-84373.7
-2.56888
0.0833825
-33419.5
-2.34819
-5793.37
3139.93
-41257.1
-61166.5
3139.96
-89362.1
-0.317923
0.0863106
19.547
817.221
-4578.43
-51824.4
83243.6
39207.6
-77772.4
-282.446
-88543.3
48057.3
33263.1
28.1279
-40751.1
-8650.73
-1.69827
0.164253
48008.3
-3.93995
-3272.45
1129.02
-2003.97
41490.8
-29206.5
2048.45
94499.9
55968.9
-999.01
-3.34905
-26795.6
-3071.99
3.38293
-3272.45
69676
-34.3692
-7445.43
-28488.4
-101273
34.2364
81870.7
5.68142
0.00741982
18662.5
2.2855
6005.7
-3071.99
45753.2
41490.8
-3071.99
94499.9
0.564278
-0.0684383
-16.3316
149.583
3453.55
31352.1
-75688.3
-39116.7
75756.3
417.932
94499.9
-49763.1
-21178.5
-32.7542
47333.8
8009.91
1.63129
-1.04995
