-1404.86
-585.356
-10.4773
-0.309166
0.0350838
0.14393
-1.28152
-1397.06
-0.745296
-0.027337
0.263072
-0.351996
-0.500152
0.129162
-0.0190612
-1239.31
-200.531
-1.33919
0.0772285
0.0742501
-0.279319
-0.0732802
-0.129713
0.192552
-0.023047
-46.9017
-0.172884
2.39305
-39.1078
-0.0264269
-2.74536
0.306208
-0.325413
0.335078
-0.0608511
19004.1
5852.89
-26.3599
-8824.83
-0.362391
-239.757
-1.77199
0.0830979
-0.176423
-0.033069
-0.323637
0.220322
-0.163025
0.268796
-0.021075
12041
-0.318588
-0.278084
-1.89047
-0.0558516
1.81035
2227.28
0.256462
-2.02495
-0.0163573
0.721499
0.567436
0.711089
0.712306
-0.0250711
-1.86954
-0.132268
-0.152548
0.106562
-0.0185124
-1638.87
-370.312
0.409666
0.348397
-0.0426168
0.705828
0.518277
0.477152
-1.00169
-0.0456636
-1.57591
-1.61361
-0.327709
-0.241765
0.0152507
-0.698029
-0.923235
-0.376561
-0.194318
-0.0151862
5.11375
-2.47248
-0.64343
-0.591163
-0.0968495
-1.68553
0.220215
-0.849904
0.0893469
-0.00606755
-2173.92
-2.74044
42.9822
73.5515
-0.0537019
-41.7874
0.0834445
-6.97346
0.193879
-0.0481245
19256.3
6.26395
0.256345
-2870.98
-0.0430098
-21.6436
-2.42214
-3.57072
-3.30543
0.088645
6.88175
-1.63914
1.45492
-0.114692
-0.0269462
-7479.46
-1411.34
0.420697
14.2877
-0.044743
1.43123
0.600652
-1.89221
-0.267577
-0.0514596
-12.3802
0.101011
1.00962
-0.0127509
-0.0384523
-0.822244
-1.79841
0.0891654
-0.355819
-0.0389197
-3.32032
-0.0859908
-0.755643
-0.170642
-0.0199517
-0.202607
-1.14953
-0.254448
-0.689305
0.118442
33929.4
8990.66
225.827
-9247.63
-1.63868
0.939174
1.14933
1.03619
-3.00056
-0.05698
-1460.56
-4.2435
-0.433977
15.3101
-0.0390036
2.7314
0.086716
-2.70738
0.384819
-0.0344615
-113.858
-27.926
-0.136018
2.41652
-0.0169393
10.3895
-36.2558
0.0371266
-1.84131
-0.209622
-17.663
-0.925143
-0.60526
0.259721
-0.00942252
-781.276
-1.24733
0.253236
-0.243993
-0.0412385
-1.66021
-1.28182
-0.0175627
-0.351483
-0.0118728
0.740391
0.135609
-0.337575
0.102086
-0.0314489
-1.62086
0.227354
-0.230148
0.0530799
-0.00905765
-156.143
3.9186
-1.54388
-0.0156713
-0.032004
0.0120583
-0.720983
-0.0375867
-0.248977
-0.0274028
5.40656
-2.46132
0.623727
-0.38905
-0.00812616
-3.25598
-1.64065
-0.789688
0.271422
-0.0370124
-0.147604
0.953455
-0.0844067
-0.915883
-0.0684461
5399.94
1.50455
-1077.06
0.0621266
-0.0155931
0.594963
-0.0741375
-0.0685654
-0.361296
-0.0210323
-16.2963
-24.9414
-0.153882
4.40087
-0.00557382
-720.874
-170.376
1.20952
12044.9
0.310633
-2.78897
0.0915855
0.353393
30.723
0.0902984
-0.182374
0.383936
0.101946
5.58665
16867.3
0.207641
-1.17239
-0.648216
0.812263
-1.67078
-1.14122
-3.8469
0.0977386
15.6979
-0.336501
10675
0.0765565
-4.46257
-5.87974
2.46763
0.130784
-0.0703055
-0.09292
-403.988
-0.624927
0.530271
0.963576
-3.64822
34.7706
2.57518
0.0994829
-3.50247
3.14972
-0.296004
-0.497165
-2.29474
-0.365207
-0.160046
0.153276
1.31578
-0.0297756
4330.97
224.053
-0.864552
-23358.3
0.392605
-4.592
0.116371
-0.482288
-2.22559
-0.0301187
-0.295966
0.272495
-0.381797
-5.3978
-17831.6
0.404705
-2.1752
4.23485
-0.10506
1.17269
-2.14602
-1.34241
0.0149082
-7.61802
0.331511
-11649.6
-0.458263
7.90578
-0.233475
-0.864078
1.46273
-0.479074
-0.215174
21.8874
-0.00109293
-0.612677
-0.858304
-1.28333
-56.5149
1.77035
-0.0188145
-0.53395
1.67164
-0.169343
0.278578
2.88655
-0.29976
0.435617
-0.134327
-2.03478
-0.0201474
1470.23
-1045.4
0.46806
21772
0.299509
4.29811
-0.263118
0.739685
1.7438
-0.154657
-0.188956
-0.223317
-0.45733
1.56162
-1607.35
-0.415291
36.5645
9.77914
-3.24191
-3.78909
2.0744
-14.4395
-0.0964381
-11.7857
-0.553967
-2168.31
1.9547
-12.2156
-1.50915
1.40791
-10.3934
-0.132574
0.0591961
-91.3566
1.5359
-0.152527
-1.70129
17.8012
-69.3151
-0.219652
0.213287
2.16644
-1.81239
0.316228
-1.48277
-39.1783
-0.344817
0.00298851
-0.211158
4.26645
0.00406481
-991.047
730.826
0.0230318
-26746.9
0.298338
-7.07797
-0.630998
-0.434684
12.2088
-0.28153
0.0103424
-0.00859629
-0.556033
-3.75342
-11450.5
0.0569481
-3.89763
-25.4081
2.16998
-5.78636
-2.53511
12.4629
0.403225
-16.3097
0.964254
-8240.34
0.0457386
16.6936
1.08793
-0.0746023
15.4717
0.192919
-0.0527912
61.703
0.352523
-0.949344
2.13647
-22.2256
-116
-20.8357
0.312654
9.46627
1.25491
0.29276
-0.330053
38.0085
0.226376
-0.182688
-0.504084
-5.74157
-0.070363
