-3.24208
-0.817329
0.665666
-0.0266807
0.0406193
-0.862805
514.171
-733.153
2455.5
0.091312
1.58215
3.08624
-0.176104
-1.82128
-0.4001
-1803.85
-56.0357
0.517123
-0.468485
-0.0451736
-0.470313
-45.8553
-3.85041
-0.330909
-0.036374
0.370333
-2.22866
-275.313
-0.203915
-0.036542
182.235
214.874
-502.283
-0.474455
-0.131429
-2.23538
-0.803559
-0.0595012
0.214579
-0.977983
2.1086
-1.74706
-2.04646
-0.747096
-0.0645792
-2514.5
-0.404262
1274.85
-1.58492
-0.446227
-41.4991
2558.1
-696.066
0.295584
-0.0067737
0.926951
-0.314097
-2.41552
-1.60421
-0.213657
-4.30554
1174.8
-0.376308
78.2599
-0.106421
2.45933
0.711752
-308.184
1.46272
-0.631385
0.907207
-1.96985
-4.04267
0.576637
-0.0496486
32.801
2.76207
-5.08276
-0.589366
-24.2695
-0.0201581
0.912978
-2.7572
0.504962
0.00834226
1.62782
2993.12
0.0824336
-24.892
-0.621397
2.72557
0.516434
0.28952
-0.340548
-1.24009
1550.93
-0.959534
-8.9341
0.698207
-0.0228866
-113.29
-0.548986
0.0878929
-0.0332325
-0.0484632
1.92627
-0.268579
0.258762
-0.656759
-5.5654
0.169007
-0.523494
-0.339163
0.0357236
-0.0472666
-13.9371
-3345.48
12.4279
-0.342311
1.9682
-1.6188
0.228037
-1.03262
0.329035
0.124182
-4.64525
-3.76177
0.15112
-0.605128
1.95973
1.27695
-0.818177
0.456466
-0.312199
-0.0575329
0.427777
-2968.42
-899.253
0.0504981
-0.0309914
-18.1188
-6.34012
-5.51956
-7.81202
-0.107097
-1.72595
-0.689881
-1.60035
-0.271647
0.0153227
-1.26587
-0.667872
0.903929
0.371509
-0.0361935
-4.31288
-0.742025
-0.72644
0.123125
0.0334762
-131.804
-0.370072
-0.795195
-5.50453
-0.0366466
-15.6081
0.020061
2.02628
-133.703
-0.0557077
-0.00860431
-0.528384
-3.24598
-0.321711
-0.0102329
-5.73428
-2.13935
3.81815
-0.0651609
-0.0479444
-30.8514
0.191048
-0.677159
0.0160052
0.0743956
-0.431273
-3.49147
756.798
-0.0215112
-0.353475
-3.27485
-294.814
3.03724
0.524603
-0.0395999
8.44282
-0.530431
-0.0268038
7.73176e-05
-0.088177
-2561.43
-0.41934
-173.873
0.828257
-0.0773287
-1.58568
2.47722
-0.19238
-1.93619
-0.0471036
-901.314
215.695
3.79442
0.131733
-0.111192
-6.02861
0.409382
-0.0745556
-1.21873
-0.0177486
-4.96205
0.895102
0.254089
-0.588015
-0.0407967
-25.5637
0.747808
0.121634
-9.29664
-0.12262
-3.92742
-0.282076
-1.19333
-0.182686
0.140551
27.9514
202.512
-3287.24
-0.503198
-0.0597123
-0.65012
-514.386
28.2936
-0.254472
-0.0647173
0.735355
-4.01463
-24.0849
0.207588
-0.0791609
37.2593
-0.386695
0.21042
0.154187
-0.114146
-1545.44
-0.454661
-1.6559
20.1852
-0.0488161
-0.589017
-0.403707
-0.0948924
-0.0628603
-0.0238861
-31.7652
-1.30853
0.184652
0.096098
0.0824576
-0.0581499
-7.8919
2.52621
0.737644
0.00461287
-0.134634
0.118593
0.440927
-0.203956
-0.0302538
-11.6189
-3.12913
-0.0684856
0.52661
6.42352
122.42
-1650.87
-8590.5
-0.311032
-0.0551472
-2.96886
-0.122209
0.179014
-0.207288
-0.038166
13.7122
0.0332516
-12.1301
-1.25583
-0.296686
-4.84356
-0.151942
-0.062167
-0.440669
-0.0755672
-0.150533
-1.75919
0.0151769
0.177492
0.523472
-0.785809
0.425951
0.135074
0.160306
-0.0174427
-1.25701
-2.63594
-1.31722
0.416235
-0.204588
2.0211
-1030.21
-95.641
-544.486
-0.0598336
-260.787
-62.9738
2.82615
-1.82543
-3.56999
-5.549
8.2736
518.769
-0.300015
-0.0714827
1022.74
8.23083
0.195541
-0.0742706
-7265
-252.578
-0.322355
-0.472741
-0.932708
-0.0452139
-2.16019
-0.101532
17.1313
-0.134567
2.5757
-1368.82
-0.054391
0.00904599
-0.475423
-0.0656174
-3.89131
-1.64817
0.118127
0.146052
-0.00340132
-9.18115
-3.78704
-1.64198
-0.332167
0.181324
-16.4986
-29.0887
0.265444
0.36813
0.177155
-7.40199
-2.10756
-4806.46
-0.333586
-0.211754
-57.0285
-1.01752
0.0246166
-0.272956
-0.0396362
-845.411
-97.0459
14699.2
-0.605475
-0.0900818
-10.2223
1.95671
-1.639
-0.304388
0.0225245
-8.16287
-0.306762
-0.491648
0.130624
-0.0743063
0.586976
0.127792
-0.459407
0.345587
-0.00310806
-1.29391
0.42888
-90.7814
-39.5442
-0.0582735
-3.91063
-1.04986
0.222055
-1.16228
-4.01763
0.275373
-0.2173
-3.54657
0.428384
-0.0568769
-2.12157
-2.2913
-1.33619
0.229891
3.08751
1.40251
0.263971
-1463.96
0.429423
-0.0164169
0.259179
0.96609
0.312552
0.567006
0.0611171
-0.597946
-10.0256
2.29166
-0.242423
-0.0388298
0.72625
0.8799
-0.356481
-2.03037
-0.111867
201.682
0.83989
0.464544
0.0418677
-11764.1
-61.0031
0.253151
0.083882
-0.13554
-0.00109038
-5.21038
-0.0820651
0.419066
-0.0855173
0.00996694
25.4564
1.24237
-810.082
16.439
-0.0492515
-0.0673639
7.8096
-34.0682
-0.443269
-0.0785408
0.395163
-1.85002
-0.328903
-0.793771
-0.0574583
-1.45934
-0.3197
-0.624199
-0.400665
-0.127599
72.3262
-0.390584
0.261782
-0.987811
-1769.39
1.22596
4.81377
-18.1968
-0.268195
-131.941
7.57127
5251.32
0.141586
-66.3077
-0.182546
6.41621
-0.263628
0.00395997
-0.531651
-79.5024
-0.249248
-0.413061
-1.79385
-0.497214
0.0644215
-1.96153
-0.0428198
-0.0973028
1943.89
0.814734
0.255266
-0.00220831
9.72246
-0.585249
0.279792
-0.269902
-0.335468
-0.24074
2.68925
-0.761925
5.19916
-1.36312
-0.10042
0.09512
0.388504
72.4736
263.44
0.367881
12055.6
-2.12374
4.65487
-0.0838317
-0.0938207
73.9607
4.65467
-0.417356
-0.470122
79.6943
-1.31596
-0.611804
-3.38736
18.5318
0.669474
-1.26584
0.415388
-7766.29
-1.62484
-0.976442
6.21233
-3.33476
-1.0829
6.14255
0.131245
0.253158
1.39912
0.2923
-2.93543
-0.156794
48.2414
-0.924663
-0.078481
9.34961
-35036.2
-5.27705
0.736081
11.3492
-1.502
-0.319727
-2.25607
20647.1
-34714.2
-0.0929099
0.865641
-78.5972
0.97602
-4442.39
-11.7922
9.02688
-5.12642
10683
-84.8899
0.285318
0.0963263
-35.3193
-0.174734
18.1325
-364.292
-0.114796
-3.38869
-3.63898
-0.108007
0.824211
-1.30087
5498.28
-23.6278
5.3637
0.20085
0.234193
-4.3888
-2.15562
43.591
-33360
-0.0545855
19488.5
-2.12762
-0.043885
-5.04835
0.145099
-0.377059
-17927.2
8.24231
-14.1804
0.0773607
0.914903
1.36805
0.119015
-0.296657
0.772255
-0.482243
0.259341
1.95277
-3.94775
1.28879
-0.345213
-0.481777
-0.0465476
-211.984
-65.8017
-0.26878
-14861.9
0.528416
-2.68458
1.44116
0.313568
-37.5662
-12.7654
0.417026
22.2758
-153.379
2.14375
0.0649093
4.49652
-53.9673
0.0128158
-4.6747
-0.253394
15547.5
-0.0201163
1.71869
13.4718
-3.80148
-9.71249
-5.91252
-0.328489
0.605393
-0.949462
0.238531
8.71226
0.393846
-109.639
0.954075
0.361831
-11.1272
29252
26.0655
0.542907
-31.932
0.211117
0.272876
0.626259
-7372.61
16022
0.00783189
-0.667278
140.531
-1.46498
26263.9
21.3272
-30.024
14.5456
5649.9
211
-0.241067
-2.67875
64.3639
-0.504537
-747.481
471.267
-0.465681
0.431015
31.1772
-0.0425692
-3.97518
-0.0483495
-5167.22
80.3942
-16.3902
0.0104504
-0.0672529
0.219955
2.4403
-1029.21
44923.2
-0.328911
-16671.8
0.498735
-0.00547211
8.13738
0.209428
0.0952812
52659.5
7.28571
12.9121
-0.252597
-14.4516
0.690525
-0.732743
0.0985949
2.31469
-0.00240433
-3.49667
0.966147
-4.76527
1.39223
-0.0137809
-0.193137
0.321682
125.52
-0.237169
0.434904
19329.1
0.654036
-11.5521
-2.78236
-0.625709
-9.78924
-3.00111
-0.395948
8.98611
164.492
-3.75847
-7.37278
-0.758721
26.1946
-1.11336
-1.62357
0.124815
44309.4
1.12435
-1.19108
-1.7761
2.54689
3.7512
8.21366
-0.586389
0.273314
-1.30212
-0.109064
-1.74759
-0.0862587
63.3657
-0.373259
-0.465839
0.580804
-32779.8
-20.6546
0.431348
0.13106
0.971423
-0.18266
1.67467
2634.93
9037.09
-0.157004
-0.348856
-249.98
-2.15584
13303.1
3.29322
23.2608
-10.514
6999.51
-131.427
-0.39546
-0.805807
-52.7332
0.387983
-582.948
-2.36797
0.434767
7.90527
-9.81005
0.25349
-0.212785
1.05098
-4677.25
-31.585
24.8548
0.52588
-0.0390178
3.86331
-3.88441
23.4628
6515.07
-0.0568165
-27753.7
1.6765
-0.0582583
-14.3054
-0.13441
0.279424
-60049
-5.2978
-7.09101
0.0134471
30.3957
-0.390278
0.39794
-0.323741
-0.282158
0.20407
2.33832
0.819405
4.45192
-0.58016
0.351429
0.0772751
-0.0969984
-198.322
75.6527
-0.385046
-25644.6
-0.0452211
12.206
1.54211
17.4663
75.5395
-0.795472
-0.135819
-5.02272
-187.186
1.76753
4.22145
-2.16508
-33.7801
0.076659
-2.08396
0.28543
-16844.7
-0.109648
1.94249
21.0128
-5.38348
-4.90831
-17.3181
0.306385
0.074274
1.07199
0.207257
9.12147
0.0759943
-95.2031
-0.745222
0.07684
-0.960041
33758.9
27.3584
0.965569
-9.35258
-2.57725
0.112015
-6.51764
-3707.49
-5771.65
-0.188951
0.434761
290.074
0.8382
-6090.84
21.4591
-31.82
11.8387
1483.16
196.005
-0.301349
-4.78298
66.2135
-0.206291
468.633
-292.18
0.0588165
-5.09205
5.04897
-0.440887
1.1513
-0.913849
3887.76
50.9955
-28.8062
-0.638139
-0.00867138
-4.74441
-0.0963905
-12.7312
22120
0.343479
29584.3
-5.51679
-0.0471236
