-5.72236
0.246863
0.24269
-0.652803
-1.56255
-0.390018
-1.00736
-0.70109
0.550477
-0.804253
0.0179691
0.055165
-1.9016
-9.35029
-0.99453
-0.89221
-2.97218
0.872838
-0.326356
-1.62501
0.873527
-0.349005
-1.02957
-0.176732
0.800077
-0.634544
0.0412988
-0.426137
0.115754
-0.115379
-0.652656
-0.0287782
1.63312
-0.651622
-1.0003
-0.823595
0.297418
-12.7386
-0.837459
-1.30743
0.204012
-0.548548
-0.0547956
-0.303004
-1.42038
-0.795743
-0.0217138
-0.52333
-3.98964
0.304431
-0.0704465
0.0725177
2.50756
-0.466605
-0.379835
-0.256869
-1.5923
0.0390754
-0.647325
0.327386
-5.46681
-0.129925
-0.261311
-0.336356
0.710807
-1.52363
-0.694688
-0.164122
-5.76202
0.166903
-0.199847
-0.501614
-2.90696
0.191982
1.49797
-0.131709
0.384026
-1.3372
-0.604182
-0.496499
-7.7528
-0.338739
-1.73674
-1.76958
-0.905248
-0.449608
-0.779601
-0.426985
-20.2388
-15.2562
-1.69893
-2.5451
0.575282
-0.517206
-0.961223
-0.633223
6.67494
-8.38032
-1.61434
-1.38278
-0.770965
-1.10343
-1.43991
-1.01673
1.05593
-0.0830857
0.213567
-0.184548
0.982027
-8.72578
-2.41094
-2.84582
-4.17224
-0.448218
0.296006
-0.431663
-1.21038
0.286569
-0.486484
-0.000175571
-0.440993
-0.312099
-0.15396
0.284388
-6.20536
-0.148179
-1.9691
-1.89834
-0.609362
-7.89287
-1.57257
-1.48158
-4.6925
-0.681572
-0.607777
0.0026766
-4.63749
0.18397
0.144112
0.0741891
-2.07517
-0.0133615
0.11906
-0.134281
-0.688882
-0.320241
0.339917
-0.183075
-0.751507
-0.74119
-0.402238
-0.320399
-0.997829
-0.599278
-0.697179
-0.325377
-0.463711
0.504121
-0.216229
-0.971622
-0.515087
-0.185208
-0.701541
-0.743449
-9.72365
0.453995
-0.594486
-1.2913
-0.823455
-0.767256
-0.46245
-0.821139
-2.98557
0.132652
0.140381
0.124259
-2.73253
-0.842489
-1.06825
-0.972307
-3.5755
-0.0453849
-0.70214
-0.307441
-0.364023
-0.7717
0.0464493
-0.815912
4.06774
-3.88851
-0.422201
-0.562344
3.61062
-0.789622
-1.28246
0.51909
10.4836
-8.71354
-1.61345
-1.38337
-2.9405
1.49549
-0.50384
-0.167024
5.97806
0.127306
-0.241494
-0.204522
0.181471
-0.434099
0.217433
0.164261
2.83094
-0.491018
-0.0157606
-0.120609
-0.291215
-0.184562
-0.0609893
-0.741288
6.35473
-0.266991
36.4887
0.312338
0.66862
-0.0277255
0.175088
-0.155241
-0.0835587
1.84144
0.0432563
0.0196594
-0.612253
-0.254454
0.653838
0.307279
0.0341881
0.146731
0.239465
-1.00212
-0.0585269
-9.31267
0.471645
1.12184
0.43594
0.942725
-0.604689
-1.36808
-0.34693
-0.334549
5.19446
-0.584186
0.152177
-4.52209
-0.665472
0.081041
0.130737
-0.392251
-0.600739
-0.401746
0.202015
-0.845965
-0.643557
0.229837
-0.36298
0.806436
0.20905
-0.456931
-0.66675
0.115694
1.66592
0.10624
24.5081
-0.121417
-0.181636
-0.0423524
0.288217
1.34409
-1.02603
-0.763944
-0.294679
1.79013
-0.370426
-0.232901
-0.637222
-1.14225
-0.128984
-0.446028
0.119427
-0.216227
0.0987478
1.24018
-0.123875
-1.61187
-0.580602
-0.433488
-0.929661
1.49406
0.276053
0.668676
-7.18298
-0.135408
0.162592
-3.67685
1.05863
-0.311714
-0.117687
-0.0355751
-0.313836
0.304885
-0.535457
-0.107146
0.142942
0.167134
0.917553
-0.0210867
0.21276
0.479145
0.153534
0.238068
-14.6128
-7.32614
45.3869
-2.87387
-0.306249
11.5133
-0.619079
-19.7255
0.486697
0.343932
-0.38097
-9.9763
1.45844
0.326749
0.211087
1.29622
0.533156
-0.27354
0.470436
-0.177566
-0.0741667
-7.01427
1.89277
-0.338872
-0.240911
0.416392
0.747676
-0.0197789
0.26757
-0.876452
11.3411
-0.698792
0.272363
0.368609
-1.45381
-0.130037
-0.308259
0.301887
0.26605
-0.279043
0.336372
-8.25649
0.515208
0.112644
-0.120497
0.334686
0.089933
0.0601194
-0.558499
-0.229882
6.32612
1.4971
10.9346
2.28744
0.0825445
-0.702482
0.156607
1.80265
-0.811386
-0.77901
-0.239292
0.927272
-3.94622
-0.568642
-1.06062
-0.328658
0.01354
-0.93649
-0.68219
-1.09339
-0.499795
1.65242
-1.84604
-0.408842
0.0309131
0.360209
-0.0187193
-0.0582009
-0.0452226
0.871667
