-26.477
-1.41405
-7.60261
-7.25844
0.0973138
-0.866093
-0.215446
-0.423515
-0.667307
-0.875872
-0.619743
-0.749849
0.144123
-0.372252
0.127484
-0.185605
-2.29826
-0.282366
-0.434249
-0.0607155
-1.00191
-1.22284
-0.81007
-0.535422
-1.25827
-0.775207
-1.66345
-0.966403
-3.48751
0.236654
0.374189
-0.881439
0.521115
-1.67366
0.0397182
-0.585396
-0.560868
-0.231726
-0.222082
-0.700665
1.50968
-0.258992
-0.395392
-0.669466
-1.307
-0.133796
-0.0625049
0.143519
-10.6983
-1.04531
-1.67179
-2.18973
-8.28852
-0.304168
-0.0966461
-1.09694
-4.70107
-0.285488
-0.864529
-0.245787
-2.20277
-0.696246
-0.262431
-0.381178
-11.0945
-10.9898
-1.57503
-2.80789
-0.379739
-0.569771
-0.242045
-0.487371
-12.2894
-0.174856
-0.201318
-0.338152
1.81509
-3.65509
-0.733427
-0.523171
-1.85764
-0.315212
-0.718546
-1.1096
-11.4537
-0.531294
-2.64057
-2.22763
7.18437
-5.09292
-1.93411
-0.885266
-3.9727
0.461371
-0.918296
-0.942506
0.657532
0.0207651
-0.811992
-1.0334
-0.467334
-0.47674
-0.846849
-0.0457038
-0.726188
-0.823982
-0.296966
-0.843562
-0.846143
-1.49025
-5.97535
-1.82017
-0.410899
-1.45216
0.0391285
-0.262094
-2.60448
-0.95305
-0.700315
-0.769368
0.563946
-0.405321
-0.0349926
-0.13349
-5.03586
-0.706009
-1.4847
-0.888693
-0.616939
-0.403337
-0.502652
0.0219494
0.128176
-0.61759
-0.731167
-0.644203
-4.09182
-0.242608
-0.354269
-0.444533
-2.85094
-0.590066
-0.55199
-0.629858
-0.310198
-0.736814
-0.880528
-0.560928
-5.19663
-0.475645
-0.053101
-0.440631
-0.400765
-8.99777
-1.41167
-1.11304
0.768141
-0.158233
-0.61299
-0.207206
-0.269317
-1.33453
-0.987197
-1.09953
-3.00643
0.161651
-0.5827
-0.11428
0.472162
-1.9453
-0.640697
-1.37844
11.0806
-9.44202
-0.331656
-1.1614
-6.10497
-1.21779
-1.47231
-1.50996
-1.06526
-0.597291
-0.684827
0.0498324
-0.783633
-0.494174
-0.647075
-0.150922
-1.17806
-2.85049
-4.93281
-2.19039
-0.629152
-0.113115
-0.213329
-0.364808
-2.60634
-0.0698718
-0.0394083
-0.0427232
-11.994
-0.204374
-0.44293
-0.405315
-0.245259
-0.262832
-0.470822
1.07952
-0.629043
0.182682
0.127122
0.998172
0.451758
-1.97306
0.423334
0.018153
95.4037
-0.149599
-3.99631
1.31352
3.50845
-18.3959
-1.03555
0.207906
-0.386191
0.033922
-0.134846
-0.0996636
0.0230367
-0.478745
-0.350828
2.23341
0.145513
-0.334098
3.31789
1.27437
0.290123
-0.0645927
-1.06192
-0.0177096
0.224624
-0.52427
-2.11136
-1.12774
1.17429
0.214344
0.231331
-0.156379
0.436344
0.7059
-1753.49
-0.086638
0.224396
0.245894
-1.35237
-0.1511
-2.56161
-0.551763
-0.179821
-0.459986
0.162521
-1.96848
-0.176837
2.26382
0.183718
-0.747345
-56.7333
-0.0471817
2.25829
0.424805
-1.07613
-0.860699
1.68538
6.8372
-0.487478
-0.181606
0.357471
-0.0835143
0.358832
-0.437054
0.250978
-0.0407222
0.294508
-0.961757
-0.828707
-0.402461
-0.718042
-0.549141
1.80757
-0.876757
0.353142
-0.783163
-0.0486757
0.404049
0.0384256
0.279984
0.276236
-0.0346579
-0.584477
-0.290418
1011.67
-0.238394
1.81871
-0.100087
0.131714
1.7337
-3.46269
-0.501007
-0.233108
1.50118
-0.165401
0.179782
0.480161
-9.64501
-0.534274
0.294572
-0.658265
0.187528
-0.247883
-0.871831
0.00403086
27.4555
-0.208785
-8.12988
-2.63458
0.414639
3.61141
12.6048
0.182644
1.81397
-0.549005
-1.1315
0.177173
-0.444941
-0.1733
-0.54595
0.716239
-5.21367
-3.13558
-0.623326
0.998572
0.542512
-2.50023
-0.274548
-0.699554
-1.63612
0.943573
1.29133
-0.179944
-0.0493804
-2333.24
0.0700979
-0.50209
-0.341209
-0.887992
-1.94695
-0.787518
-0.427189
0.126711
0.172313
0.172735
-3.36129
-1.12787
18.9398
-0.0589657
-0.0842138
-16.2743
-0.451793
-0.898201
0.220807
-3.85462
-25.6598
0.483223
6.48642
1.6092
0.253854
-0.645511
-4.3404
-0.518158
-4.80393
-0.428453
0.82047
-0.431444
0.252609
1.17453
-0.337879
-0.114863
8.33321
-0.202306
0.50501
-0.280914
-0.547896
0.30065
0.159193
0.749616
4.25367
-2.54993
0.0175861
0.0228696
0.0177518
