1.91419
-3.96555
-0.418592
-0.154519
-23.0062
-0.384987
0.238049
0.0636996
-4.67687
0.702826
-0.693193
-0.402848
-74.7825
0.799697
-0.377669
-0.502009
0.725473
-0.187969
-0.053406
-0.419546
-1.3594
-0.199929
-0.128517
-0.488246
-0.66047
-0.227146
-0.143563
0.0923156
-0.593418
-0.0279622
-0.246867
-0.561432
-19.1144
0.506545
-0.422476
0.275875
0.34255
-6.48415
-1.7477
-1.01924
-0.287838
0.250611
-0.366643
0.301439
-0.0839211
-0.135058
-0.485375
-0.365666
0.00246918
-0.905522
-0.23133
-0.655103
-15.3213
0.508299
-0.173563
-0.870783
0.0555317
-0.264618
-0.679803
-0.407738
0.688292
-0.917082
0.0643355
-0.713896
0.186511
-0.386087
-0.636617
-0.0603551
1.10565
-0.789863
-0.175595
-0.185784
-27.7147
-0.0911164
-8.67933
-4.00009
0.144452
-0.91634
-0.554253
-0.762992
8.59844
-4.94167
-1.58825
-2.91635
-5.06997
0.186839
-0.322645
-0.334054
0.277881
-0.93855
-1.36954
-1.249
-1.25914
0.157028
0.294634
-0.579502
-0.615744
-0.784306
-0.486616
-0.0775166
0.892335
-0.685103
-0.358969
0.181538
-0.583673
-0.18376
-0.19009
-0.856683
-11.0219
-0.112271
-0.326141
-0.194264
-0.390359
-0.298773
0.116984
0.265367
-1.0831
-5.58688
-1.70092
-0.394382
-0.198275
-0.0619513
-0.0901034
-0.109559
-6.39424
0.714278
0.0866622
-0.753103
-10.4429
1.3126
0.0678683
-0.500212
-1.10332
-0.85187
0.00494947
-0.451921
-0.524076
-0.0457638
-0.191209
-0.513543
-6.02468
-5.40616
0.0197075
-0.0131851
-1.83511
0.198366
-0.699318
-0.351412
2.68542
-1.39082
-0.541546
-0.396114
-1.98598
0.0667015
-0.39799
-0.142493
-30.1274
1.13624
-0.873537
-1.05003
-0.393432
-0.608364
-0.250427
-0.389546
-0.0484855
0.0652377
-0.160882
-0.640522
2.79156
-11.1315
-0.935915
-2.23612
-0.411103
-0.173645
-0.460236
-0.414467
-0.519961
-1.31117
-0.339268
-0.162667
0.804187
-1.43262
0.222479
-0.406305
-1.23587
-0.438827
-0.579929
-0.717991
-0.0123708
-0.196172
-0.0905073
-0.764534
-174.953
-0.0248366
-0.682031
-0.531642
-0.310411
-1.27378
-1.38009
-1.31102
-0.727762
-6.83087
-14.5462
-0.0494285
-0.44397
-0.169733
-0.227611
0.541343
-0.0518353
-0.323497
0.408934
0.402433
0.272311
0.630137
-0.472456
-0.460851
0.0505852
-0.268239
200.787
-0.0392984
-0.987232
0.229307
-0.0422195
0.546773
-0.366284
-0.126167
-0.0282628
0.256406
0.153862
-0.029867
-0.401393
7.60754
-1.1465
0.332038
0.511619
9.46094
1.14606
-0.368089
2.73749
2.1984
-0.211593
-0.507809
1.12304
-0.413552
-0.074956
-0.364102
0.720716
0.0473803
6.02971
-0.359197
0.659019
0.424319
7.32499
-0.671593
0.270005
-0.623027
-0.542349
-0.288913
-1.29928
1.82678
0.210975
-0.680495
0.0524042
-0.235231
-0.222356
0.0250137
0.373135
-0.0512821
5.33565
0.319284
1.91487
0.035181
-0.132041
-1.20264
-0.55955
-0.0160282
-0.214614
0.0160303
0.163982
3.24204
-0.485383
-1.2119
2.12831
-0.554556
0.075579
1.7908
-1.89243
0.121709
-1.3631
-1.28324
-0.383421
-0.417502
-0.454423
-0.159191
0.00904156
0.235063
-0.181466
0.125812
1.13353
-3.01108
-0.0831492
4.13461
-11.5257
3.28985
-0.116373
0.366783
0.333701
-0.160813
-0.452664
0.201729
0.026167
-1.70844
0.406717
0.345608
-0.0320312
-0.37279
-0.0291951
0.0677146
41.6939
0.345938
-0.784061
-2.30922
1.73368
-0.255866
0.627614
0.0755231
0.272336
-11.2461
-0.143086
0.203147
0.234279
-0.415782
-0.742148
0.326913
-0.418336
-1.92586
4.3782
-0.545223
-0.240069
9.20598
-0.320819
0.00819756
-1.37897
0.390119
0.212429
0.300147
1.88892
-0.189715
-2.80225
3.94624
-0.443586
-17.4833
-11.4413
0.0656954
-0.584294
-0.200011
-0.155277
0.0475183
-0.468358
-0.96092
0.291361
-0.433214
0.243187
-0.158205
-0.0662342
-0.333472
-0.400312
0.278075
-3.45657
0.286117
1.9917
19.2935
0.0626111
-0.485517
-0.286821
0.328919
-0.10367
11.7429
-0.479669
-1.88485
-0.0893572
0.156608
0.461499
-2.10612
-0.763999
15.7067
-0.303964
0.106328
0.101566
0.374923
-0.778298
-0.0410735
0.420946
-0.287186
-0.547942
0.211558
-2.54406
-0.223513
-0.336764
-1.93755
