-25.4549
-11.4569
-0.801328
2.25595
-0.529912
-262.151
4.29009
-0.546439
-1.38762
-0.367561
-0.5166
-0.364926
0.914302
-0.195722
-0.607875
-2.16311
-2.72875
2.46152
-0.981901
-0.405236
-733.855
-6.31463
-109.406
-27.0541
-0.0592114
27.08
-19.0113
-2.87458
-473.925
-0.566174
0.104136
-0.363471
-2.22826
-0.917236
-0.313534
-4.48089
0.148343
1.09902
3.76008
-0.179246
-17.4098
6.92525
-1.34141
-1.58985
-0.600238
-2.89797
-0.692846
1.59112
0.385128
-0.135117
-0.879072
1.48917
-1.06672
-0.00337008
-0.163657
0.739375
0.998099
-0.0862571
-0.827854
-0.111023
10041.1
-7.12492
-0.0394759
27.4532
-0.151017
-6.2328
-9.27291
0.797209
-0.569589
9.05426
-1.39614
-1.0728
-0.836777
-0.8752
-1.79841
0.431926
-2.90986
0.0459356
-2.29066
0.549147
111.466
-105.359
-28.4861
168.345
41.4556
0.683004
-2.32297
1.72692
-2.86353
-0.0883261
-2336.94
54.2431
-0.21093
56.7017
-0.483821
104.019
-1.22932
-37.4913
2723.69
-0.0578558
-2.76499
-2.0036
-0.0152991
0.0610175
0.123945
-0.658041
-0.180072
-0.971069
-0.419562
-0.363701
6178.76
10.4366
-3.33246
-4.05099
-0.385969
16816.1
4360.7
0.911852
-1.65989
-0.533632
-0.0345785
-1.92738
-1.51046
-1.11152
-0.0548913
0.438458
-1.81779
-0.245253
-0.767338
-0.825224
-3.03521
-1.58366
-1.48722
0.615463
-0.0535611
-83.4455
0.0795714
6.09859
-0.389717
0.0784728
-0.856646
-1.03729
1.90133
-0.528026
-0.312145
-1.10732
-0.393054
-0.284263
-0.306485
-1.90186
4127.31
-0.125222
0.0502772
29.2135
2.39774
-2.58758
0.76375
-0.346279
-0.289107
-0.483436
-25.2642
-0.793143
-1.26158
0.607909
-0.407096
-89.2575
2.14124
-0.25779
-0.499087
-0.144513
-23.2613
-2.98104
-0.945203
-2.10628
-0.234905
16505.5
4326.25
-0.521914
-0.481419
-194.314
-3.73613
-0.731156
-0.086091
-0.0522878
-0.307822
-17.1285
-0.283116
-1.69528
-183.481
-0.785212
0.509139
-0.510504
-1.42138
-0.786553
-0.290443
-0.151868
-1.2881
3.49927
-0.144713
-0.372828
-9307.17
-5.03557
-1.01813
-1.81276
-0.837272
3.51027
-0.22999
-3.70065
0.364604
-0.500739
-0.199968
3.39025
0.412474
-0.0874371
-0.376392
-1.52134
-0.679236
-0.811716
-0.659989
-0.221711
-10878.8
-584.503
0.345555
26.2945
-0.280608
57.2446
6.68733
20296.5
-23.625
-0.32457
22.7564
1.33686
0.0541998
-2.84347
-17.2132
-130.793
-16.9638
629.88
1772.51
18.0786
1.23789
-0.972234
-1.29287
-0.504138
-0.656142
-0.940774
87.1275
-26.6243
-0.70562
70.3685
7.86003
-2.14621
-16.3648
3.48008
132177
-1.35157
-6.29573
3.59465
-1.2123
3.54197
0.0330867
-0.260647
-0.288646
0.835761
-69.2737
-2.45289
-0.132905
-0.546699
0.130743
-0.0024604
0.960764
-0.602626
-2.14901
0.111176
17.3311
-4.68905
-2.34506
1.67456
2.65732
41.8733
-0.213834
2.75304
-3.06917
1.11402
-17.1478
2.51173
-34.5773
-339.412
11.5697
-0.215584
140909
-2.71382
-0.357809
29.5541
-136005
0.0575888
8.06194
1.12406
-13.025
-0.514127
-0.122548
-15.0301
9.02105
37.9352
-10.8461
-201456
2.11301
6.8193
-7.62635
3.68428
1.30935
-0.156306
-0.434432
0.700991
-0.946455
95.0713
3.30332
0.519359
0.424067
0.636611
0.334941
0.305674
-0.313132
1.48149
0.173225
-24.2086
-3.52118
0.474069
-3.16685
-8.8807
-35.5781
-0.166125
-23.6357
-13.7792
-1.54453
110.334
-3.24228
67.343
-480.311
-5.07293
-2.24413
-154467
4.08095
-0.223907
-37.1183
-117549
0.14718
-7.48443
-1.60951
8.92438
0.118697
-0.263686
10.5237
3.60684
-6.21573
-6.78787
129286
0.14309
-2.85357
0.47914
-4.06777
-1.24303
-0.102956
3.7102
-0.480784
4.79006
-53.0489
8.15722
0.0673312
2.66557
1.6687
0.405843
11.4519
7.28916
-0.0803985
-0.354824
-9.85653
-1.0485
-8.23913
0.848312
0.487972
-124.979
-0.0662944
23.4409
-5.85161
-7.84398
80.1518
-3.75894
-3.93571
-908.558
4.83439
-0.121959
154674
1.81511
-0.390675
-8.43767
-212540
-0.360476
-6.6334
0.684893
3.18408
1.71863
-0.164855
-0.620871
-11.9157
22.5437
4.47565
-173011
-0.23798
-19.4624
-0.999294
5.31572
-5.51666
0.374275
-6.07388
0.265413
-4.89693
-34.652
-8.59625
0.179978
-2.97119
-2.803
0.0838108
-14.041
-0.534325
0.948732
0.148148
20.4613
2.81256
-4.92831
-1.94448
-8.7663
148.405
0.187594
-44.6388
-7.02851
20.0843
-95.1949
4.34258
54.1624
136.747
27.6812
-0.173587
-178214
0.514471
-0.106927
14.5682
65019.2
-0.248043
6.45362
-1.23687
-28.2385
-2.28377
-0.199991
