0.0185169
-1.87838
-0.0671531
-0.344088
-4.72295
4.66897
-0.0260458
-1.35436
0.0343963
-0.263126
1.63328
-0.314301
-1.46603
-3.43033
-0.444585
-0.178476
-0.548619
0.263516
0.0369198
-0.357511
-0.414449
-2.54584
-0.565706
-0.720445
-1.7706
-0.744237
-0.572125
-0.651185
1378.76
0.598844
-0.506249
-0.422338
0.038093
9.86139
-0.842752
-1.40688
-2.72942
3.28968
-1.12438
-0.490355
-1.12839
-1.48826
-0.45276
-0.919033
-1.17828
-331.088
-0.895718
-0.101437
-3.20081
-1.66743
-0.303245
-0.775274
-0.0499237
3.6936
-0.810727
-1.60134
601.985
36.0242
-0.30779
-0.274105
-1.01348
0.848292
-0.748937
-0.760302
1.54743
-3.24153
-3.07204
-0.157971
0.163102
-0.737153
0.70021
3.36018
-2.24407
0.821346
0.125132
0.0485163
-0.216462
-0.503409
-0.407461
2.11263
-0.598755
1.79111
-0.228563
-0.722776
-0.229036
5.14511
-4.14641
4.70306
-1.48461
0.0679649
5.47152
2.50334
-0.0867579
5.68194
-1.06903
-3.92823
-0.706984
-0.747219
-0.115736
0.697297
2.53859
-0.737509
-24.0595
0.292247
-0.424211
-9.32173
-2.97394
-0.25598
-16.8095
3.93502
28.0567
-1.82875
0.925146
-0.346838
-1.37087
-40.5855
-1.12185
51.5612
0.143741
0.269032
