-5.14196
-3.46614
0.269092
-0.313595
0.171535
-0.00757564
-0.0239913
0.268451
0.724476
0.00915141
12.8842
-8.50456
-0.510681
-0.198982
-0.0489453
-4.21134
1.26309
-0.314757
0.0189719
0.68541
6214.12
0.629216
-0.109657
-0.0818911
-0.0653201
0.778234
0.287124
-0.399822
-0.185278
-0.0232689
-4.2455
-0.862452
0.471142
0.264263
-0.0414228
-3.71275
-0.273719
1.33027
-0.0854555
0.0390471
-1355.4
0.12069
0.0344636
-0.437788
0.00145918
4.21032
-1.40849
-63.0986
-0.0424984
-0.0433811
5622.88
0.826554
4410.32
-0.616906
-0.126038
-0.568768
0.0978683
-0.208033
0.406569
-0.00941846
2882.64
2.26073
-0.194071
-2.22165
-0.0573344
1.91671
-0.0269516
-1.25925
-0.61778
0.00343146
-2.15122
-0.313701
0.0121549
-0.532197
-0.0120427
32.9134
1211.34
2.58548
-8.81541
-0.249047
1.09183
0.617531
-0.875174
-0.735144
-0.0342865
-1128.23
0.469489
-0.397469
-0.263816
-0.00266555
-844.704
-0.169431
-3254.57
0.100748
-0.0343337
-0.277069
-1.4286
-0.406968
-0.246149
0.0124606
-0.732308
0.359802
0.99555
0.116231
-0.0272744
23976
11218.8
30.6784
-0.802628
-471.26
-0.03931
-0.0166276
-0.42577
-0.488505
-0.0525832
-0.140434
-0.711597
-0.194032
-0.68802
-0.0124918
0.285512
-0.905069
0.253254
0.284086
-0.0268589
0.398894
-0.0951431
0.995675
-0.410277
-0.0328475
2.03494
0.14727
-0.776761
0.28891
-0.0404011
1.23605
0.466728
-0.362502
-1.06559
-0.134177
-1.49096
0.225962
5531.01
0.383076
-0.02316
-7.69773
-19.5374
0.699273
0.25536
-0.0739556
0.526116
-1.07054
0.474
0.5929
-0.00765054
1.46552
0.197166
-1.26117
0.0792853
-0.0260545
-0.288828
-0.775239
-0.503498
-0.723598
-0.00525843
4.87021
6.57908
-2.82274
0.996268
-0.00455156
-0.142012
0.0916735
0.199513
0.122245
-0.0539622
2.05687
-0.0273614
-0.439515
-0.477043
-1.92152
0.0657471
0.056876
0.235984
-0.0438614
-0.0348658
0.144859
0.589977
3.46447
17.8031
-0.0628397
-2594.5
-0.460445
-0.200716
-0.197751
1.45275
-1.27709
-0.604796
-0.411087
-0.368872
-0.0430586
0.369653
-0.562283
-1.00815
-0.286976
0.0178696
-1.93836
-0.580887
-0.0612807
-0.32464
-0.0502546
-0.556009
-0.0856834
-0.361571
0.0874098
-0.0280006
-19.4303
-5.18661
-0.577063
0.398788
16.366
-4.40636
0.142267
-1.70682
-0.231708
-0.0607905
-65.1497
0.10771
0.293801
-0.415447
0.12614
-9.89079
-2.62413
-33.5991
0.263189
-0.0158548
291.084
6.31884
-3.61253
-0.674157
-5.10203
-0.411521
0.11074
-0.52795
0.306803
-0.00959771
1.2227
-0.095287
-0.694293
-0.379833
0.00136565
-187.614
-0.468518
0.552947
0.172043
0.250274
7.37896
-3.37792
0.194586
-0.37519
-0.280634
-0.416758
-0.0919155
-1.22215
-1.73232
-0.0392882
-1.23068
0.228422
1.28864
-0.0737508
-0.014691
3.73295
0.122818
-0.507829
0.313793
-0.256975
0.130254
-0.0265279
3832.5
0.586297
-0.286808
-0.349586
-0.770574
0.0804497
0.402994
-0.0274476
-0.267699
-1.18778
-0.119924
0.000893512
0.00226779
1.17018
0.631075
-0.705757
-0.386966
-0.0342413
-0.132688
0.373948
-1.17576
0.0554611
-0.0422719
-3.48319
-0.340015
-0.561337
-0.12216
-0.0921616
-129.627
9.18547
9.0789
25.1161
-0.0566821
-2.65654
-0.547175
-0.0656034
-0.196307
-0.0067163
0.204107
0.260131
-0.874716
0.194374
-0.0577321
0.698066
-0.422425
0.151403
-0.229802
-0.0539258
-9337.84
-0.634739
0.226664
-0.911665
-0.0500909
-0.621774
0.38928
14.301
1.78261
-0.0484351
-2.84533
-0.298769
-0.895781
-0.135727
-0.0531982
1.32898
-0.511448
-0.520576
-0.261198
-0.0100419
-3.55389
0.388662
-0.0439504
-0.584109
-0.102909
2.97488
0.352539
13.3973
3.26967
-0.0430563
-16428.6
-0.446992
-0.0475972
0.254004
102.5
-0.522281
0.181563
0.751564
-0.203023
-0.0536507
-2.29895
0.549217
0.147221
0.194368
-0.0844795
-0.131364
-0.369298
-2.46118
0.46567
0.297571
0.45188
-0.528934
-0.41868
-0.195629
-0.0919909
-2.35636
-0.412342
0.430343
-0.175794
-0.0223895
-0.524653
-0.0658209
-252.959
-0.0951904
-0.0375037
-1.69748
0.0313306
-50.8244
0.384275
0.0281603
-0.217765
-0.0777139
-0.249321
0.213674
-0.0034619
0.197722
0.818294
-0.498883
-0.00802098
-0.134433
-2.93678
0.219963
-1.07766
-0.239308
-0.0302711
77.5839
-0.2456
-1.22056
-0.245412
-0.0130485
-2.57486
-1.38735
-1.35559
-0.193811
0.0805679
-9.68896
-4.02134
0.263509
0.0965575
6.73469
-2.56298
-2.20601
-0.0186992
-0.0559836
-0.0293023
0.232665
0.564731
-0.439624
-0.87745
-0.0820713
-2.92128
-0.964486
1.89506
-1.51061
0.456755
1.20423
-0.546119
-2.64437
-0.829585
-0.11383
-0.468247
-1.58499
0.254693
-1.68857
-0.0177121
1.27719
-0.0114101
-0.21341
-0.602979
-0.107994
-0.371943
-0.211252
0.156605
-0.55697
-0.0318156
-2.11855
0.247319
-3.41336
0.396127
-0.0748814
-1.10019
0.313975
0.572128
0.503102
-0.0341187
-4.41898
-0.306715
0.136064
0.00873982
0.592606
-0.757366
-0.172348
-0.139636
0.0864425
-0.0705287
0.189979
-0.268298
-0.124081
-0.354152
-0.0198106
-154.143
0.121583
-0.336817
0.327893
0.00472638
-1.99564
-0.868693
-0.585614
0.189906
-0.0143969
-2.48384
-1.33462
-0.762963
-0.203922
0.931346
7.99555
-0.00402442
-0.920197
4.40638
-0.0509387
0.262398
-12.0742
0.619692
26579.9
-0.704833
0.595916
-0.45805
-0.166447
0.256629
-0.186783
-0.0436626
0.104125
31043.8
-35965.1
1.40584
0.0396393
0.198502
-0.242546
0.186448
0.0952481
-0.209047
-0.324652
0.153289
2.91332
5.52802
0.0552128
0.114315
0.237777
0.297869
-0.161349
-1.11898
-0.519287
-0.079881
27953.3
-1.1547
0.0450479
-3.819
-3.41518
-9.7144
-12.7058
10.9355
-26.3827
2.61743
-0.314051
-0.568341
144.886
0.649237
0.127599
0.890366
-0.355687
0.458758
-0.227207
0.295576
0.0744269
-0.325717
-0.711545
-0.0955125
-1.9619
-0.0883055
-0.177891
29794.7
-0.566757
2.16403
0.336594
1.70122
-0.0352039
29564
0.0860683
-0.494185
-0.506742
0.0835183
-2.29758
34.8237
2.19219
0.10626
-0.0674569
-1.65038
0.155078
0.494911
9.94058
-7.08759
0.243557
-1.16043
-0.10167
0.762643
-0.0596514
0.266737
3.58875
-0.374944
-0.339396
-0.072712
0.323125
-130.986
0.45774
3.06257
-0.0370279
-11.9266
-0.373308
2.53661
-2.41533
-0.485963
0.0448583
29.4208
-5.09767
5727.26
2.57332
0.194071
0.427059
-0.40334
0.243462
-0.158254
-0.380123
-0.0961323
-1109.84
29608.7
1.92467
0.0215347
-0.417594
-0.0770292
0.202223
-0.166327
-0.465202
0.108022
-0.0194469
0.118295
-5.5252
-0.420545
-0.457211
0.46585
0.190088
-0.320308
-1.16429
1.49883
0.0383427
-545.475
-3.85302
0.13424
-0.0130702
-2.61649
7.85388
19.3265
-21.4448
-15.7376
-0.160533
0.494236
-0.124518
-106.833
-0.504944
-0.599724
-2.79813
-0.212582
0.143587
-0.35895
0.38913
-0.499727
-0.162124
32.1132
0.73982
0.374049
-0.148172
0.0851494
1407.48
-0.314257
2.68455
-0.42464
-0.00651813
-0.0125811
5385.39
0.138119
-0.000495224
-0.457952
0.461497
1.12851
-53.0075
-0.202893
0.217382
-0.291886
-5.18342
-0.154392
-5.05161
-12.744
-2.11505
0.315074
2.91747
-0.40103
-1.01889
0.17783
0.59713
-7.95375
-0.357864
-6.6376
0.0949569
0.320027
96.5979
2.14319
-0.12893
0.00709209
21.6327
0.327399
-1.40761
-0.0207477
-0.0771708
0.347711
10.3372
-5.26979
63311.4
0.115142
-0.192152
-0.237502
-0.418079
0.733015
-1.05378
-0.3144
0.166248
61257.4
25605.6
2.45952
-0.108064
-0.308579
-0.177734
-0.116908
-0.0257753
0.146845
-0.0446581
0.0155338
-0.71564
7.6948
0.140055
0.446864
0.285046
0.681451
-0.13466
16.5654
-4.84914
-0.306281
60395.6
0.220738
0.227216
-0.156436
-3.87204
6.64924
-3.75697
8.41583
47.4459
0.0394188
-0.386125
1.02937
3.25811
-0.460073
1.34012
-0.438061
0.08706
-0.246859
-0.0703781
-0.0334765
0.157109
0.000745496
-44.9091
0.024899
-0.135867
-0.00812265
-0.39869
71208
-0.471162
17.1576
0.124052
8.61851
-0.462557
73648
-0.505888
-1.04049
0.439841
-0.254761
-1.00229
-0.282082
-6.76385
-0.0559566
-0.338958
7.04923
0.371553
-13.5912
3.04136
-35.9296
-0.0621218
-1.87504
-8.80972
-3.55652
-0.247662
-0.377708
-2.86083
-0.0929667
-7.2984
-0.138951
0.47607
-14.9669
0.349832
28.1283
-0.00892126
2.51577
-0.533675
2.5038
3.08216
-0.0030397
-0.126571
8.20852
-13.8087
-84539.3
0.801201
-0.0152554
0.223636
0.407463
-0.443396
-0.154164
0.150014
0.324944
-89142.1
-6361.7
-0.42947
-0.191573
0.303753
0.395451
-0.514144
-0.138671
-0.035394
0.36306
0.408956
-0.429172
-17.3312
-0.454874
0.160679
-0.0496059
-0.601307
-0.145523
-17.1838
-0.362796
-0.129947
-82880
-0.756909
0.261972
-11.4546
12.8745
-6.58725
-0.288337
-24.991
-44.7872
1.76339
0.405695
3.71627
-224.014
-1.96085
-1.71329
0.0155912
0.221439
-0.0691996
-0.335389
-0.335764
0.248482
0.378272
45.8622
1.62968
-13.8334
0.270419
0.416972
-88527.6
-0.353838
6.62027
-0.0691416
-7.10057
0.0248542
-92663.7
-0.358756
2.76679
-0.228646
0.239749
4.14795
5.81986
9.90373
-0.215359
-0.244845
0.361367
0.217754
5.12142
-1.97
23.4623
0.317288
4.52545
3.86942
5.0165
0.267478
-0.331332
-11.6849
-0.00812181
2.51422
0.0891814
-0.126325
226.979
0.00304851
-21.2967
-0.0507753
