0.119923
0.167955
-1.10797
-0.69972
-0.990594
0.0395431
-0.784464
0.0647993
-3.12558
-0.136723
0.0651845
0.158777
-4.08902
-0.924039
-0.805406
-0.724146
-1.14477
0.372699
-0.474024
0.000607338
-0.0806867
-1.40969
-1.1413
-1.00644
-1.48566
-0.106908
-0.220664
-0.52882
-4.87766
-0.197402
-1.05179
-0.972329
-2.44119
-0.551048
-0.155287
-0.478059
-4.68941
0.0786501
-0.439282
-0.8143
-1.54466
0.125917
-0.330748
-0.595377
-0.0114272
-2.06875
-1.6685
-1.80471
-0.372947
-0.100884
-0.354062
-0.56604
-0.95846
-0.18203
-0.372534
0.210678
7.1006
-7.8872
-0.644238
-0.0345002
0.794563
-2.23164
-0.28847
-0.486752
-2.60464
0.217042
0.136753
-0.1362
-0.709327
-0.523443
-0.0754054
-0.643123
-1.36617
-1.25173
-0.944155
-1.30232
-0.15198
0.029803
0.0407572
-0.263369
0.414373
-0.565167
-0.673326
0.00155519
-0.647709
0.200584
0.287129
-0.633703
-3.68662
-1.18364
-1.363
-0.897877
-1.51492
-0.770972
-0.3794
-0.571171
1.29815
-0.505498
-0.515352
-0.0645336
-2.54673
-0.061879
0.168004
0.117582
-4.67544
-0.171828
-1.06146
-0.548467
0.150966
-0.291498
-0.466147
-0.451836
-0.336198
-0.252901
-0.31215
-0.696988
-3.23141
0.132804
-0.843852
-0.936352
-2.28898
-0.971253
-0.951923
-1.29396
0.329649
-0.263214
-0.531086
-0.533569
-0.460565
-0.0184955
-0.443853
-0.336381
2.99919
-6.98162
-0.690864
-0.4054
1.14316
-0.197176
-0.0982776
-0.641939
3.51748
-1.93624
-1.66972
-1.69497
-0.509105
-0.169529
0.051126
-0.132466
0.0572184
-1.33098
-0.181868
-0.410752
-3.46564
1.22237
-0.259913
-0.430519
-2.52989
0.0955065
-0.326826
-0.261011
0.119485
-0.341806
-0.09694
-0.13906
-2.25027
-0.9046
-1.59943
-1.11055
-0.745786
0.141561
-0.599958
-0.0865843
-0.479281
-0.456146
0.116295
-0.694565
-0.688283
-0.880675
-0.909461
-0.244601
0.417361
0.0026474
-0.090882
0.00883518
-0.153619
-0.668156
-0.263307
-0.734337
-0.229389
-0.659182
0.0460919
-0.00425207
-1.09926
-0.23542
-0.934671
-0.472402
1.81274
-2.15997
-0.1032
-0.519301
-0.70588
0.192645
0.388707
0.504368
0.230783
-0.121646
0.698121
1.24007
1.90103
1.34574
0.224026
-0.0356805
0.104933
0.0988009
-0.427457
-0.759579
0.555377
-0.191968
-0.477524
-0.209129
-0.242287
0.0690807
1.07731
0.334094
-0.314649
0.187493
1.03242
-0.658724
0.275572
-5.90454
0.65541
-0.110764
0.370378
-0.322967
-0.617872
0.895884
0.262804
-0.0743542
1.47666
0.599085
0.0793448
0.421103
0.203256
-0.087308
-0.29017
-0.518295
-0.0953303
-0.153763
0.495774
-0.801793
0.364703
-0.129789
-0.0794089
-0.533111
-0.602266
0.0531785
-1.2488
-0.28666
-1.33222
-0.359047
-1.89557
-2.8325
-0.213867
-0.515138
1.03788
0.0373908
-0.47131
-0.291007
-0.344086
-0.629467
0.192023
-0.137581
-0.652575
-1.32785
0.483769
-0.427486
-0.294937
0.175844
0.0919703
10.3243
-0.531132
0.0978657
0.310563
0.236277
0.416791
0.641307
-0.179205
0.424234
-0.154258
-0.204022
0.256345
-0.33045
-0.867714
-0.116723
-0.410873
0.0226635
0.256609
-0.451783
-0.762056
0.402858
0.247797
0.531128
0.313683
-6.24971
0.000775613
4.77002
-0.246061
-3.95863
-0.2944
-1.13143
1.05091
7.08826
0.369321
0.392725
-0.656005
0.109521
0.162845
0.37869
8.9105
-2.17927
-0.24679
0.444118
-0.33122
-0.301385
0.0843674
-0.35155
0.198007
-0.187716
0.439971
-16.8496
0.586771
-0.104392
0.651497
0.0408918
-0.328565
-3.04131
-0.465028
0.260208
-0.023992
0.282132
0.0948406
1.28896
1.23092
-0.382903
2.31502
-0.464065
0.315181
0.229336
0.174549
0.0315894
-1.63519
-0.0846695
-0.0350667
0.305009
0.0211303
-2.98914
-0.768784
2.44129
-0.685555
4.54472
-1.02112
-4.81667
-0.152965
-0.0657656
0.231083
0.219776
0.0201493
-0.613733
-1.58188
4.38904
-0.329672
-0.000491547
6.9152
-0.795015
-0.371915
-0.247994
-0.511685
-0.425726
-0.828053
21.8843
-0.953823
-0.188659
-0.437352
0.355188
0.0968743
3.71001
-0.862795
-0.731296
-0.473814
-0.684833
0.0900668
-0.296374
-0.0948289
-0.380143
-2.93917
-0.102345
-0.395772
0.174908
-2.58286
-0.173548
