-5076.8
-1070.17
-1.16757
-42.7352
-2.07672
0.151066
-0.867712
-1.36758
-14.4443
11.4227
-0.415595
-4.47601
-1735.98
-188.713
-0.458937
-10.7549
2.53318
0.935789
-1.28455
-1.23273
-0.417143
-198.526
-7.72763
-2101.68
-4937.49
470.795
-647.428
-2765.11
75.0311
-61.9895
-2.69183
-0.95951
-540.368
2145.49
-531.031
1251.73
90.9848
-7.95528
-1.06295
1.07715
-1797.37
-95.3097
-0.423555
3695.22
-1.21946
-13.911
-0.240122
0.254248
-9085.88
2981.87
399.802
3605.88
-0.754949
3.07874
-0.416474
-1.34998
-3432.54
8.52273
-0.505996
-2.31124
8856.46
0.947875
-29.4619
2330.71
5.94862
0.400901
-2.49523
-1.00927
-3549.68
-489.464
-3.63776
-14.4081
-0.206519
-4.68562
-0.492993
-0.324041
-1.47845
-4.59705
-0.740359
-0.588749
3254.83
-0.397558
0.0631989
3973.2
1.59103
3017.57
-0.43118
0.332729
0.0137177
-0.126462
-0.0530219
4.97106
-0.0396982
0.62846
-0.207284
-0.0813748
-1.33841
11432.1
-8.56951
-4.39584
-3829.05
1.90215
0.174424
-3468.8
1.09417
-3660.12
0.0824218
-0.0335925
-0.0943797
-0.166878
-0.0403717
-2.68849
0.157345
-2.69419
-0.309342
0.0715851
-1.44811
-12459.6
3.89802
3.82243
4757.93
-2.24813
1.50603
684.177
-1.81624
2336.3
-0.318673
-0.464794
-0.702486
-0.725582
0.260692
-2.34693
0.107547
0.0627417
-0.678782
-0.140933
3.02898
11831.6
10.4221
-8.43904
-7587.32
-0.483045
-0.3335
-4228.08
2.89662
-4183.7
0.361624
-0.080035
0.589245
-0.020853
-0.249951
-0.151009
-0.205095
-2.02035
0.211904
0.326036
-2.54905
-15332.9
-13.1635
18.9107
